4007 64
酒店 0.15378608 -0.30103537 0.23896518 0.37330464 -0.2891097 -0.25643495 0.33722678 -0.18172778 -0.35636237 -0.009446992 0.36107656 -0.1440264 -0.11338143 -0.18269119 0.08165079 0.20958349 -0.10223162 0.042174175 -0.19714428 0.19461167 0.28644395 0.44847184 0.4486509 -0.40884283 0.41378883 0.36387956 -0.38000518 -0.035854258 0.10470527 -0.30974278 -0.2052898 0.14314495 -0.058651127 -0.24129419 -0.20400754 0.0976672 0.21258366 -0.0739492 -0.074392244 -0.015645226 -0.08715274 0.21151474 -0.06502669 -0.42514795 0.24740398 -0.074951895 -0.10105 -0.15080371 0.22378157 0.2769991 -0.1732412 0.06638972 0.13990082 0.25228995 0.15192337 0.13347681 0.1971113 -0.21889208 0.16046777 0.17000161 -0.07282965 -0.2095815 -0.008214912 -0.038800433
房间 0.45747438 -0.3020127 0.36084318 0.29392356 0.013460496 -0.16574131 0.27564627 0.005288603 -0.22316898 0.17726427 0.12956277 -0.38770068 0.16620597 -0.16432804 0.15471213 0.3336035 -0.0850692 -0.13204862 0.030792182 0.3950036 0.25500655 0.43726096 0.5041094 -0.4403177 -0.016144002 0.6047027 -0.062359713 0.07562779 0.22559066 -0.21035498 -0.002285797 0.04654371 -0.49247676 -0.12752393 -0.43472037 0.16046122 0.006256872 -0.084844835 0.24710718 0.08229202 -0.08250763 0.15981123 -0.31869593 -0.22769558 -0.016616825 -0.20075144 -0.17073794 -0.1555889 -0.11074292 0.2863188 -0.037063602 -0.19238697 0.13417588 0.32217285 -0.1379079 -0.21589275 0.2018598 -0.43506196 -0.07311883 -0.13450338 -0.13634858 -0.15073273 -0.14318183 0.10008867
没有 0.38073316 -0.21011059 0.3487046 0.26342133 -0.016793631 -0.1688707 0.25230855 -0.07037562 -0.18466744 -0.0495285 0.052275404 -0.18145302 -0.11915121 -0.20157385 0.07001429 0.27188927 -0.073645 0.02108937 0.29468355 0.31977507 0.27936023 0.28396854 0.20645489 -0.36467803 -0.16725096 0.19626924 -0.255172 0.21786417 0.17177746 -0.11049922 0.09882793 0.040002566 -0.21376169 -0.057904385 -0.18845344 -0.058543146 0.15302502 -0.038076304 0.16192456 0.010758432 0.0710091 0.014902048 -0.22730671 -0.28406954 0.34360573 -0.1685742 0.053844195 -0.14167279 0.008092422 0.33340034 0.03474058 -0.13340046 0.026533557 0.35648787 0.07975031 -0.08933133 0.0016421236 -0.24350274 -0.2344079 0.013237102 -0.047092322 -0.12393178 0.1998833 0.053208645
住 0.2385595 -0.5476226 0.1911517 0.44224256 -0.23442183 -0.17625369 0.1242534 -0.14045954 -0.3841481 -0.08911877 0.23672289 -0.40896526 0.23456791 0.012081288 -0.05609564 0.17245373 -0.35339597 -0.0953158 -0.22533977 0.2665702 0.5445803 0.31409723 0.54399574 -0.21205749 0.3453408 0.5712299 -0.20683447 -0.04954582 0.15394764 -0.24938232 0.079945214 -0.02197195 0.011135228 -0.24753234 -0.26360944 -0.051565133 0.25966603 0.067195356 0.034995645 0.10930504 -0.23712797 0.116926886 -0.247249 -0.2816013 0.1558797 -0.06524095 -0.025127593 -0.23208615 0.36252704 0.25860327 -0.13732743 0.10947149 -0.066339865 0.33016413 -0.23360115 -0.2138693 0.08475726 -0.037559148 0.18066312 0.24890216 -0.25211507 -0.23158997 0.16773361 -0.065527
服务 0.06413702 -0.22307798 0.23878987 0.15703149 -0.17500652 -0.40049314 0.4811464 -0.053013876 -0.4113783 0.3483093 0.27657482 -0.018535089 -0.32553625 -0.31137004 0.3544371 0.25969753 0.2299269 -0.35890234 0.048689798 0.442769 0.12067289 0.47403407 0.37926093 -0.4046952 0.41814947 0.28890017 -0.67138356 0.0033183866 0.31321916 -0.23243241 -0.17097297 0.07309785 -0.2609594 0.07460235 -0.36133933 0.2308008 0.04957043 -0.038212374 0.32036787 0.11176835 0.20339487 0.31416485 0.077196 -0.41000792 0.2693058 -0.049758833 -0.0618369 0.032170884 0.14224571 0.32756963 -0.20561019 0.0275892 0.25494802 0.10467849 0.519946 0.34394196 0.011291166 -0.49163085 0.22394313 -0.004841728 0.16921641 -0.3881767 -0.00549585 -0.045743022
不错 0.21260302 -0.38544884 0.27829263 0.17753655 -0.023000976 -0.21948761 0.282667 -0.10423846 -0.3001033 0.1037565 0.40823996 -0.35138342 -0.14997911 -0.07127335 -0.09421676 0.4259066 0.04922879 -0.12326068 -0.23585443 0.41915265 0.27665874 0.574347 0.59959924 -0.3891504 0.26832986 0.71415806 -0.3955094 -0.1409879 0.0686182 -0.17622769 -0.159776 0.20966396 -0.2960902 -0.17639405 -0.533338 0.084409535 0.17971918 0.2633442 0.29078475 0.06155831 -0.0916838 0.097305715 -0.19329143 -0.3826664 0.05749246 -0.17629343 -0.3427794 -0.1377912 0.13069108 0.27127975 -0.29344195 -0.106132336 0.14971894 0.40371212 0.13331564 0.085966 0.08861275 -0.42531782 -0.053071007 0.028652087 0.0993556 -0.19184397 -0.16362154 -0.20181125
入住 0.1072346 -0.5631606 0.5137953 0.58563226 -0.28691193 -0.25391206 0.27889675 -0.03415281 -0.27180594 -0.07659355 0.27087152 -0.18453941 -0.012617982 -0.5052314 -0.062301543 0.021799121 -0.2958723 -0.014105301 -0.0061439583 -0.046542883 0.5405388 0.45499524 0.3954476 -0.14444198 0.3735929 0.35385635 -0.25188223 -0.08945425 0.22728758 0.0906628 -0.088931836 0.37521446 -0.022140471 -0.020892596 -0.16054608 -0.026136631 0.42297545 0.09198789 0.079784095 0.04712462 0.1350601 0.30113897 0.059047684 -0.43198273 0.13795231 0.023630839 0.26598793 -0.3579077 0.236739 0.25516692 0.18326566 0.17530982 -0.0459923 0.28973356 0.13698383 -0.060179677 0.12796044 -0.026907386 0.12465125 0.20662102 -0.0598779 -0.2873237 0.21174873 -0.14010373
说 0.25737125 -0.27008754 0.28447276 0.34245715 0.0017744666 -0.22615772 0.23536377 -0.34894463 -0.3049495 -0.23283096 -0.062077228 -0.11396014 -0.17142111 -0.4073204 0.082841136 0.17952555 -0.13363598 0.05144513 0.5408489 0.30236953 0.2781781 0.22855173 0.30681816 -0.24717212 -0.051280424 0.086459145 -0.31879556 0.34291393 0.14612125 -0.045857493 0.25943738 -0.03548752 0.031625953 -0.10873105 -0.091883495 -0.28074053 0.14735188 -0.13025561 0.11276859 0.10841836 0.07012516 -0.16665463 -0.17079894 -0.32479703 0.45610502 -0.38072434 0.36510888 -0.10046909 0.16034345 0.31713408 0.16426294 -0.072402835 0.030747613 0.41895127 0.11896346 -0.186459 -0.17883965 -0.14813647 -0.107726604 0.033848375 -0.0663854 -0.3011349 0.5471044 -0.15085304
比较 0.31228802 -0.31967652 0.22607003 0.07342161 0.022267569 -0.18833594 0.30537397 0.017866522 -0.34685096 0.10806762 0.43218765 -0.4406969 -0.047370363 0.05430185 -0.04961027 0.48537752 -0.07586875 -0.09297019 -0.32657555 0.4825778 0.36476564 0.4941514 0.42329204 -0.31662488 -0.01946703 0.64993614 -0.39215958 -0.23919767 0.07493637 -0.34802726 -0.3619454 0.059742007 -0.35649604 -0.20738742 -0.44038612 0.20837231 0.120165914 0.14584747 0.17989096 0.052214675 -0.10750538 0.10748426 -0.2712903 -0.3227776 0.085775845 -0.07144078 -0.43361387 -0.2262129 0.028405532 0.28527042 -0.3464687 -0.19440784 0.25712848 0.39573434 0.1065345 0.15474921 0.10025097 -0.40257072 -0.23376997 0.13655226 0.037765745 -0.07939859 -0.29587904 -0.0151493205
前台 0.058054287 -0.2057334 0.3043813 0.42572856 0.071765415 -0.2774391 0.38210738 -0.33768645 -0.24182573 0.057369206 -0.08976152 0.04119375 -0.36682007 -0.6183502 0.17414655 0.10141645 -0.02136575 -0.15403974 0.55700415 0.20855857 0.22185175 0.37721148 0.40607017 -0.3925762 0.15171392 0.087365426 -0.41294506 0.37790322 0.1680583 0.094691016 0.15891549 0.29942992 -0.024373565 0.015301842 -0.23825406 -0.15495142 0.08625014 -0.031069469 0.2395127 0.08973213 0.22762111 0.1072716 -0.10168408 -0.34710523 0.26327392 -0.3545594 0.3094613 0.016933188 -0.025563644 0.27976212 0.23377849 -0.12890796 0.21275106 0.30829185 0.29493323 0.085859664 -0.16980025 -0.43598837 -0.09314419 -0.19566914 0.13599876 -0.34572086 0.35749647 -0.31791767
感觉 0.3431392 -0.46179077 0.348395 0.13415925 -0.16720225 -0.15910684 0.19264698 -0.11392324 -0.31178752 0.0791809 0.3086225 -0.4026793 -0.07112128 -0.12413064 0.034488108 0.27987933 -0.045493945 -0.2621964 -0.17174159 0.29342338 0.2698928 0.37865904 0.55145955 -0.45755216 0.29178798 0.6224036 -0.29581404 -0.15408243 0.24324128 -0.17125995 -0.028236577 0.08512011 -0.33707833 0.027136387 -0.3169001 0.059330296 0.12315881 0.13375056 0.08641131 0.11311377 0.04576641 0.15414779 -0.1758873 -0.35722113 0.06935301 -0.10569089 -0.19489247 -0.22514372 0.12263286 0.3185759 -0.18721963 0.018453779 0.04608909 0.21938245 0.05128926 0.018699748 0.23866944 -0.3138215 0.06382303 0.031919938 -0.08808464 -0.2900202 -0.16522254 -0.09826007
早餐 0.12431943 -0.26543662 0.24298352 0.3463609 0.1672731 -0.27173415 0.41775385 0.12369956 -0.42743012 -0.16777876 0.33217573 -0.24104244 -0.108370945 0.071994945 -0.017604744 0.09610647 0.019871717 -0.010574226 0.2599524 0.43812987 0.15849859 0.5480584 0.25909597 -0.24189372 -0.13198668 0.18884413 -0.6853698 0.051821012 0.005786475 -0.24187943 0.06458529 0.2778793 -0.21783808 0.02039932 -0.4671309 -0.058382276 0.31230265 0.15286537 0.4965096 0.29704818 -0.042685557 -0.23075068 -0.2674061 -0.42382243 0.32515815 -0.13179775 -0.45522082 0.20017298 0.11403923 0.60544443 -0.32735816 -0.07612172 0.19664264 0.40699255 0.1963895 0.39454818 0.052918263 -0.4200736 -0.24325861 0.046151683 0.26108328 0.058379706 -0.24025212 0.032353207
一个 0.194094 -0.3359061 0.28530368 0.24468055 0.0411864 -0.23255746 0.23965195 -0.058974437 -0.20106818 -0.036221318 0.0779942 -0.33230844 -0.06045796 -0.1289924 0.024782313 0.2087867 -0.27521876 -0.17445335 0.17816144 0.45526916 0.36233294 0.22251503 0.232574 -0.31812018 -0.19224434 0.20667303 -0.22013496 0.093042575 0.16092016 -0.18652782 0.15948287 0.036388624 -0.0493933 -0.026875062 -0.12733568 -0.02000043 0.14600676 -0.010466501 0.15091418 0.0838283 0.008455534 -0.011863346 -0.20580602 -0.18015844 0.18250822 -0.18217522 0.2232015 -0.092626244 0.0034105936 0.2846243 0.0732258 -0.055388294 0.09645111 0.31085104 0.009109297 -0.04472312 -0.023282666 -0.16250212 -0.16659825 -0.11582348 -0.109730415 -0.14892896 0.20734389 -0.12628058
携程 0.19808897 -0.14412664 0.28334573 0.711544 -0.35866514 -0.1585784 0.39694223 -0.30696452 -0.44291362 0.17597373 -0.095334254 0.0045183245 -0.031383958 -0.47611943 0.084613055 0.2744461 0.014855641 0.16265172 0.29820123 0.37865806 0.62340105 0.27882135 0.56446505 -0.27723044 0.3451059 0.078464694 -0.19976124 -0.21409494 0.1263148 -0.39138967 0.21861996 0.24258485 0.13087967 -0.16977565 -0.2573219 -0.024264129 0.34658983 -0.25971332 -0.26427224 0.20686558 0.29612038 0.34887847 -0.032176323 -0.41596988 0.35121045 -0.50061244 0.2792383 -0.014469073 0.14923072 0.28080037 0.18366319 0.18833594 0.15166758 0.36125246 0.14134307 -0.14258206 -0.07186004 0.16053028 0.06751771 0.28633672 0.09196924 -0.28777462 0.71154696 0.29552823
非常 0.19966877 -0.32286182 0.36097652 0.1603396 -0.12348877 -0.29272574 0.32684204 0.03100993 -0.24616233 0.0871156 0.3932336 -0.16630346 -0.0594525 -0.22032322 0.24338487 0.29259983 -0.15570207 -0.33757693 -0.1477816 0.36582655 0.19082168 0.43431744 0.19955969 -0.42204186 0.19641915 0.43652093 -0.50745624 -0.07527456 0.2867887 -0.0861041 -0.37303454 0.29632378 -0.32439196 -0.18357094 -0.21046388 0.24186869 0.20798765 0.22881025 0.16836384 -0.055040646 0.025504703 0.31913382 0.018958025 -0.25858068 0.16975772 0.21477339 -0.14135963 -0.2599431 0.08754493 0.32555646 -0.20013618 -0.0023610673 0.2517857 0.16890894 0.33202145 0.2123269 0.124204494 -0.2623372 0.012115617 -0.04865181 -0.039619442 -0.23616713 -0.25504315 -0.14438108
服务员 0.2030358 -0.20928484 0.30977434 0.19514935 0.121738285 -0.3233966 0.22263719 -0.27395466 -0.3153653 -0.11854035 0.064113796 -0.05161722 -0.44153476 -0.4262837 0.04633252 0.072036624 -0.07378192 -0.3060658 0.43810758 0.30722123 0.118985906 0.2736302 0.1695614 -0.479205 -0.13349539 0.09074277 -0.54952997 0.38387734 0.037814282 0.19435132 -0.0382759 0.1684959 -0.09810916 0.09644153 -0.16233583 -0.2550396 -0.1380231 -0.008191214 0.29216167 0.06997012 0.05007221 -0.10274868 -0.18611962 -0.2827056 0.28349936 -0.29692355 0.108314484 -0.034758326 0.08495277 0.24312735 0.12757125 -0.19792475 0.2973003 0.23072635 0.31598115 0.096101835 -0.13330905 -0.6042957 -0.19267069 -0.18347166 0.012326082 -0.18408242 0.14144462 -0.37096715
宾馆 0.13574779 -0.2811602 0.28059605 0.4728567 -0.34919944 -0.2804775 0.46173146 0.070805304 -0.27483425 0.08226363 0.46239173 -0.24299306 0.21394701 -0.13052438 0.2659818 0.37607157 -0.16514504 -0.095204175 0.13762827 0.5190913 0.1503187 0.29063863 0.07903246 -0.28619283 0.038007185 0.0073686796 -0.50300163 -0.31526694 0.18949974 -0.29766178 -0.14618999 0.31560823 -0.1931052 -0.25453633 -0.026366843 0.27525082 0.37651974 0.108018875 0.07364275 0.023522602 0.05154767 0.34962142 0.0740223 -0.39449435 0.56110966 -0.067655414 0.10320059 -0.0916336 0.24400865 0.6063534 0.06845667 0.19153582 0.31498602 0.1135533 0.2833021 0.23656698 0.14309236 0.20401071 0.11726163 0.24684414 -0.19217844 -0.0023680937 -0.07185839 0.19100313
设施 0.6837183 -0.30312082 0.43213433 0.0033617702 -0.07852978 -0.29370394 0.22183989 0.010264099 -0.114342876 0.199683 0.31884515 -0.6626812 0.16411138 0.055936188 0.2697468 0.5625254 0.0033506167 -0.43028268 -0.15284406 0.5767432 0.2511396 0.49323678 0.506287 -0.5660174 0.040912967 0.537829 -0.23536019 -0.21387526 0.14899477 -0.30129656 -0.33614764 -0.027153134 -0.683611 -0.04759016 -0.33160675 0.19608621 -0.101175904 -0.11293459 0.014464256 0.0020704884 0.0973144 0.22736561 -0.21382712 -0.4623964 0.037381615 0.05197629 -0.42127803 -0.1964616 0.04627024 0.40197122 -0.33537358 -0.1928516 0.04676763 0.3426783 0.1575151 0.20835264 0.20433602 -0.36989227 -0.20090096 -0.03631553 -0.23442166 -0.10616492 -0.30346328 -0.026076337
方便 0.06826697 -0.13672952 -0.17613357 0.194734 -0.05065568 -0.17029202 0.42388317 -0.1761058 -0.45078504 -0.05227325 0.6727693 -0.23276061 -0.11308516 0.30266225 -0.17474268 0.41032517 -0.38902426 -0.07148964 -0.63271254 0.59035003 0.330867 0.51717865 0.14532642 -0.3037606 -0.29970577 0.54447293 -0.71798056 -0.2763225 -0.18634214 -0.36443794 -0.5457857 0.054280266 0.14099151 -0.32729828 -0.30648822 0.04336822 0.14579941 0.29633573 -0.062271234 -0.05472878 -0.28859434 0.09403739 -0.13897729 -0.09431127 0.22277656 -0.13743646 -0.20550632 -0.19839834 0.022159528 0.09779343 -0.28791094 -0.27148232 0.5503191 0.34225035 0.29003894 0.41557497 -0.039609876 -0.35919487 -0.18696731 0.21817617 -0.03841827 -0.09533505 -0.34051594 -0.42973506
客人 0.10426751 -0.2562758 0.3664976 0.48906153 -0.31402245 -0.2832073 0.43145815 0.03921706 -0.3086375 0.14703241 0.15542735 -0.020995442 -0.17065176 -0.37805936 0.062120523 -0.04963796 -0.25856832 -0.20393969 0.09040827 0.22881018 0.25997594 0.23740764 0.07223212 -0.49236375 0.07384639 0.068965234 -0.3974982 -0.075546935 0.22415277 -0.059774384 -0.0780846 0.36347908 -0.03697552 0.07428692 -0.06122351 0.024873704 0.14007568 -0.09505722 0.018527852 0.021338545 0.18182427 0.36514813 0.049959373 -0.11633708 0.32836586 -0.0824927 0.27327582 -0.21705388 0.093319215 0.3090588 0.21944648 0.14835161 0.12081094 0.12738758 0.340659 0.14255421 -0.002716459 -0.12720966 0.011433689 0.06468953 -0.11735619 -0.24523 0.1344163 -0.08888829
月 0.12926894 -0.4160497 0.58990204 0.82900876 -0.23320395 -0.33809876 0.9113063 0.033541813 -0.34280065 -0.2076737 0.5540928 -0.37805188 0.23757125 -0.35877717 0.4643692 0.49388435 -0.20262592 0.05806924 0.27969357 0.4763761 0.21774063 0.5777416 0.122880705 -0.36954498 0.01281143 -0.062958874 -0.4822973 -0.34356666 0.3621125 -0.1210865 -0.3231981 0.4282888 -0.29339713 -0.15739714 -0.013341866 0.23204365 0.8305711 0.3669061 0.11855861 -0.17654535 0.31089076 0.33467367 0.45961326 -0.51436365 0.6610028 0.4090615 0.079552025 -0.7018711 0.2203162 0.67037237 0.2856641 0.27768257 0.26742017 0.30341023 0.35262522 -0.061501164 0.13819732 0.452096 0.017121159 0.13040225 -0.20078088 -0.15012452 0.053250734 0.23403986
价格 0.1379059 -0.3394641 0.07906025 0.37018642 -0.09114563 -0.14907819 0.35403997 -0.10326751 -0.42707 0.17760192 0.17962164 -0.30710405 0.08834574 -0.019699315 -0.025891494 0.44710177 0.20894319 0.25479808 -0.05011944 0.48200533 0.71947247 0.53677124 0.864357 -0.2022607 0.27394167 0.4577924 -0.23477615 -0.33353883 0.016947795 -0.56103384 0.03985538 0.14805022 -0.10882028 -0.0917159 -0.5177942 0.104608275 0.34176892 -0.18078396 0.117018685 0.25350252 0.044939265 0.113839746 -0.25022945 -0.40767273 0.11103894 -0.41570973 -0.2580284 0.14299735 0.053356912 0.36592466 -0.33080065 -0.02780045 0.22112463 0.55636877 -0.12765205 0.12768447 0.08819149 -0.11541135 -0.11069171 0.13357998 0.23619488 -0.21421392 0.19590984 0.17493464
日 0.33127743 -0.5421718 0.7483018 0.6213834 -0.24180411 -0.397448 0.7404049 0.25610468 -0.24151619 -0.17927255 0.5756093 -0.35697863 0.25704038 -0.25671458 0.4612038 0.38289294 -0.37492302 0.04793349 0.32163015 0.33174402 0.37109905 0.48018777 0.03648884 -0.27294782 0.030860879 -0.097475 -0.52642596 -0.36271235 0.50434875 -0.006734635 -0.21502854 0.6060615 -0.03967922 -0.22218569 -0.025741102 0.20693977 0.8824078 0.34942886 0.11353248 -0.09524555 0.30045006 0.3137583 0.4011787 -0.55275846 0.6129181 0.17008357 0.2299753 -0.5496819 0.3153461 0.6943066 0.17669661 0.31651366 0.14584626 0.2756307 0.41672525 0.1256879 0.2730395 0.42420334 -0.07119629 0.06613973 -0.07684176 -0.21083999 0.0006873889 0.08160989
差 0.42713752 -0.31411433 0.2170477 0.11392642 0.1630854 -0.4057204 0.3413894 0.093228616 -0.34260017 0.09173264 0.39695552 -0.4216586 0.27908176 -0.03878674 0.5744575 0.24422087 0.030872345 -0.513426 0.22236256 0.49360305 0.07698314 0.64236295 0.56371284 -0.4125468 0.21900357 0.29655474 -0.45159468 0.2255971 0.12929557 0.002669235 0.10590421 0.21358454 -0.36253256 -0.08461158 -0.51863205 -0.039926086 0.20801383 0.08039862 0.317295 0.047678847 -0.08312881 0.13106988 -0.23899776 -0.41943982 0.09758992 -0.031215364 -0.2413067 0.26098067 0.15823661 0.62636006 -0.3401316 -0.22855686 0.12094799 0.31782636 0.22041658 0.26147112 0.07811765 -0.4338434 -0.058485605 -0.20156276 0.0064659757 -0.17716828 -0.14702672 -0.3211378
元 0.12065629 -0.24320143 0.09533272 0.62267596 0.21133097 0.057017177 0.38070932 -0.004588167 -0.33604118 0.18880138 -0.11604126 -0.24337178 -0.23108028 -0.21682769 -0.2229121 0.17136343 0.0012220156 0.3499445 0.15614402 0.42222688 0.80333424 0.32843527 0.5073341 -0.08567217 -0.118761174 0.12118046 -0.2485966 -0.059536524 0.021933587 -0.57596594 0.16584173 0.39272156 0.2690135 0.00074294786 -0.367514 0.07381993 0.28777644 -0.19436231 0.09577507 0.2505606 -0.005310428 -0.05582771 -0.3534804 -0.22496128 0.10116467 -0.40449443 -0.023377534 0.19896394 -0.2624685 0.37931928 0.01769088 -0.07277939 0.26017767 0.6005419 -0.19300212 0.17507198 -0.22699343 -0.2669179 -0.39737263 0.11472489 0.29087636 0.15149185 0.36883742 0.25435102
没 0.3434931 -0.33648738 0.27787408 0.21658532 0.17665605 -0.23336393 0.25635114 -0.044715717 -0.2900931 -0.3267218 0.059134837 -0.24257626 -0.13525496 -0.13680033 -0.01258449 0.22340041 -0.37154534 -0.07264564 0.40498504 0.20873272 0.27813432 0.21968678 0.116780825 -0.26765162 -0.332061 0.007995603 -0.32440886 0.291458 0.024584817 0.11081193 0.19336902 0.03703749 0.007920508 -0.075405605 -0.08119441 -0.22409004 0.19979341 0.011703708 0.16641499 0.048793975 -0.03413654 -0.25017548 -0.31274074 -0.26145422 0.44042087 -0.17115058 0.11651645 -0.1750251 0.2345254 0.35841498 0.07928981 -0.12285445 0.06967253 0.38030365 0.07432712 -0.16694675 -0.12035578 -0.22551818 -0.36998877 -0.031226316 -0.09012568 -0.08088072 0.26440412 -0.105044335
晚上 0.27539405 -0.4436032 0.12938876 0.3351541 0.13352217 -0.05562346 0.26307523 0.010684942 -0.28490537 -0.22907892 0.3057878 -0.25873563 0.09090857 -0.21125872 0.022060229 0.17024337 -0.4211215 -0.20091692 -0.06401183 0.17703834 0.24582444 0.26031685 0.022525769 -0.41059157 -0.35807955 0.23042671 -0.27226824 0.4084631 0.27550012 0.20584586 0.044474885 0.12792274 -0.037926495 -0.075231865 -0.35335985 -0.14220612 0.116307154 0.2964895 0.2601912 0.028094953 -0.10509964 -0.19600129 -0.19353776 -0.1597078 0.15203129 -0.23234543 -0.011884095 -0.27648982 0.13374244 0.22544637 0.06960835 -0.25579885 0.16650768 0.2576245 0.01217243 -0.33889917 0.14815272 -0.40902853 -0.23405075 -0.06977199 -0.12157682 -0.14713623 -0.012044512 -0.41751456
年 0.4224554 -0.49240437 0.6832288 0.5306556 -0.26784563 -0.5062937 0.69791627 0.30657303 -0.48558912 -0.104912035 0.6244848 -0.5151436 0.39184725 -0.19075061 0.56103146 0.5801564 -0.37588313 -0.17539215 0.21026048 0.44335598 0.25285092 0.46979874 0.12695192 -0.2256331 0.13133202 -0.07485122 -0.4401298 -0.48074928 0.31379363 -0.13133097 -0.3694186 0.34452665 -0.26529774 -0.3017921 -0.097992636 0.2572365 0.81932133 0.3069934 0.09790169 -0.0776505 0.26032647 0.25107172 0.3135976 -0.6284156 0.62906945 0.39983973 0.1766131 -0.5039166 0.4432253 0.68992597 0.094035074 0.29494432 0.12889197 0.3286848 0.4385018 0.12534885 0.33204335 0.44077286 0.047272563 0.24262716 -0.17451137 -0.080264255 -0.1235946 0.18594542
房 0.35413882 -0.5022145 0.53256917 0.5282872 0.06687595 -0.1688763 0.4113289 -0.08006487 0.05980456 0.17647246 -0.35831448 -0.47098094 0.09187641 -0.31927633 0.19396013 0.52926475 -0.26056892 -0.1082817 0.33223683 0.24155474 0.6994155 0.43445638 0.6145742 -0.27810985 0.08559869 0.51483154 0.14129238 -0.023172194 0.3821552 -0.33324635 0.28228483 0.11429959 -0.13430957 0.0199654 -0.63103026 0.26298264 0.42575684 -0.08916413 0.26930788 0.08370181 0.14190158 0.18593147 -0.32503617 -0.49022746 -0.1781357 -0.074404694 0.10292091 -0.39984426 -0.14487943 0.1251954 0.39991847 -0.022984443 -0.11408625 0.3269639 -0.44341427 -0.31597745 0.2378611 -0.18256943 -0.3368354 -0.28550342 -0.05520515 -0.23078986 0.26533446 0.3438507
时 0.062042974 -0.35786667 0.49626976 0.5465225 0.04060442 -0.027302593 0.47679725 -0.02313108 -0.27990362 0.035050534 0.07772435 0.018491268 -0.43732542 -0.62328565 0.008722079 -0.03714766 -0.14945255 0.0032668067 0.35498813 0.10908625 0.29860008 0.34625942 0.07456221 -0.36985257 -0.13413234 0.12314795 -0.3728957 0.39245823 0.3639577 0.17444961 0.062139194 0.46349666 0.01103761 0.07360306 -0.07997389 -0.12994123 0.1415857 0.041549653 0.19196652 0.11941803 0.17761147 0.073621474 0.024179088 -0.22498767 0.3563303 -0.19978066 0.31485492 -0.19432028 -0.20734152 0.24008863 0.37442982 0.052337285 0.15227793 0.27783084 0.1639243 -0.07435398 -0.059431758 -0.32724184 -0.11194426 -0.15108828 0.12725233 -0.24435718 0.3932338 -0.26470593
环境 0.23815589 -0.32773098 0.23025756 0.06744204 -0.1354776 -0.27903634 0.34359816 -0.076887526 -0.33176756 0.12239272 0.43311512 -0.35194442 0.002444817 -0.01337579 0.030778233 0.42897844 -0.07651386 -0.2725975 -0.32394126 0.44947773 0.2620041 0.5611547 0.476256 -0.4357054 0.1769982 0.6184619 -0.45393538 -0.21892591 0.15023844 -0.20021191 -0.30844027 0.09498336 -0.32439247 -0.08692178 -0.41040224 0.20796 0.14224583 0.18187566 0.1546245 0.014110949 -0.037828 0.17022747 -0.09066077 -0.300941 0.09803482 0.020851178 -0.33768034 -0.21482962 0.07364613 0.29960912 -0.3649361 -0.09324106 0.20087038 0.2553482 0.14463317 0.1636022 0.17637569 -0.3360388 -0.03470288 0.009120181 -0.06463163 -0.23691638 -0.29103544 -0.20550768
里 0.60907423 -0.351251 0.21744514 0.053572442 0.039676487 -0.23306309 0.07860039 0.04078917 -0.17488152 -0.044261936 0.036694765 -0.45400742 -0.13532494 -0.047307134 0.080967054 0.34474635 -0.29014984 -0.3191924 -0.0025485433 0.4057162 0.23443757 0.15481886 0.11967191 -0.42951438 -0.34237203 0.373682 -0.18897596 0.22376211 0.111470945 -0.008487136 0.052351106 -0.15893719 -0.38966283 0.099841826 -0.25316548 -0.056184202 -0.08893984 -0.056148283 0.14069848 0.18107204 -0.065179095 -0.07943801 -0.38815647 -0.19605021 0.15002702 -0.24491079 -0.0576368 -0.23497203 -0.0016656792 0.21439213 -0.03529766 -0.2114183 0.086396135 0.2980369 -0.022653308 -0.15490139 0.16229662 -0.41352206 -0.36971968 0.024800438 -0.27655149 -0.15591562 -0.036355745 -0.16185577
会 0.097081386 -0.2642494 0.13169692 0.37431815 -0.38798234 -0.32690832 0.29024243 -0.18744393 -0.50508463 -0.030769402 0.3399546 -0.062746584 -0.07714451 -0.18169513 -0.16053481 -0.17595255 -0.4183118 -0.21749674 -0.14068209 0.18220049 0.33123228 0.1371373 0.15152885 -0.46823233 0.1166657 0.21881106 -0.38266948 0.026801463 0.15244909 -0.031219305 -0.021781396 0.15855269 0.1584507 -0.13023701 -0.05019716 -0.13438189 -0.022573238 -0.084702834 -0.14519255 0.1152284 -0.04746892 0.2634147 -0.15612428 0.016612172 0.4305899 -0.20936507 0.2967151 -0.181639 0.36635208 0.20599094 -0.016906708 0.16301933 0.084451035 0.1268871 0.28946295 0.048064575 -0.13734739 -0.12505528 0.14509104 0.24286118 -0.2502337 -0.23397146 0.23881644 -0.2639936
干净 0.55400604 -0.4152456 0.2876848 -0.01818232 0.07384929 -0.21833615 0.1586007 0.023421898 -0.19701402 0.19742766 0.1527995 -0.54233724 -0.08243584 0.002554921 -0.014796813 0.5071021 -0.0750429 -0.2807514 -0.19317743 0.41598833 0.38886642 0.39491737 0.48525354 -0.5163452 0.01197591 0.67793566 -0.2639662 -0.12543139 0.0794124 -0.15730357 -0.14941075 0.0182032 -0.47841343 -0.040667776 -0.51249164 0.21694624 -0.039129682 0.010833152 0.23524147 0.09677651 -0.100940585 0.20399006 -0.42428145 -0.3618109 -0.075114876 -0.066639476 -0.37940365 -0.31451613 -0.03876319 0.20453107 -0.2194891 -0.14950383 0.122681014 0.29440066 -0.035912167 0.011810406 0.14376709 -0.45173433 -0.2432883 0.03893558 -0.1370745 -0.14859614 -0.24606389 -0.054421164
太 0.36320907 -0.2047298 0.19971424 0.14591213 0.10896779 -0.34703755 0.37891817 0.12770766 -0.43063235 -0.020506991 0.36927184 -0.3503577 0.18581553 0.12850188 0.4830821 0.13173443 -0.119986184 -0.46301344 0.13199258 0.4532136 0.14960206 0.4154331 0.3479085 -0.22194119 -0.06041384 0.30376714 -0.37110233 0.2785181 0.20684572 -0.16872175 0.14558575 -0.025637778 -0.26821616 -0.17233129 -0.4361204 -0.093053654 0.1527515 0.027100025 0.3161995 0.26186156 -0.1901695 0.0062923236 -0.3237031 -0.22750062 0.18457581 -0.0010830091 -0.28575006 0.1826459 0.15585251 0.5725368 -0.35981858 -0.18215677 0.16768982 0.33188277 0.050225295 0.1312322 -0.014799167 -0.33450088 -0.12601174 0.00869141 -0.022519894 -0.15670072 -0.05998549 -0.13303535
下次 -0.06857201 -0.5043757 -0.030205598 0.48281598 -0.43296608 -0.4008237 0.49680504 -0.09036535 -0.61745775 -0.007307524 0.6257162 -0.40268663 0.13386264 0.1917334 -0.1068565 -0.102717526 -0.36371678 -0.3591329 -0.21971454 0.31833193 0.37659425 0.31204858 0.60612804 -0.28668764 0.45271847 0.31639895 -0.40319508 -0.37619898 0.11649281 -0.14285451 0.029626837 0.14883216 0.15820992 -0.3100003 -0.42026952 -0.006563672 0.37089896 -0.050400745 -0.0054544876 0.28139392 -0.14210482 0.24466887 0.018229494 -0.25191832 0.3587759 -0.13499199 0.077709846 0.004625047 0.5407066 0.350395 -0.1264073 0.2891886 0.06355962 0.36380193 0.055563528 0.16415964 -0.12302287 0.15414007 0.33696243 0.40883407 -0.17790185 -0.27885282 0.28610078 -0.2903332
不好 0.36095446 -0.2674641 0.16952951 0.14499967 0.12154716 -0.27115428 0.18161237 -0.09954781 -0.19636185 0.057122193 0.2906833 -0.17528239 -0.033352386 -0.32859737 0.3518984 0.3373929 -0.02369675 -0.36008105 0.03033663 0.38805997 0.009004751 0.40258074 0.30193672 -0.49242488 0.032642424 0.41837138 -0.4167522 0.29098776 0.11077271 0.005551568 -0.107196316 0.010817776 -0.30883706 -0.02578638 -0.43241993 0.043782827 0.039206278 0.14564438 0.37396422 -0.037334032 -0.06123716 0.05933868 -0.23311765 -0.2962113 0.18010716 -0.102971554 -0.11780994 -0.114849724 0.08031716 0.28675237 -0.22597249 -0.25965458 0.26157564 0.2663381 0.26287904 -0.04936921 0.04926957 -0.5612988 -0.15554066 -0.06668454 -0.11162028 -0.1744275 -0.14010084 -0.39259672
知道 0.24075523 -0.21864603 0.17017195 0.25384042 -0.15567052 -0.22856306 0.21602778 -0.21698269 -0.24932955 -0.1202067 -0.009117806 -0.14810348 -0.14332011 -0.26483032 0.05710869 0.24061358 -0.21939784 -0.02003904 0.23324308 0.3652151 0.27597886 0.20824395 0.24961285 -0.37508845 -0.07250152 0.14425646 -0.27540836 0.2386379 0.1634679 -0.14080425 0.1628505 -0.003811047 -0.06509236 -0.09865323 -0.084088415 -0.15552726 0.0074599637 -0.1927571 -0.034308854 0.12249115 -0.0057490217 -0.056818645 -0.22883375 -0.16402863 0.36058572 -0.29665774 0.20667492 -0.117523395 0.12395181 0.29297498 0.026176795 -0.091989875 0.03669764 0.31738058 0.018039975 -0.16427253 -0.049649667 -0.2225703 -0.1247097 -0.013204222 -0.11377252 -0.25225395 0.37225544 -0.05530907
这家 0.03222917 -0.3452619 0.16002193 0.34105122 -0.44639176 -0.27754515 0.3274982 -0.27614215 -0.55229074 -0.008658519 0.5257739 -0.17404991 0.12996656 -0.1268157 -0.13816488 0.10161269 -0.036211517 0.026094122 -0.23401694 0.43689144 0.392842 0.48909217 0.68347895 -0.35812798 0.5170891 0.5798935 -0.27443388 -0.15069313 0.25148785 -0.28989395 -0.019724611 0.16809088 0.008239354 -0.28049952 -0.22103499 -0.13270016 0.26234278 0.07069368 -0.19739567 0.03545208 -0.0060438924 0.17527378 0.030023936 -0.13262784 0.31769592 -0.21800727 0.082828894 -0.08233471 0.38445145 0.46257576 -0.2552331 0.120754816 -0.004618522 0.43258727 0.1518314 0.044280004 0.002686932 0.03226957 0.32938495 0.250877 -0.078780726 -0.41417956 0.306747 -0.28288552
不能 0.37082785 -0.30950895 0.27825028 0.32193083 -0.01584345 -0.119226806 0.27579182 -0.10123778 -0.27975 0.086590245 -0.075831994 -0.23585826 -0.16094424 -0.24314064 0.08045713 0.11361893 -0.15770409 -0.16134512 0.25104666 0.28432497 0.35693133 0.22836682 0.2963003 -0.36480877 -0.101657994 0.16982873 -0.19847311 0.20691295 0.16305298 -0.120064154 0.21090183 0.03022781 -0.11242471 0.056388397 -0.23098503 -0.09619023 0.012864711 -0.181335 0.09944501 0.11141876 0.07259378 0.043865412 -0.31246158 -0.26867056 0.234933 -0.27510956 0.26223543 -0.023271993 -0.03406555 0.3045861 0.1857531 -0.13546474 0.040669587 0.25782228 -0.02164115 -0.031797014 -0.10313918 -0.24336338 -0.16872662 -0.046544317 -0.16386518 -0.1457779 0.29968858 -0.068958014
点 0.20626044 -0.3759216 0.28536475 0.45148107 0.20879032 -0.06511221 0.37324154 0.011048862 -0.40075 -0.43110454 0.32648534 -0.14341912 -0.08948836 -0.21520284 0.020515481 0.07128508 -0.32272297 0.035140745 0.19353786 0.12588498 0.29830664 0.3874132 0.051197916 -0.15712284 -0.31881708 0.11179451 -0.42314783 0.45948026 0.18355055 0.20703752 -0.00090796524 0.28553286 0.082059324 -0.11085071 -0.1842064 -0.29252416 0.21913674 0.32546645 0.28032917 0.17677101 -0.14791715 -0.2049747 -0.12779461 -0.33273453 0.36528364 -0.11774116 0.033699043 -0.160932 0.08583896 0.41739926 -0.020747012 -0.060110025 0.16059208 0.3337543 0.06885204 -0.16978641 0.14163208 -0.28363535 -0.16992448 -0.044465028 0.16262165 -0.16881569 0.13278192 -0.31819284
点评 0.19952154 -0.5706307 0.5692619 0.7049634 -0.1678996 -0.42584676 0.72298986 0.08770077 -0.31871805 -0.2373037 0.57511604 -0.4148829 0.17853582 0.00047572635 0.42944533 0.31800553 -0.20255417 0.016228452 0.26818705 0.38050276 0.3011869 0.48333415 0.28647035 -0.21303476 0.17328906 -0.1021393 -0.48526144 -0.41779065 0.28708228 -0.1531528 -0.23954496 0.3131692 -0.060256526 -0.33280513 -0.15071186 0.0022418262 0.83061486 0.24387957 0.16592287 -0.1651308 0.125472 0.18485455 0.26704934 -0.59480774 0.51910836 0.26792452 0.14790685 -0.6732804 0.35018805 0.64269495 0.045892652 0.072898775 0.282446 0.35765454 0.34540325 0.14512168 0.052481957 0.5473964 -0.104720525 0.2515037 -0.22588632 -0.1530926 -0.07588014 0.24379452
装修 0.5140178 -0.4221684 0.4116802 0.083867975 -0.09303464 -0.31709862 0.24994606 0.09261205 -0.16977885 0.04216105 0.29566634 -0.5709978 0.12921594 -0.021020608 0.21537374 0.40267485 -0.1707312 -0.29520312 -0.03124291 0.3322277 0.337078 0.38747314 0.31487462 -0.4884081 0.03367915 0.38195577 -0.161745 -0.26675564 0.24928907 -0.098599076 -0.212843 0.11640929 -0.5399148 0.051944084 -0.26992533 0.23352666 0.11626892 -0.023161918 -0.0015698296 -0.009875004 0.07998853 0.20315495 -0.1433878 -0.38807407 0.03679886 0.09230704 -0.29742926 -0.3693619 0.09195009 0.36791092 -0.0690808 -0.01965208 0.048246447 0.25111493 0.041191436 -0.057867367 0.27249843 -0.13369927 -0.25949517 -0.009337104 -0.2917966 -0.1531553 -0.24808225 -0.009143209
吃 0.053479142 -0.28115085 0.13837563 0.3441678 0.29349035 -0.2563621 0.39666164 0.07801746 -0.5656703 -0.6084206 0.5281416 -0.1823929 -0.17508557 0.2479774 -0.21818249 0.08300709 -0.26723495 0.05864728 0.2437609 0.5105151 0.19446218 0.28301975 -0.11497451 -0.26795238 -0.5060842 -0.031532135 -0.7212245 0.08586263 -0.13667053 -0.14144684 0.13186519 0.1851063 0.16436394 -0.17584376 -0.17218786 -0.34490532 0.30413896 0.4299145 0.408926 0.29301152 -0.20501421 -0.5289362 -0.30121636 -0.18940037 0.48992673 -0.18701129 -0.25152177 0.053794015 0.27222267 0.650395 -0.28027144 -0.07584061 0.2177727 0.4714453 0.1998661 0.13585053 -0.051056433 -0.2633099 -0.34619218 0.07343312 0.2569603 0.12867491 -0.06214119 -0.15320191
卫生间 0.7653146 -0.33970767 0.42040008 -0.06487648 0.24337287 -0.28215146 0.20903103 0.16042353 -0.16524097 0.028943077 0.11065421 -0.5810797 0.015642116 0.02535124 0.2848012 0.47462207 -0.2610708 -0.45049685 0.009656835 0.49958608 0.25366586 0.26819125 0.1354603 -0.48100713 -0.38009366 0.43511286 -0.21700187 0.05126966 0.119772576 -0.1400033 -0.15250781 -0.12027401 -0.5215655 0.043087404 -0.3383138 0.19814256 -0.1639092 -0.12763116 0.19953038 0.10158084 -0.11106547 0.065384455 -0.45675287 -0.20149633 0.045544434 -0.0010414766 -0.32218647 -0.27918366 -0.13703805 0.2274059 -0.12806165 -0.27767143 0.16931869 0.265117 -0.07025188 -0.10796504 0.25003707 -0.45190525 -0.49428928 -0.11484902 -0.37374562 0.028551182 -0.38084176 0.13121974
问题 0.38687453 -0.20874502 0.27401534 0.34694386 -0.26387072 -0.27620584 0.3171576 0.013501097 -0.2815723 -0.047490906 0.1643299 -0.056036517 -0.17075574 -0.36263287 0.13663441 0.04277407 -0.20586987 -0.3087259 0.17719083 0.26011816 0.13339199 0.12769422 -0.021347992 -0.52628505 -0.019883502 0.0597898 -0.43226257 0.032393165 0.16027649 0.055184677 -0.22023228 0.1468484 -0.19626713 0.07779943 0.0068032322 -0.019433167 0.011021318 -0.19674698 -0.029586336 -0.0062331557 0.08085902 0.23540616 -0.012688504 -0.1823629 0.48089916 -0.06845556 0.14252749 -0.13277945 0.14442277 0.2751201 0.015596854 0.0734351 0.12954973 0.14193085 0.4314867 0.08884656 0.041070666 -0.20614696 -0.060785975 0.12124329 -0.23949207 -0.19700895 0.15229477 -0.038113777
免费 0.2552827 -0.31168407 0.18741101 0.8421247 -0.2232753 -0.0017538755 0.37669277 0.12547265 -0.17326552 0.487525 -0.3151717 -0.39792073 -0.19364856 -0.19032179 0.0925085 0.35984954 -0.02393377 0.015298141 0.25807488 0.4646298 0.5123902 0.20669585 0.19308545 -0.2715989 0.019914258 0.27125278 -0.17654271 -0.074138425 0.20763004 -0.48704258 0.22278577 0.17058142 -0.18334638 0.046567176 -0.53774786 0.3364641 0.18941487 -0.10704527 0.22404 0.07293503 0.10861986 0.48409262 -0.2067544 -0.26731154 0.15072793 -0.29453167 0.16167648 0.038037788 -0.19096072 0.3259233 0.4063324 -0.009043669 0.20335253 0.080350004 -0.15822455 0.21844907 -0.04868242 -0.10308285 -0.06480774 0.1534527 0.016480338 0.07575191 0.25721163 0.5372373
有点 0.46906608 -0.3319622 0.28147832 0.06643137 0.095561475 -0.20495227 0.19761658 0.01257072 -0.2728534 -0.036452487 0.33272547 -0.4198141 0.050528795 -0.079143964 0.09350988 0.39157102 -0.14085545 -0.12435348 -0.11794331 0.40923432 0.23907697 0.34880084 0.32932898 -0.38919458 -0.07083913 0.42719686 -0.25711825 -0.043707006 0.16058835 -0.17068233 -0.22036694 0.030114375 -0.38520026 -0.10885164 -0.31794095 0.14049016 0.03710834 0.06654543 0.20745909 0.051657874 -0.08681906 0.02421758 -0.27917358 -0.29745972 0.1557421 -0.038314138 -0.29020354 -0.2727513 0.051300853 0.2933328 -0.25035933 -0.14333972 0.18744439 0.3225798 0.05753047 -0.053823445 0.17866527 -0.34343147 -0.30767906 0.061724007 -0.16256447 -0.08817958 -0.26288947 -0.046025645
居然 0.43035665 -0.31500664 0.32339597 0.26772782 0.09175348 -0.1730695 0.22074483 -0.13980643 -0.20053993 -0.12602466 -0.16572934 -0.24141574 -0.1711707 -0.27311274 0.13180198 0.20308787 -0.21249254 -0.17485008 0.41679904 0.32046178 0.38876855 0.18355185 0.27962363 -0.31614274 -0.32182598 0.15367202 -0.16137266 0.34938234 0.15184313 -0.061168987 0.28301576 -0.053321563 -0.11590016 0.0033884328 -0.23234057 -0.18881278 0.033714052 -0.1764674 0.17282827 0.17462079 0.026435444 -0.11507516 -0.38205007 -0.26053092 0.20652172 -0.29019624 0.2127598 -0.07930405 0.0047584893 0.274425 0.20829314 -0.16600648 0.10216024 0.35919607 -0.11911848 -0.24552675 -0.02080162 -0.2874872 -0.3503285 -0.073559485 -0.15014261 -0.17310116 0.35449204 0.0118417945
态度 0.0271047 -0.27276516 0.2858056 0.1291987 0.06093166 -0.39110795 0.40048322 -0.26458514 -0.25704458 0.088956 0.18351799 0.07038174 -0.41277933 -0.5717172 0.22747615 0.10212674 0.13637944 -0.31115586 0.22047624 0.2921217 -0.005535432 0.4856747 0.42320463 -0.3868135 0.293586 0.31991228 -0.6728694 0.307648 0.28437832 -0.007981089 -0.016816748 0.11049635 -0.11595405 0.16067456 -0.29201335 -0.025810393 -0.00837132 0.08307278 0.45508495 0.10705041 0.17811409 0.036931798 -0.035004746 -0.32841313 0.34258515 -0.19835798 0.1186519 -0.040365197 0.057369832 0.25039563 -0.12140597 -0.11997537 0.25080204 0.27282998 0.49629217 0.21308622 -0.18639441 -0.5959272 0.10776079 -0.21623811 0.08346233 -0.41156736 0.09438498 -0.48412046
实在 0.40980062 -0.33986625 0.18774693 0.18279348 0.009551797 -0.27418554 0.21400034 -0.00045479648 -0.32160935 -0.0747186 0.29245865 -0.3037736 0.08593854 -0.029955842 0.26144606 0.28002626 -0.09574708 -0.22833258 0.12386378 0.37415564 0.19749343 0.38856447 0.44171432 -0.33687153 0.096296184 0.26502997 -0.33896774 0.17699279 0.11817266 -0.08986086 0.09872285 0.020473206 -0.20954944 -0.12634513 -0.2983899 -0.05849384 0.16059665 -0.0023768886 0.1341219 0.07514201 -0.09146762 0.025255535 -0.23081827 -0.3382913 0.22186609 -0.10985669 -0.16943376 0.061515033 0.16944715 0.45569846 -0.22710206 -0.14645539 0.07283534 0.3594835 0.062470123 0.038127687 0.115567416 -0.2555164 -0.07485259 0.034073114 -0.11501747 -0.09017323 -0.010508986 -0.047606874
地方 0.21707007 -0.27601188 0.10010645 0.22489934 -0.084564045 -0.20552681 0.20829694 -0.15738091 -0.33563063 -0.274193 0.3665127 -0.34817317 -0.05251941 0.21643364 -0.18508233 0.26149035 -0.2540789 -0.04478559 -0.22472891 0.4917913 0.35064313 0.2724125 0.27355573 -0.30447072 -0.21546373 0.43446618 -0.34156647 0.060455017 0.027317684 -0.3105524 -0.026616635 -0.1297566 -0.031222314 -0.2507081 -0.15631503 -0.12181127 0.13541834 0.08786452 0.005017167 0.10320272 -0.24959885 -0.16827106 -0.28205115 -0.13051787 0.2250479 -0.19932188 -0.1193646 -0.11921456 0.132073 0.35093346 -0.27270204 -0.13746653 0.11669881 0.38872778 -0.0466097 -0.023216395 0.021895345 -0.24672835 -0.17198174 0.20505384 -0.12624389 -0.10813197 0.025321072 -0.119607866
位置 0.12905389 -0.2115782 0.028958645 -0.008137591 -0.0930571 -0.21177058 0.31658825 -0.17183636 -0.46534306 0.0034448968 0.5811195 -0.27464643 -0.058978353 0.099761575 -0.17884323 0.42377597 -0.1737759 -0.09020906 -0.5990841 0.5383381 0.33517224 0.4907835 0.29018185 -0.38238338 -0.07889992 0.65213454 -0.5580357 -0.11633077 0.005442923 -0.42155915 -0.40889195 -0.027141685 -0.1275675 -0.26110885 -0.28398943 0.14008676 0.00060381356 0.15251392 -0.0630031 -0.03798852 -0.19614442 0.043334737 -0.21912044 -0.09603881 0.105995096 -0.085956 -0.27121168 -0.23651095 0.0134598 0.21454538 -0.44038484 -0.1694414 0.29794246 0.3228917 0.20132838 0.14909124 0.07322397 -0.41448456 -0.14010331 0.15285319 -0.032905664 -0.21779536 -0.24152565 -0.27243438
已经 0.3370877 -0.2806246 0.33967233 0.36388788 -0.10835698 -0.17445768 0.313363 -0.045798596 -0.21905608 -0.11565552 0.12513769 -0.1900649 -0.11254841 -0.33049902 0.028611165 0.19354774 -0.23635812 -0.08646402 0.17046191 0.15975155 0.34813496 0.2115843 0.015056954 -0.3667266 -0.19725898 0.13181052 -0.25141713 0.08910383 0.2047658 0.029288173 -0.1303881 0.17396514 -0.13785642 -0.06315704 -0.013477776 -0.025929103 0.05824233 -0.111177966 -0.06020659 0.043411773 0.07510362 0.13101566 -0.08319614 -0.1966625 0.31502393 -0.11963874 0.1788444 -0.29758748 0.061502103 0.20045824 0.17346051 0.032902505 0.11931204 0.23413654 0.16537166 -0.14773695 0.06336277 -0.09795354 -0.17832324 0.03819817 -0.15138927 -0.16417664 0.19244634 -0.0009996768
大堂 0.40486866 -0.1998194 0.30663016 -3.547667e-05 -0.02598749 -0.22423759 0.18053098 -0.18944363 -0.31363273 0.090663634 0.0703086 -0.17869133 -0.39063007 -0.30775312 0.022923276 0.19264236 0.034570213 -0.1356668 0.12668723 0.40091395 0.0882364 0.33181173 0.2789604 -0.46356946 -0.06218977 0.40116408 -0.3257538 0.38150036 0.17855422 -0.02061361 -0.10376626 0.05243806 -0.34477663 0.08938063 -0.1924645 -0.07351151 -0.2037652 -0.10043635 0.13311519 0.089509375 -0.009029632 -0.05963869 -0.21564718 -0.13398208 0.27891138 -0.2577562 -0.040027443 -0.0602041 -0.051399752 0.21208945 -0.1058412 -0.15683544 0.10371206 0.34561074 0.15367603 0.088530645 0.039084908 -0.54995525 -0.19283822 -0.06608593 -0.10163544 -0.20799759 0.10417335 -0.13882355
发现 0.4144753 -0.36554977 0.37768817 0.2504546 0.10140105 -0.12580171 0.1931007 -0.09912662 -0.16152674 -0.102435 -0.09755647 -0.27040783 -0.24767937 -0.43414742 0.05132391 0.20672463 -0.34303015 -0.1441956 0.25140655 0.16164656 0.36615026 0.19011626 0.14944358 -0.3959989 -0.25813654 0.3168396 -0.16006663 0.4019911 0.23364308 0.13129283 0.1755411 0.11951968 -0.112329684 0.034244712 -0.16351259 -0.08083811 -0.035429783 -0.06254656 0.10337055 0.07899366 -0.030906454 0.01326983 -0.3162306 -0.24051619 0.12680764 -0.23959884 0.16312088 -0.3394797 -0.07363142 0.08326075 0.23805428 -0.12904909 0.0637627 0.28633797 -0.17594908 -0.33374098 0.06422015 -0.4362234 -0.32708666 -0.121293366 -0.18474577 -0.18841685 0.24596675 -0.11693928
选择 -0.01257782 -0.44438228 0.15757094 0.5542834 -0.46057835 -0.2902785 0.47139767 -0.12608133 -0.52552754 -0.03452736 0.576057 -0.29801205 0.17503913 0.070644 -0.12438441 0.082687765 -0.2682745 -0.08597388 -0.31701702 0.3524979 0.42163 0.43835843 0.49095085 -0.3273209 0.40129355 0.40993178 -0.40471807 -0.4716207 0.16063479 -0.32800984 -0.13779381 0.23879898 0.0750014 -0.29299766 -0.20348665 0.03354793 0.44175774 0.0867595 -0.14894426 0.0903557 -0.0793833 0.32512727 0.05736428 -0.2597466 0.36847928 -0.02885709 0.0043206937 -0.202228 0.45542338 0.40393704 -0.17566049 0.2733004 0.13277283 0.31205222 0.13239819 0.17118496 -0.005419178 0.19193268 0.31565478 0.3680851 -0.10968432 -0.2746278 0.12574951 -0.07669928
不会 0.10345475 -0.41323254 0.07019524 0.45996734 -0.40846655 -0.38754845 0.3355205 -0.28438267 -0.5591999 0.018526401 0.5594628 -0.3336294 0.17071159 0.06373184 -0.15936027 -0.17778225 -0.24903415 -0.34960562 -0.112955905 0.3254017 0.3890053 0.29510203 0.66178083 -0.24662295 0.36160338 0.48615286 -0.17893003 -0.013351628 0.18326765 -0.12796196 0.33673522 0.09545717 0.05303795 -0.3196529 -0.24909627 -0.23291965 0.25772947 -0.028364334 -0.058838755 0.18242307 -0.13774048 0.22148868 -0.2802217 -0.115041226 0.35747254 -0.22311881 0.22876173 0.10239241 0.48215562 0.51125884 -0.118998095 0.13364531 -0.064783856 0.2585067 -0.02940781 -0.034347158 -0.15153842 -0.035882067 0.3926958 0.29001775 -0.23927584 -0.28884545 0.2483485 -0.33160698
交通 0.099133514 -0.27118313 -0.033570733 0.11363787 -0.061062172 -0.29835522 0.39711308 -0.07791172 -0.5931785 0.023461854 0.79127276 -0.41972205 0.15217927 0.37048107 -0.22364712 0.29299173 -0.39287722 -0.19815251 -0.7437456 0.6117426 0.37235123 0.45051125 0.092087805 -0.35835937 -0.18526034 0.5708483 -0.71069914 -0.27860838 -0.11042587 -0.5000363 -0.50567997 0.035099264 -0.06123927 -0.47569147 -0.21887617 0.11184613 0.079466626 0.25050628 0.033146463 -0.067376316 -0.30178607 0.085486665 -0.3797091 -0.0661015 0.13352329 0.023765458 -0.3215191 -0.28671288 0.16824454 0.2917583 -0.5955263 -0.13563515 0.32755235 0.34032747 0.19549271 0.29464275 -0.071913786 -0.31238112 -0.1945664 0.34391257 -0.031252522 -0.1297065 -0.38076207 -0.22696821
退房 0.05315388 -0.32603052 0.37057623 0.5698549 0.06320607 -0.12542251 0.34039718 -0.14500435 -0.30720195 -0.22816531 0.11028548 -0.027681513 -0.43526804 -0.58899486 -0.041443694 -0.011556478 -0.2771936 -0.09149052 0.4557562 0.05858347 0.3590033 0.345519 0.013931303 -0.31100133 -0.26923892 -0.029359382 -0.4467127 0.5277437 0.18683511 0.30103672 0.026813958 0.41372204 0.11997949 0.045363344 -0.07316807 -0.22679794 0.10932876 0.059409697 0.15896836 0.010995756 0.02657291 0.027723407 -0.030320633 -0.24344884 0.40428647 -0.23456472 0.41445887 -0.17672613 0.004346291 0.26457733 0.39124155 -0.018074611 0.21207802 0.35206875 0.2024458 -0.047368728 -0.091263905 -0.35240507 -0.14270869 -0.08589886 0.05255658 -0.17699035 0.4125621 -0.32787752
空调 0.66074955 -0.41621846 0.27792042 0.10207415 0.07290976 -0.19561496 0.1695899 0.041500248 -0.13592483 -0.21909018 0.18451938 -0.30265597 0.19760326 -0.19697368 0.22390963 0.23283999 -0.45936728 -0.41129747 0.05448167 0.28951523 0.1376085 0.15203846 -0.0008066648 -0.47273856 -0.5001204 0.15395704 -0.2690764 0.36178216 0.15550117 0.17097786 -0.02729886 -0.16082087 -0.23476493 0.09249985 -0.22559269 -0.103957854 0.012577078 0.084083185 0.2964525 0.10170733 -0.07971104 -0.1625476 -0.27563894 -0.2893223 0.24934831 -0.113100246 0.041792754 -0.32354587 0.116097964 0.24752422 -0.02063902 -0.3228728 0.062016122 0.21429792 -0.014542008 -0.24760014 0.11441593 -0.39630428 -0.36498666 -0.008605905 -0.3576674 -0.117401995 -0.0823863 -0.28394294
餐厅 0.1182262 -0.21385528 0.15220754 0.20250693 0.10093642 -0.28135377 0.3845006 -0.03859926 -0.42128906 -0.1967862 0.3637407 -0.18245442 -0.19594018 -0.044822995 -0.04653297 0.23161519 -0.07971142 -0.004690964 0.10133866 0.44162124 0.11542997 0.43599263 0.109916575 -0.36163533 -0.13920777 0.18040024 -0.61040974 0.08226935 0.012291536 -0.11414315 -0.076410435 0.20698544 -0.118390255 0.021988524 -0.2609821 -0.09640597 0.069696814 0.20610343 0.30013585 0.16948429 -0.121327974 -0.18703872 -0.16594008 -0.2545866 0.3011071 -0.15481085 -0.31052074 0.02017189 0.11907641 0.46697998 -0.22496204 -0.12950432 0.2446927 0.31068566 0.23941205 0.16761607 0.05338696 -0.4527621 -0.2345872 0.021924939 0.10601827 -0.005698609 -0.15091714 -0.13834353
要求 0.27877724 -0.30917436 0.40836316 0.40942195 -0.054342255 -0.16373499 0.29864073 -0.10647612 -0.2167536 0.1195875 -0.22504283 -0.19501972 -0.3212439 -0.5340364 0.079785764 0.14791043 -0.15312839 -0.086294025 0.4186111 0.1855911 0.45044166 0.2716013 0.26385543 -0.35503808 0.01105782 0.12757996 -0.19937123 0.23340109 0.17875808 0.042626105 0.14589103 0.1610844 -0.049662296 0.0900669 -0.2280593 -0.0680705 0.13189094 -0.19709054 0.10517487 0.03356243 0.21777782 0.169962 -0.20943879 -0.2836705 0.1998862 -0.25635204 0.34416533 -0.21533199 -0.033524044 0.14943774 0.4145751 0.044182424 0.039528668 0.25840497 0.03825872 -0.1355922 -0.04454239 -0.21608098 -0.13203697 -0.04143879 -0.12072378 -0.23384354 0.4628487 -0.01131588
很多 0.15426911 -0.2928564 0.15376088 0.19787505 -0.059763193 -0.22080006 0.25350794 -0.068685785 -0.39726558 -0.050980162 0.30501056 -0.28758162 -0.07599112 0.015789023 -0.10154502 0.21911862 -0.1575757 -0.052292693 -0.15681787 0.41353965 0.329074 0.36128086 0.33000594 -0.32023036 -0.011754262 0.41433898 -0.34146345 -0.06447084 0.043776408 -0.2932735 -0.05821593 0.032586597 -0.09708503 -0.14881994 -0.31282952 0.000743964 0.10306545 0.038856924 0.059451096 0.157828 -0.107428685 0.012316004 -0.2750374 -0.19609882 0.18595079 -0.16200918 -0.13304292 -0.096799806 0.12030621 0.32202813 -0.25573146 -0.04659041 0.13447572 0.31394857 0.024727035 0.055339146 0.041330695 -0.30665493 -0.086290166 0.13118215 -0.029648546 -0.14219296 -0.01665461 -0.07296667
预定 0.15227172 -0.35027394 0.38053566 0.6992171 -0.22021213 -0.11769023 0.35207778 -0.25529364 -0.14599496 0.046095546 -0.21276754 -0.09698333 -0.06867417 -0.6269331 0.12851508 0.2803951 -0.011841296 0.22494107 0.46910688 0.15269451 0.6877607 0.3946617 0.50443894 -0.23246093 0.2410618 0.16352755 -0.19397795 -0.0094953915 0.28408322 -0.17492701 0.19858801 0.31435794 0.07712623 -0.045841277 -0.30588058 0.016390365 0.43240133 -0.16074596 0.027646534 0.15245691 0.2443142 0.25119776 -0.025300756 -0.48082238 0.25252488 -0.33096027 0.36415854 -0.24146646 0.036406018 0.2590621 0.36318788 0.10532581 0.00813408 0.40622905 -0.04478238 -0.23129167 0.0038347268 0.01728302 -0.022119647 0.033093847 0.11529512 -0.35745043 0.6248533 0.131965
电话 0.27305865 -0.22522509 0.19996433 0.44383648 -0.07166798 -0.18712918 0.23777597 -0.33228013 -0.31201375 -0.041277517 -0.10785901 0.011479745 -0.30911124 -0.52613395 0.03773019 0.113906555 -0.2865388 -0.07456689 0.42249724 0.20826751 0.3954612 0.122317836 -0.049165696 -0.42393526 -0.23428951 -0.0471446 -0.40315324 0.4204741 0.14155428 -0.008411643 0.18850286 0.054481108 0.16001451 0.017559366 -0.081799075 -0.21322326 -0.0078886645 -0.17565963 0.017285429 0.07293288 0.12331734 -0.034981985 -0.22293699 -0.15103592 0.4691471 -0.41635308 0.48579368 -0.1870376 0.060586195 0.1545846 0.3491578 -0.026404154 0.16195677 0.22441876 0.15262158 -0.16499157 -0.14870907 -0.26063097 -0.20780276 -0.0056054555 -0.10286228 -0.24287629 0.55117196 -0.19280279
竟然 0.3580376 -0.28882962 0.35854056 0.32158807 0.13350764 -0.13100046 0.26035064 -0.118565634 -0.20496467 -0.103729516 -0.01330472 -0.1243189 -0.34603783 -0.47136244 0.10848602 0.09562067 -0.18069327 -0.16003063 0.42560428 0.22815354 0.25465733 0.23254544 0.06090299 -0.3830557 -0.33237177 0.14827393 -0.3434423 0.5192656 0.20194055 0.118503585 0.08897641 0.14606833 -0.06198841 0.084390216 -0.12650444 -0.16895728 -0.07175391 -0.10464605 0.20993297 0.14453562 0.015789827 -0.047673196 -0.27038214 -0.2021073 0.2768055 -0.30621576 0.19182901 -0.1268509 -0.09158094 0.22226804 0.25050756 -0.15202737 0.1610582 0.33133173 0.0810355 -0.1372095 -0.07456154 -0.441343 -0.31689447 -0.108344935 -0.052969474 -0.14957371 0.32628906 -0.19021535
以后 0.054571725 -0.47387323 0.054740135 0.47413114 -0.37145826 -0.26610616 0.29847497 -0.2220526 -0.46691427 -0.022184096 0.28503066 -0.34770003 0.057314355 -0.029028945 -0.09935977 -0.03506555 -0.27663603 -0.23747684 -0.07009964 0.28170094 0.40786734 0.241611 0.6225443 -0.27776614 0.39090693 0.38674432 -0.26030585 -0.018165091 0.16587059 -0.16466738 0.19577369 0.047749825 0.041470055 -0.25990236 -0.29418316 -0.10109047 0.24418631 -0.14847416 -0.06707909 0.2009713 -0.117658205 0.14642604 -0.11568091 -0.22310367 0.32897028 -0.20298302 0.1614802 -0.0019189948 0.40564474 0.2686437 -0.058305547 0.17183241 -0.029426621 0.37563077 -0.09114535 0.0140310805 -0.07816814 0.015574369 0.30980936 0.29795375 -0.20158078 -0.29078045 0.41483498 -0.17061788
算 0.2693545 -0.25609708 0.1361761 0.14250988 -0.0048288526 -0.20153165 0.2942852 -0.08192719 -0.4215972 0.06995293 0.32937956 -0.36743766 -0.075189754 0.10197395 -0.13489103 0.36849296 0.042713616 -0.055906612 -0.2300429 0.46440855 0.41327298 0.53479886 0.5927186 -0.34466037 0.11754193 0.60010314 -0.39408353 -0.18429965 -0.04115957 -0.3765499 -0.13813744 -0.0029156022 -0.18842143 -0.12931201 -0.4573135 0.10502094 0.17093404 0.05061775 0.11086565 0.13833098 -0.13266289 0.034992695 -0.28685614 -0.28821886 0.02654774 -0.2170909 -0.34678334 -0.04312032 0.034286473 0.32086673 -0.3294455 -0.12442832 0.19106987 0.44797605 0.046290286 0.1566017 0.056642372 -0.33610302 -0.17334758 0.16537733 0.04249026 -0.17563684 -0.11884764 -0.06393311
朋友 0.06756729 -0.40504125 0.17263083 0.5060074 -0.29769272 -0.1598287 0.27724206 -0.25993118 -0.35901 -0.10834745 0.23217778 -0.12621538 -0.041384123 -0.19128671 -0.10494056 0.08199401 -0.28555837 0.05782442 -0.046564307 0.26208678 0.45276007 0.22403371 0.411023 -0.316138 0.1519983 0.25585067 -0.23338045 -0.030734234 0.2027495 -0.18338686 0.16835801 0.06701378 0.19434276 -0.20413522 -0.17910177 -0.1822004 0.29314238 -0.03607947 -0.07583068 0.1502309 -0.05218781 0.063605346 -0.08919469 -0.22384599 0.33599758 -0.29806578 0.25710368 -0.19549848 0.20832498 0.23092341 0.060976174 0.12345338 0.102625005 0.31439254 0.019722719 -0.12317437 -0.033762272 0.082182854 0.13547844 0.20320794 -0.15983525 -0.31767645 0.43468127 -0.18073289
建议 0.08015224 -0.33188012 0.113232546 0.5120609 -0.46758848 -0.2802405 0.3582837 -0.17628884 -0.44059372 0.004873541 0.31944042 -0.12420041 0.1281323 -0.07908194 0.0067245276 0.04183056 -0.22338477 -0.02613672 -0.18455069 0.30229124 0.4749551 0.306436 0.3431655 -0.3665459 0.26775673 0.2761939 -0.2545071 -0.16403994 0.21582687 -0.2528799 0.059452076 0.13563547 0.13413386 -0.1348873 -0.15216771 -0.10650068 0.3499522 -0.05813967 -0.12781319 0.19024184 0.040815115 0.2473788 -0.002258812 -0.06955508 0.32986972 -0.28205782 0.16803007 -0.08495379 0.27117115 0.3415357 -0.027291674 0.10339884 0.08053549 0.2967973 0.10398826 0.071661204 -0.005443324 0.12152395 0.13717036 0.3307166 -0.1910103 -0.25800675 0.3649607 -0.13570026
一点 0.3103187 -0.27900246 0.31241807 0.296855 -0.09303707 -0.24798597 0.29025632 -0.07895298 -0.23626275 -0.056481477 0.23569779 -0.29521722 0.009088654 -0.12213534 0.1770087 0.31191617 -0.037526365 -0.042134423 0.05737371 0.35776362 0.21758729 0.3866957 0.36839932 -0.30793008 0.053943574 0.3214351 -0.29557037 -0.067879386 0.15630314 -0.16590142 -0.13273807 0.06267983 -0.23050694 -0.09921984 -0.23835275 0.050165568 0.22812916 0.053111594 0.12633234 0.0054777754 0.037485156 0.094667576 -0.03310892 -0.34221613 0.2708914 -0.0409222 -0.049754694 -0.27520534 0.084738165 0.33213657 -0.15249993 -0.10310708 0.15643995 0.33535242 0.12149402 -0.010591281 0.097879186 -0.11500976 -0.12596568 0.094119735 -0.068545654 -0.16247514 -0.06715901 0.0031703287
找 0.17084955 -0.12222329 0.09239526 0.1630481 0.007758213 -0.2106402 0.2032926 -0.3975328 -0.34219673 -0.26381314 0.17085996 -0.06842332 -0.46401572 -0.24880491 -0.16074607 0.164577 -0.12722349 -0.043101907 0.13176024 0.3928785 0.1619471 0.2266392 0.15514603 -0.43559963 -0.37896428 0.18557285 -0.4875938 0.4394004 0.033988252 -0.15075833 0.0027331635 -0.1672859 -0.04452339 0.013690906 -0.072090395 -0.24312542 -0.1419892 -0.027173411 0.05230044 0.07743116 -0.009538173 -0.27471873 -0.26847944 -0.08793356 0.48226926 -0.38064286 0.24914256 -0.042927664 0.009345628 0.24556477 -0.098186865 -0.18715124 0.1711002 0.42272043 0.15848951 -0.04538663 -0.07790717 -0.5368929 -0.29755807 -0.00064297044 -0.0076621315 -0.22190426 0.363419 -0.26603088
标准 0.4928983 -0.36290652 0.3941896 0.18347286 -0.37140775 -0.29494926 0.28144753 -0.17043987 -0.3641468 0.2582615 0.10813754 -0.5171289 0.117501296 -0.0888613 0.112327754 0.433417 0.059435427 0.08566617 0.06124623 0.51865 0.43278396 0.59153515 0.72228885 -0.55444366 0.4486894 0.41302 -0.021214455 -0.2312942 0.25176805 -0.6056987 0.04158811 -0.027885033 -0.3709694 -0.0028721374 -0.24073114 0.14294179 0.12984875 -0.10947762 -0.32675442 -0.084043205 0.20408358 0.13407762 -0.11198339 -0.39233798 0.04318662 -0.0076006115 -0.20776103 -0.058055226 0.1624185 0.63020587 -0.046740007 -0.020979824 -0.21291973 0.377866 -0.1501653 0.015059076 0.36367717 -0.17474794 -0.023267634 0.14271714 -0.17244238 -0.17540032 0.020917216 0.34076154
楼 0.36252782 -0.4974598 0.3032315 0.251291 0.017857645 -0.1728173 0.17845275 -0.040838894 -0.18940571 0.017717421 -0.06840735 -0.41033223 -0.09783748 -0.24317008 0.10125744 0.39167973 -0.20854829 -0.010140592 0.03980477 0.2336232 0.38368323 0.39687988 0.36463428 -0.40206736 0.09871196 0.5003044 -0.09597008 0.21133268 0.31739146 0.012643364 0.13999818 0.038571447 -0.3258622 0.038563654 -0.4424144 0.03902035 0.15757062 0.11079761 0.17204043 -0.027445506 -0.008790036 -0.013084975 -0.3009426 -0.32589096 -0.019546483 -0.15489241 -0.1710998 -0.3794547 -0.021906966 0.19454479 0.13673608 -0.06921641 -0.059333034 0.30731532 -0.2705148 -0.29577145 0.2705584 -0.33790675 -0.14520814 -0.10107613 -0.16838603 -0.18961927 0.024869686 -0.04525179
想 0.19285731 -0.27440822 0.16221301 0.3340542 -0.1487153 -0.21551828 0.20626046 -0.20310493 -0.41126603 -0.1821483 0.18148802 -0.13235682 -0.076490566 -0.07833324 -0.090373956 0.07865843 -0.3942978 -0.09382142 0.0468711 0.2589529 0.36039487 0.12871043 0.081585616 -0.3877418 -0.16568387 0.14759938 -0.34689504 0.18463339 0.09010808 -0.10935577 0.0903451 0.06039727 0.124428324 -0.117995895 -0.041965105 -0.18392092 0.04812029 0.034784462 -0.07740663 0.09032684 -0.080428354 0.020263849 -0.22052997 -0.06903907 0.3814601 -0.2281108 0.2099629 -0.15665445 0.20220883 0.28250477 0.03399659 -0.0035116891 0.06223296 0.2014691 0.07079771 -0.113360874 -0.060202215 -0.18578874 -0.08829575 0.10373778 -0.19058044 -0.13608837 0.23365454 -0.13665521
人员 0.19243467 -0.18696402 0.3710559 0.25766337 -0.08733486 -0.3723214 0.27939612 -0.2677379 -0.24716946 0.13049774 0.12582146 -0.008502044 -0.30700332 -0.5467298 0.17971712 0.077012554 0.18320839 -0.41883823 0.41974723 0.36129403 -0.034643903 0.48800942 0.41430163 -0.5786911 0.22645275 0.17422195 -0.4814958 0.18454044 0.12217758 0.19745035 -0.114171006 0.35196018 -0.26978362 0.049388494 -0.28645664 -0.1753869 0.034375776 0.046168778 0.34041914 -0.0041733216 0.19978699 0.16116871 0.01591045 -0.33165747 0.335068 -0.24624678 0.1452572 0.037938725 0.12872308 0.40379006 0.051772125 -0.1337368 0.26074848 0.20520014 0.46602392 0.25406948 -0.108588696 -0.48680073 0.066967994 -0.19786303 0.13313317 -0.33389303 0.116818525 -0.4395906
不要 0.07078484 -0.40017748 -0.010861522 0.629255 -0.52065176 -0.20897897 0.24955183 -0.32747558 -0.5496359 0.023365175 0.18510595 -0.11689451 -0.03601558 -0.12031256 -0.14869103 -0.060955003 -0.211851 0.09431814 -0.14235441 0.29536617 0.52748215 0.28352562 0.52866733 -0.36415967 0.30261335 0.34156695 -0.19786462 -0.008973606 0.21445191 -0.3799207 0.27953175 0.072743185 0.2485442 -0.25574374 -0.16272332 -0.2316229 0.27167287 -0.12205888 -0.20616892 0.23693809 -0.09046472 0.19768938 -0.16450606 -0.12016737 0.35381636 -0.44968003 0.21334258 -0.010355666 0.32315415 0.2799349 0.043125127 0.12589027 0.021166312 0.35042548 -0.12245779 -0.08738188 -0.002047892 -0.0038815797 0.34035873 0.35109705 -0.21949352 -0.27443025 0.5452725 -0.18319863
问 0.17318518 -0.25795168 0.22454111 0.36062825 0.03302409 -0.17953971 0.21970266 -0.39983106 -0.29143023 -0.18929377 -0.13333759 0.07135864 -0.45285437 -0.5801783 0.034528684 0.09794627 -0.287582 -0.08753297 0.508031 0.24309103 0.27305987 0.16514425 0.018690096 -0.44251445 -0.24924374 0.01895538 -0.5049536 0.5875214 0.16950752 0.061766174 0.20966339 0.058990534 0.14709201 -0.04153489 -0.035305377 -0.3032257 -0.09725359 -0.1223603 0.06292442 0.14149967 0.03453363 -0.14117126 -0.26737395 -0.14868629 0.45996004 -0.39882392 0.43035847 -0.16015325 0.05862192 0.14712523 0.26455042 -0.11547167 0.1646252 0.2757679 0.17053303 -0.14642586 -0.2339268 -0.4445 -0.23796299 -0.08148371 -0.032833684 -0.28888625 0.5776916 -0.29983473
补充 0.39253387 -0.39522478 0.6435602 0.56364816 0.009029369 -0.5821969 0.7193065 0.021431008 -0.44363314 -0.31147292 0.59225935 -0.47102717 0.2862527 -0.012495948 0.41987282 0.3409193 -0.34990093 0.0023173175 0.22364777 0.35038233 0.23929207 0.48698196 0.18946 -0.10294055 0.09727066 0.035644505 -0.5915584 -0.46606475 0.12047518 -0.21947137 -0.21739936 0.16542771 -0.07093322 -0.16706488 -0.089748405 0.14782692 0.8042533 0.33635056 0.19440818 -0.1289615 0.18250108 0.20328125 0.187012 -0.58663094 0.63613605 0.2632231 0.1534594 -0.5233446 0.37341943 0.67315197 -0.066494346 0.20652865 0.15207994 0.2659812 0.38033137 0.20388384 0.09384654 0.3953858 -0.056786448 0.23569709 -0.2713409 0.00094038487 -0.20097965 0.011575646
大床 0.51286083 -0.6515443 0.6533399 0.42101485 0.08609163 -0.20757623 0.2787185 -0.10453418 0.105362184 0.25783744 -0.40086687 -0.6044788 0.06298822 -0.39877784 0.19660428 0.6328838 -0.28962612 -0.055778675 0.38090295 0.2904083 0.86335886 0.41460773 0.7211416 -0.24413681 0.07747507 0.42625806 0.15251777 -0.08758391 0.28036484 -0.12302368 0.34764427 0.1272069 -0.28936845 0.06000928 -0.60653174 0.20128478 0.45604485 -0.05683634 0.19020179 0.016579196 0.25026646 0.22148418 -0.34759718 -0.56031626 -0.2655554 0.03370825 0.07598917 -0.45764562 -0.06634868 0.25070384 0.3565795 -0.12836275 -0.17169683 0.3754602 -0.51353264 -0.49498123 0.16273278 -0.0621712 -0.31709862 -0.15203582 -0.206573 -0.20614848 0.18010262 0.31730327
总体 0.18924677 -0.39517742 0.31933314 0.15532674 -0.14131404 -0.2657709 0.23952092 -0.15276746 -0.33950943 0.10747186 0.4090356 -0.30635822 0.013003928 -0.15263969 -0.015160068 0.31546777 0.1105806 -0.114089146 -0.15219098 0.44312114 0.26810148 0.5779538 0.7362594 -0.4047839 0.4069322 0.6644959 -0.28704998 -0.1836334 0.21844213 -0.2833277 -0.08078296 0.11964446 -0.29422402 -0.0815019 -0.4893159 0.14101177 0.24943604 0.12621741 0.25525278 0.068284154 -0.000825637 0.15331815 -0.13389233 -0.35317898 0.09130471 -0.104650445 -0.23124969 -0.16399722 0.1885485 0.40140724 -0.22670616 -0.051768836 0.061454006 0.3523692 0.07503725 -0.021754382 0.11702746 -0.28919905 0.077970885 0.07774979 -0.06036403 -0.25850484 -0.121300004 -0.1560014
应该 0.21238355 -0.29685366 0.2056058 0.2158075 -0.2878778 -0.2795731 0.3007077 -0.12959553 -0.40144238 0.030452846 0.23368965 -0.26451 0.028124494 -0.09187108 -0.014983326 0.21468179 -0.07451142 -0.052770745 -0.07075055 0.39526835 0.3455503 0.3644466 0.45911646 -0.37389097 0.25150633 0.33422875 -0.2700926 -0.19332406 0.1213698 -0.31685388 -0.052349344 0.049860694 -0.13420619 -0.063826844 -0.20114039 0.025938673 0.12479883 -0.13036029 -0.09775253 0.0596022 0.03053998 0.11539668 -0.13937195 -0.2649371 0.251823 -0.1683957 0.0012639057 -0.06729253 0.23082209 0.37685224 -0.16221607 0.064865775 0.04807729 0.30241373 0.1261554 0.08759125 0.06542255 -0.10559325 0.023685025 0.1964464 -0.10501426 -0.25771582 0.13282266 -0.023230731
希望 0.029406229 -0.3024443 0.23140953 0.63172245 -0.589347 -0.3109735 0.38837773 -0.12090824 -0.5034387 0.18617365 0.22396743 -0.09838452 -0.006677268 -0.27010122 -0.13429707 -0.09711097 -0.2640377 -0.16758631 -0.033620153 0.26816577 0.52187407 0.27208656 0.27009934 -0.459924 0.39299107 0.18629627 -0.2469713 -0.29175293 0.25429815 -0.19814536 0.031512324 0.2955088 0.14880171 -0.064717695 -0.11353339 0.036292184 0.22085395 -0.168102 -0.24646473 0.12077418 0.15020974 0.46385548 0.02017079 -0.027684145 0.41827437 -0.21177268 0.3096912 -0.09272279 0.32625505 0.34372336 0.07657872 0.29352245 0.06345481 0.13236298 0.19006805 0.0948351 -0.08261302 0.08615153 0.25574625 0.27574766 -0.16414881 -0.23976485 0.37807226 0.0068833297
陈旧 0.6814107 -0.35078666 0.3799705 -0.14115323 0.12588409 -0.30335295 0.2602015 0.14049676 -0.26313025 0.2612192 0.23564084 -0.5865774 0.11648975 -0.018782686 0.28117588 0.48406276 -0.15309267 -0.40922058 -0.15648894 0.57531124 0.21026464 0.50952095 0.4920455 -0.44230106 -0.011525443 0.5556332 -0.24711 -0.053135682 0.07047588 -0.22576103 -0.18688546 -0.019159915 -0.58268183 -0.04074585 -0.4796951 0.2866459 0.014252075 -0.09916242 0.16623396 0.010820586 -0.100497216 0.17371957 -0.33576143 -0.3124796 -0.007228346 0.13415197 -0.3524744 -0.15622965 -0.029947376 0.31585094 -0.22758052 -0.24759397 0.09351409 0.30456018 -0.027354283 0.057285454 0.311292 -0.40821207 -0.24383238 -0.042799048 -0.3300913 -0.17153572 -0.35850185 0.07038602
分钟 0.13499026 -0.12078403 -0.03645727 0.23496026 0.1306442 -0.057946417 0.31255838 -0.29006067 -0.361173 -0.16307189 0.3320468 -0.13373911 -0.3006951 -0.08062107 -0.30624577 0.22394592 -0.510941 -0.034917682 -0.2157536 0.35124457 0.3775697 0.24316986 -0.21756995 -0.30444744 -0.47913635 0.21518838 -0.61800265 0.2919399 -0.105782054 -0.26450118 -0.29449683 0.003946469 0.27209353 -0.28096285 0.06505333 -0.07877914 -0.10750054 -0.012934033 -0.19426945 -0.07019378 -0.26999718 -0.08158124 -0.2996253 0.06762709 0.29511526 -0.20431465 0.11492435 -0.2585623 -0.10586181 0.026506413 0.012288706 -0.21196108 0.39507893 0.26733774 0.19539045 0.08031726 -0.18314195 -0.42211345 -0.344641 0.17482038 -0.10205723 0.0052871923 0.06870715 -0.22207974
打电话 0.24126352 -0.28424624 0.18566851 0.42439485 -0.08831433 -0.17017356 0.1946395 -0.40206903 -0.30185837 -0.13614176 -0.16665486 0.043988094 -0.43444344 -0.5983732 -0.029691294 0.115237154 -0.27750817 -0.07115854 0.4993999 0.1832486 0.36357707 0.1258363 0.029270539 -0.47720248 -0.2503909 0.07172411 -0.41775814 0.580287 0.1695651 0.07075737 0.24749266 -0.01767882 0.16337092 0.037033983 -0.050326783 -0.33291444 -0.07769603 -0.16856658 0.046483845 0.1421866 0.025805777 -0.10961441 -0.22814918 -0.13264051 0.5130394 -0.5414825 0.47712713 -0.19650131 0.04765348 0.062461805 0.36104274 -0.11253454 0.17210001 0.2919958 0.12179825 -0.2278371 -0.17940609 -0.3821601 -0.18906334 -0.02599182 -0.09957336 -0.27691156 0.65392244 -0.26684505
~ 0.012698134 -0.5198182 -0.06659636 0.30683124 0.26642627 -0.71346873 0.8146675 0.059081893 -0.49883506 -0.014212785 0.4799791 -0.8031807 0.57157063 0.47228673 0.22879267 0.07112997 -0.7911404 -0.7719014 0.35235065 0.6546022 0.7378849 0.30520585 0.43372416 0.063557275 -0.5396287 -0.32233977 -0.20224676 -0.7335763 -0.22404908 -0.43534705 0.44000357 -0.2535231 0.43229815 -0.105690755 -0.5849093 -0.01839874 0.60732144 0.01453102 0.42935222 0.4245998 0.24281769 -0.20586973 -0.68051535 -0.25824094 0.07042818 -0.21018688 0.45363972 0.11458268 0.26081425 0.5320886 0.2913256 -0.019518377 0.44909078 0.3650222 -0.011743966 0.10986287 -0.46801117 0.5739649 -0.5402456 0.054743562 -0.3372374 -0.09574164 0.28538188 -0.36318028
星 0.39390558 -0.30536723 0.3358041 0.0863354 -0.2204949 -0.2625977 0.23715377 -0.083643965 -0.4528448 0.106909625 0.33881423 -0.4286112 0.15989639 0.01778504 0.021362845 0.31417388 0.053324424 -0.06874256 -0.04296605 0.57175285 0.29362136 0.5122232 0.69275355 -0.529548 0.3347641 0.42323247 -0.19802658 -0.1911158 0.13463412 -0.5527017 -0.12108568 -0.0040068505 -0.37752804 -0.07933294 -0.17517422 0.075859934 0.118172295 -0.10173415 -0.17541118 -0.044957124 0.045468327 0.012022569 -0.090974465 -0.3462605 0.19001234 0.014541457 -0.28017575 0.015774688 0.16081594 0.6462406 -0.22784086 -0.017446434 -0.07217227 0.46104652 0.047825687 0.17018518 0.22354575 -0.2194075 -0.027121577 0.14305535 -0.17640364 -0.19143686 -0.039352722 0.092788495
特别 0.26084462 -0.30576617 0.21991666 0.17171508 -0.12760668 -0.2470707 0.21338883 -0.053487077 -0.30855376 0.06865579 0.3001044 -0.23471785 -0.08652928 -0.16161478 0.06110897 0.17335507 -0.115253404 -0.25613347 -0.1481094 0.37900877 0.20133138 0.34517327 0.32600892 -0.46642774 0.104685575 0.4466509 -0.35618007 0.0072688633 0.14821292 -0.13284862 -0.10905329 0.103136204 -0.25122902 -0.046310082 -0.31824782 0.029073054 -0.016880492 0.042132154 0.16994765 0.079129465 -0.025207387 0.13585494 -0.17144749 -0.20654775 0.16079432 -0.15149015 -0.13300978 -0.11387359 0.10829309 0.2808317 -0.22091252 -0.10075137 0.15406725 0.22907943 0.14926846 0.0405538 0.119669095 -0.3962749 -0.010685412 0.064634375 -0.12082496 -0.20719934 -0.12498299 -0.22815263
隔音 0.6094748 -0.37435725 0.24947694 -0.004991718 0.19468017 -0.24389347 0.27970654 0.2690795 -0.24309991 -0.018497972 0.34214935 -0.3980531 0.179344 -0.16750942 0.6253267 0.47633412 -0.22108838 -0.6233438 -0.10369361 0.47161064 0.1289717 0.39855114 0.20481335 -0.4233481 -0.109552614 0.50715345 -0.50560164 0.33669496 0.24698712 0.08065489 -0.08680802 -0.074890114 -0.5769305 0.041417155 -0.4930044 0.18534867 0.08049139 0.1908342 0.4446878 0.056578994 -0.14209214 0.10647271 -0.35534674 -0.35056433 0.10194537 0.14195485 -0.4196678 -0.2017075 -0.014467874 0.3397903 -0.36605117 -0.34966505 0.13423629 0.23522604 0.098170824 -0.10048502 0.26931256 -0.5771199 -0.35496256 -0.15207551 -0.2793968 -0.16984966 -0.3939781 -0.33275282
订 0.2045364 -0.47428754 0.380515 0.55352527 -0.16353461 -0.14592142 0.25429195 -0.20585239 -0.1098518 0.06874324 -0.21339118 -0.3129032 0.052761663 -0.40785158 0.09461053 0.38901582 -0.09604099 0.1363736 0.36691308 0.22771044 0.7597251 0.368511 0.61754954 -0.17498341 0.29021746 0.32353327 -0.018965708 -0.1192845 0.23038006 -0.25069132 0.24251048 0.19293094 -0.007149628 -0.055494137 -0.43329272 0.05836095 0.48122582 -0.10406779 0.08028079 0.15086915 0.20595668 0.17925426 -0.19889034 -0.47894353 0.07355754 -0.28419402 0.21051936 -0.265083 0.1092121 0.26368225 0.27357584 0.06969846 -0.08999136 0.4093498 -0.2276154 -0.30866757 0.08324388 0.045083236 -0.06644788 0.042291746 0.010025203 -0.32499903 0.5202631 0.15356475
高 0.25172007 -0.31780705 0.18462771 0.3130771 -0.1274207 -0.1973284 0.34037134 -0.105969556 -0.42550704 0.11361757 0.34893227 -0.37084705 0.09032456 -0.03221862 -0.006706018 0.2887471 0.06860335 0.06334578 -0.17691468 0.42964354 0.4238313 0.5013029 0.7358811 -0.40240404 0.29030663 0.487451 -0.17258844 -0.2945286 0.0866026 -0.42357 -0.032406997 0.082845815 -0.14057817 -0.07617754 -0.46334133 0.061828677 0.21623461 -0.043527633 0.036277395 0.115146324 -0.015025389 0.07063628 -0.25418377 -0.38252893 0.13914394 -0.32297865 -0.26253185 0.020997483 0.12727296 0.43164486 -0.33591342 -0.01713613 0.14390041 0.43474633 0.04495351 0.14819875 0.07676862 -0.14531082 -0.04265196 0.14791356 -0.0041689486 -0.16886522 0.030802036 -0.06481648
换 0.43685567 -0.44452453 0.3846721 0.2053708 0.036291163 -0.1185596 0.09801061 -0.11282311 -0.17055863 -0.030927433 -0.21348807 -0.38248047 -0.22318313 -0.3816687 0.05925501 0.37039518 -0.26208627 -0.15593216 0.35140884 0.28095818 0.48661482 0.19647177 0.40364483 -0.36776575 -0.15817447 0.36052495 -0.05468243 0.3012221 0.17388736 0.061910845 0.2505791 -0.019505208 -0.15505241 0.09385308 -0.3202197 -0.07186063 0.14726149 -0.111242026 0.18181968 0.108276956 0.09094156 0.016280843 -0.43841353 -0.31822503 0.0754264 -0.33104813 0.22394322 -0.30545697 0.034509834 0.09145453 0.27499932 -0.11839981 -0.023979593 0.3263749 -0.24706067 -0.3611764 0.012566617 -0.29484543 -0.22210017 -0.13054404 -0.16163498 -0.21335337 0.4110038 -0.08668971
第二天 0.23120722 -0.3887741 0.29322898 0.3771402 0.13532634 -0.049141943 0.25531626 -0.057469066 -0.341782 -0.21268938 0.082640216 -0.17731121 -0.22446594 -0.3332829 0.029750759 0.12820092 -0.43208134 -0.068943515 0.3123784 0.19213678 0.4061083 0.17677407 -0.040448256 -0.32131025 -0.41730493 0.057598684 -0.30677974 0.5109844 0.18368188 0.1258957 0.12039487 0.17182739 0.112607084 -0.07303085 -0.090213075 -0.15960985 0.06507147 0.076144435 0.14600614 0.14594284 -0.034748223 -0.09446725 -0.27478203 -0.17420697 0.29280648 -0.24710546 0.25935745 -0.24008077 -0.009615439 0.22222319 0.27354804 -0.028476985 0.11241437 0.2817454 -0.096397996 -0.31129658 -0.015517667 -0.32615936 -0.22283033 -0.06137608 -0.11296206 -0.11888111 0.33582813 -0.22185497
旧 0.66143984 -0.41713342 0.38120317 -0.04239829 0.17123078 -0.20132284 0.21779451 0.083892696 -0.19192225 0.10028376 0.2850438 -0.613648 -0.0018034314 0.0053220675 0.11817582 0.5411736 -0.104111046 -0.24133976 -0.1449143 0.47124776 0.32012245 0.5096311 0.49717242 -0.45297807 -0.06512968 0.6521371 -0.21933936 -0.075981334 0.13344643 -0.1337531 -0.23408975 0.024928752 -0.60331076 -0.041826665 -0.46598288 0.18155578 0.012783183 0.0038118754 0.1811334 0.018638426 -0.039481733 0.13443922 -0.36033526 -0.42332357 0.010819188 0.01632964 -0.43251392 -0.2829093 -0.0039418996 0.3681231 -0.2672363 -0.18843567 0.10364243 0.38397235 0.017994177 0.0041998075 0.28002694 -0.40064555 -0.35341373 -0.021896794 -0.21056269 -0.1627465 -0.39565623 -0.002720435
一下 0.19439541 -0.3177196 0.3009598 0.38525394 -0.1373908 -0.2549614 0.31275705 -0.14065619 -0.29306746 -0.08702366 0.12517715 -0.2090354 -0.069477476 -0.18985341 0.12073067 0.21728621 -0.20784113 -0.07096517 0.2379961 0.31569698 0.30352512 0.23793548 0.19772425 -0.29104373 -0.007876321 0.08370195 -0.29831132 -0.033943307 0.13550043 -0.14580493 -0.0051705763 0.0890704 -0.02972119 -0.12822935 -0.101050116 -0.0030311304 0.24810341 -0.03379936 0.0021586858 0.026135948 0.079844825 0.082493044 -0.03310734 -0.26240483 0.34139273 -0.06877597 0.22597042 -0.23234291 0.1917397 0.28342515 0.094651856 0.046018742 0.17055906 0.2399082 0.15038425 -0.02315643 -0.005903383 0.029774074 -0.06856847 0.11676058 -0.15142025 -0.18248819 0.19883232 0.036552407
性价比 0.16909243 -0.41133013 0.14655338 0.19030195 -0.27447444 -0.31606373 0.39009315 -0.08658393 -0.52506053 0.14943089 0.47896087 -0.4790378 0.20847428 0.20623718 0.023109358 0.39402574 0.0053154817 -0.059423495 -0.2993486 0.5544268 0.53735834 0.58250666 0.86924225 -0.2808164 0.4406802 0.6318261 -0.29210737 -0.46044952 0.1496664 -0.47610053 -0.06297614 0.034731388 -0.14677203 -0.23180601 -0.49590334 0.14925711 0.36796796 0.07043212 0.022855595 0.0837232 -0.034083176 0.20570354 -0.22363435 -0.34880286 0.108623505 -0.14216071 -0.30398774 -0.049105473 0.21188048 0.49167395 -0.41722023 -0.0022738345 0.112610966 0.48678356 -0.023395417 0.13199155 0.12203155 -0.05441995 0.07950803 0.22203684 -0.07624567 -0.2921715 -0.09735081 0.010186549
时间 0.12701711 -0.2671314 0.2638641 0.48281452 -0.009076185 -0.12817845 0.38300115 -0.064194255 -0.34200788 -0.17171614 0.27379045 -0.078838296 -0.22549906 -0.31961113 -0.026568653 0.040629055 -0.32757396 -0.045372386 0.13153434 0.16921484 0.30500865 0.2647283 -0.027940176 -0.3213455 -0.18316911 0.04339872 -0.4907973 0.22101732 0.17389573 0.058016025 -0.13642742 0.26151738 0.10073088 -0.06873312 -0.032660775 -0.11405294 0.103291065 -0.0021308183 0.026966956 0.059834782 -0.01818637 0.06836602 -0.027883016 -0.22074483 0.42320365 -0.15282044 0.23571105 -0.23183693 0.03234461 0.23498224 0.154631 0.07275541 0.18573286 0.21679752 0.26211303 -0.014028924 -0.057603143 -0.19339181 -0.073219165 0.033839542 0.030082949 -0.14645137 0.22866978 -0.20102204
客房 0.27215913 -0.23157048 0.35034472 0.21653877 -0.07843717 -0.32324177 0.29090327 -0.11978095 -0.21661465 0.15183693 0.063498735 -0.20024393 -0.18653813 -0.35966703 0.10635437 0.18507132 -0.09342002 -0.20191516 0.18047902 0.2579139 0.16721316 0.35176548 0.2729643 -0.5021653 0.18463393 0.28920868 -0.35272 0.08331644 0.2015913 -0.02580333 -0.06831764 0.17591792 -0.28019658 0.074183844 -0.23185733 0.049759135 -0.0155572025 -0.021964092 0.072211735 -0.030966364 0.09986496 0.17819516 -0.08113632 -0.22210382 0.18663374 -0.07177534 -0.019956809 -0.16451342 0.06314506 0.21336584 0.053354863 -0.025415378 0.1162864 0.20036219 0.21537904 0.066941075 0.045589224 -0.3850515 -0.08484894 -0.09235453 -0.090827726 -0.19663541 -0.021113329 -0.04115065
看到 0.3042539 -0.3220132 0.30731934 0.24276093 -0.029965179 -0.2780692 0.24149612 -0.06378792 -0.23172264 -0.10621447 0.06930311 -0.25954226 -0.09614853 -0.20742944 0.11825519 0.26995865 -0.2620055 -0.07457485 0.13786574 0.31922278 0.26794973 0.23069714 0.10654291 -0.3459628 -0.07500613 0.20701583 -0.28720874 0.04487695 0.12811515 -0.061249726 -0.018298242 0.05992021 -0.13864815 -0.047265563 -0.13136713 0.02581582 0.10754853 -0.022314634 0.032692123 0.046593167 0.037430815 0.0801086 -0.13150513 -0.2008495 0.23751982 -0.041841835 0.061739113 -0.3263382 0.06993187 0.24732128 0.10046036 -0.030229656 0.09763984 0.1958099 0.00952213 -0.13267569 0.085658655 -0.15652375 -0.1654488 0.0405285 -0.1765151 -0.12732472 0.057556856 -0.020615162
做 0.11188747 -0.23039511 0.22793578 0.3773627 -0.14151083 -0.29129654 0.34612903 -0.112728275 -0.4261599 -0.10906828 0.2289462 -0.08649959 -0.15573232 -0.24537471 -0.002996591 -0.026827566 -0.2749784 -0.119937286 0.11597048 0.26110822 0.2575156 0.25752047 0.07540483 -0.3899126 0.019756353 0.071535885 -0.41551742 0.015555222 0.13680601 -0.06751415 -0.055566683 0.22751774 0.0452726 -0.037550323 -0.064015925 -0.086296335 0.06469966 -0.021786224 0.037944328 0.08721661 0.027961941 0.09113188 -0.075386986 -0.11086823 0.38672158 -0.14305083 0.1855522 -0.14526407 0.16271411 0.31478104 0.019667149 0.08011235 0.13494976 0.19244687 0.25633177 0.10471441 -0.0815901 -0.18455338 -0.036550976 0.09461446 -0.095777646 -0.15730733 0.16044173 -0.1274554
反馈 0.12772991 -0.41725335 0.49266756 0.6897672 -0.5178156 -0.41774774 0.73599195 0.11531476 -0.3565175 -0.18796569 0.6972273 -0.3371905 0.23729277 -0.19635613 0.44321522 0.41460314 -0.27587426 -0.15622556 0.24192384 0.5945704 0.2967368 0.52863324 0.0638013 -0.39765522 0.12380991 -0.071763046 -0.69439405 -0.51206213 0.40269482 -0.27487096 -0.40281564 0.46295038 -0.17594582 -0.2544241 0.07027197 0.2788715 0.7003141 0.28687775 0.050822113 -0.08829876 0.31392583 0.49990225 0.5044356 -0.42803594 0.7415278 0.24100104 0.2365948 -0.35512492 0.40413073 0.70294523 0.06531368 0.3330278 0.21732685 0.2697473 0.60636914 0.1740441 0.08165088 0.319299 0.18184671 0.2891312 -0.1324542 -0.2499612 0.09592311 0.1805148
提供 0.19221415 -0.23812664 0.2662318 0.64187735 -0.35171437 -0.19155012 0.31757596 0.031697486 -0.33632445 0.2603298 -0.0031160186 -0.14547668 -0.172786 -0.30148345 -0.049253307 0.03668856 -0.16947946 -0.10897338 0.11501222 0.29933408 0.37900117 0.23504587 0.11919034 -0.46957117 0.12092231 0.101615 -0.29157254 -0.1644011 0.20141505 -0.23828164 0.0034193362 0.29249674 -0.08143236 0.042587906 -0.22476862 0.1258317 0.13066362 -0.12662534 0.038796414 0.09153452 0.13640733 0.34746742 0.0056146695 -0.11890714 0.28393975 -0.21721175 0.1950017 -0.106262535 0.027598262 0.31532866 0.165576 0.057792727 0.18291633 0.14400832 0.171743 0.19263099 -0.047003828 -0.09056004 0.04314685 0.14240254 -0.053098667 -0.06985266 0.20380577 0.1356052
可能 0.21805751 -0.30429068 0.15070876 0.25564355 -0.16236126 -0.21811041 0.26776603 -0.108733065 -0.39808476 0.002992898 0.29331312 -0.21205088 -0.0030474775 -0.088697046 -0.013534058 0.12744047 -0.14507934 -0.19603258 -0.09599713 0.31163955 0.26962847 0.31720573 0.41999066 -0.40155172 0.11995274 0.34440106 -0.30059838 0.017710257 0.15438679 -0.12467036 -0.007693191 0.094324596 -0.10821466 -0.05439352 -0.266576 -0.06669537 0.09611697 -0.022151446 0.0064937472 0.08686763 -0.018478904 0.09987667 -0.15611248 -0.22499005 0.24766521 -0.18636216 -0.052618086 -0.07410054 0.22356786 0.31118974 -0.14085819 -0.029135887 0.038484976 0.30564445 0.1159927 0.02031594 0.021357115 -0.2472791 0.015350133 0.1250808 -0.08492343 -0.25041032 0.06488963 -0.18488047
走 0.112646624 -0.17936134 -0.01733167 0.2099146 0.052780993 -0.118340105 0.24404742 -0.223709 -0.40539354 -0.21934034 0.2554012 -0.15127014 -0.24505971 -0.05713317 -0.18784298 0.2114118 -0.4684002 -0.034949787 -0.09083536 0.37304935 0.34501734 0.14340605 -0.16950089 -0.33022827 -0.44606104 0.22160582 -0.54781055 0.32724363 -0.044184595 -0.2489474 -0.073520176 -0.041850414 0.22812931 -0.19256464 -0.045035724 -0.12358117 -0.0863402 0.07197892 -0.08737183 0.043170493 -0.26548335 -0.14561658 -0.38485214 0.0845626 0.34924403 -0.21236521 0.10126016 -0.23662306 -0.0026931532 0.13541634 -0.078025766 -0.20114227 0.29251912 0.25535288 0.033773102 -0.053340632 -0.13454713 -0.39392003 -0.28837743 0.1296045 -0.18152085 -0.013848428 0.08257692 -0.25003096
推荐 -0.07400239 -0.32430026 0.10578033 0.45543796 -0.4181685 -0.21514948 0.33622292 -0.21082878 -0.47172096 0.07429644 0.33789802 -0.20238936 0.06034232 -0.11046088 -0.06650136 0.19491225 -0.064754345 0.052756276 -0.14971775 0.37182105 0.53788424 0.42789602 0.60672647 -0.31386578 0.37981844 0.43326 -0.27263132 -0.31364462 0.18177457 -0.43868372 0.07834934 0.12541382 0.08253469 -0.21369895 -0.31373486 -0.0032223575 0.37157974 -0.0028872692 -0.10838161 0.15439357 0.006690471 0.19352941 -0.0645227 -0.17832349 0.23783474 -0.28927678 0.07553395 -0.07636938 0.24879895 0.37920794 -0.18383503 0.11587091 0.09490613 0.38244984 0.062947504 0.030253895 -0.014676488 0.0075120297 0.20015907 0.2786901 0.002616149 -0.3386176 0.32339483 -0.08492756
后来 0.23322746 -0.31979677 0.32686654 0.3794017 0.0035452964 -0.16721736 0.23205751 -0.2390709 -0.24145 -0.109601155 -0.17708062 -0.17592385 -0.24481651 -0.42719185 0.0013455405 0.20172718 -0.2320008 0.04448602 0.44039896 0.27388418 0.45317805 0.18776691 0.27017733 -0.3186166 -0.1243183 0.14835161 -0.17887759 0.3295517 0.17063516 -0.018456988 0.22944205 0.08427276 0.055051107 -0.066785194 -0.16208105 -0.14176258 0.15205716 -0.117704146 0.036304105 0.10303095 0.09227364 0.0025539997 -0.25892675 -0.19286941 0.31100687 -0.35935602 0.37212572 -0.23891263 0.025502482 0.14272133 0.32891276 -0.035992477 0.078601845 0.33590937 -0.082174174 -0.2913877 -0.093874134 -0.23182933 -0.18455032 -0.03927602 -0.108679116 -0.21980935 0.48943925 -0.03390634
满意 0.13303648 -0.36949772 0.29790008 0.3669925 -0.20796332 -0.28454617 0.35987493 -0.07274664 -0.29289895 0.10693035 0.31452072 -0.2602638 0.05634132 -0.17332785 0.100052595 0.22462736 -0.07487791 -0.16044731 -0.019826977 0.36540294 0.26299775 0.44868416 0.44250295 -0.37968004 0.2986919 0.32692152 -0.309669 -0.20752491 0.20578651 -0.18854035 -0.04946632 0.2635338 -0.136111 -0.09182219 -0.28717005 0.11315061 0.28845438 0.11451683 0.10556005 0.017056461 0.11336776 0.25129843 0.001709782 -0.31767443 0.20621447 -0.038890775 -0.0019754295 -0.10948914 0.16901217 0.37441105 -0.08462013 0.08268147 0.1235583 0.28989682 0.20105909 0.122576825 0.050575837 -0.09743157 0.111563146 0.068672165 -0.01891012 -0.23764883 0.050816234 -0.08284922
服务态度 0.17075533 -0.26108614 0.30604634 0.084394336 0.013656736 -0.24806401 0.35255185 -0.061057147 -0.31726477 0.038927335 0.36014068 -0.15647799 -0.16931422 -0.22599377 0.20379782 0.25831527 0.085156515 -0.23383605 -0.022320546 0.39281523 0.13383895 0.48042548 0.43503135 -0.34921 0.2146651 0.44070983 -0.5185359 0.100408144 0.20448174 -0.11460764 -0.16371103 0.10114782 -0.28493458 -0.010840415 -0.32853273 0.09062903 0.05590984 0.06970302 0.2919881 0.04843918 -0.018021833 0.08295553 -0.091160364 -0.35682333 0.2130876 -0.025157306 -0.20357686 -0.055657614 0.101535276 0.3280212 -0.2976651 -0.10964445 0.19166012 0.32831296 0.28819197 0.17658061 0.03683115 -0.42925057 0.021834891 -0.03746869 0.039363097 -0.27089107 -0.06515677 -0.217989
真的 0.24319203 -0.31286234 0.23787616 0.2745608 -0.12460775 -0.25973213 0.27536947 -0.0920845 -0.35018405 -0.035265855 0.29833585 -0.25954422 0.026174232 -0.056302007 0.112139925 0.20885493 -0.12178005 -0.118623115 0.014424892 0.34988573 0.27868164 0.35909498 0.40062514 -0.34016797 0.1690861 0.30196878 -0.29587623 -0.08156416 0.117794394 -0.2047819 0.00413305 0.08002316 -0.11946571 -0.14737405 -0.22406851 -0.0037352156 0.2238411 0.03230722 0.050042257 0.050936803 -0.022178639 0.14300448 -0.14647347 -0.29496008 0.23772779 -0.08962184 -0.05939255 -0.12454256 0.21525337 0.35974225 -0.1254309 0.0069617806 0.085087575 0.28354666 0.08400802 0.028611414 0.04529767 -0.12278508 -0.00822194 0.089370795 -0.11344303 -0.17150374 0.024822617 -0.07835897
觉得 0.24678706 -0.33002874 0.22349662 0.2760707 -0.059661243 -0.18904807 0.26928616 -0.08813881 -0.35231644 -0.09308809 0.31794584 -0.2703675 0.023419313 -0.10327632 0.05419624 0.22447173 -0.1149065 -0.03876274 -0.009964171 0.33613008 0.30490735 0.34282297 0.42992485 -0.30065858 0.08658472 0.34078696 -0.282391 -0.11267795 0.13949437 -0.19300099 -0.065897845 0.09250487 -0.0872646 -0.11249296 -0.22913714 7.9097015e-05 0.19473283 0.059892815 0.052844577 0.066015765 -0.0008426142 0.070208676 -0.12438797 -0.31236938 0.25914624 -0.14431718 -0.065852225 -0.1300593 0.16210201 0.3504218 -0.18122181 -0.014669413 0.12942037 0.34735656 0.10642305 0.019887159 0.039387867 -0.12582387 -0.0839884 0.13361987 -0.09918157 -0.15480508 0.024315387 -0.09242628
根本 0.4664691 -0.24913664 0.20623001 0.18103911 -0.030916 -0.16145803 0.14895554 -0.15890698 -0.30558577 -0.025944572 -0.0020125373 -0.26834494 -0.109607704 -0.19420964 0.044151712 0.22861686 -0.06807901 -0.046972394 0.19201443 0.38525936 0.29081178 0.2942623 0.3981985 -0.43453273 -0.104981825 0.2834102 -0.19115706 0.26746324 0.10400262 -0.22877221 0.10678286 -0.09104729 -0.20986272 0.04219369 -0.21552563 -0.09926632 -0.054735254 -0.16958387 0.039621443 0.12262708 -0.00677979 -0.11122471 -0.31551787 -0.20616528 0.1688401 -0.27024746 -0.044147886 -0.021362072 0.00021490103 0.3310206 -0.012318763 -0.21668166 0.057053227 0.3701121 -0.071921006 -0.0883805 0.090377115 -0.4288435 -0.2525867 0.008763412 -0.13920888 -0.1446036 0.16011731 0.0029472848
很大 0.5345402 -0.40174899 0.3067612 0.10307386 0.01721244 -0.22643265 0.16122635 0.010989288 -0.1978153 0.161997 0.106144235 -0.4970164 0.039690245 -0.055588048 0.05464547 0.4644926 -0.19408487 -0.28658044 -0.18725246 0.41544226 0.40225968 0.3235015 0.36401728 -0.45122984 -0.026065815 0.5912624 -0.1743424 -0.04683931 0.16958693 -0.21376194 -0.04735291 -0.063450135 -0.39386427 0.006226298 -0.41969723 0.19210091 -0.0077058384 -0.041689157 0.09489186 0.082799 -0.09428663 0.15048687 -0.35766903 -0.26115075 -0.051094204 -0.041234463 -0.2941924 -0.27058578 -0.013162683 0.21013236 -0.17535011 -0.15619384 0.061433963 0.2878972 -0.13779172 -0.1290239 0.20764348 -0.37276578 -0.27497995 0.048115265 -0.23192753 -0.08620069 -0.17705594 0.0761425
舒服 0.35176906 -0.43685097 0.29385278 0.1024487 0.0011428976 -0.23055089 0.16257583 -0.08101798 -0.22789836 0.073593356 0.20336774 -0.41222343 -0.0026782013 -0.064304166 0.081555866 0.36666417 -0.14848615 -0.29830226 -0.1115566 0.36572316 0.32385683 0.37958393 0.45429593 -0.4331936 0.07695785 0.6114047 -0.19885767 0.040669534 0.1927023 -0.15237026 0.0066186725 -0.01182847 -0.30169332 -0.07881437 -0.4138154 0.13160865 0.03507743 0.034969162 0.14838469 0.097824976 -0.10048499 0.17355344 -0.32515723 -0.26157534 0.044136997 -0.049484257 -0.22344457 -0.22677226 0.07447422 0.24567674 -0.17829828 -0.13104825 0.07048979 0.24829197 -0.084089875 -0.111088574 0.13393106 -0.40578505 -0.14067043 0.0004881883 -0.21058549 -0.17191565 -0.17555279 -0.08943747
地理位置 0.1654049 -0.23729706 0.07679565 0.055515803 -0.09700492 -0.2806993 0.39345646 -0.111027196 -0.46487322 0.080708854 0.53453827 -0.29975092 0.05952464 0.14590812 -0.06389977 0.40455297 -0.09891423 -0.15654671 -0.46542844 0.5233245 0.31761912 0.53947735 0.43339017 -0.37319374 0.087314576 0.612486 -0.48822728 -0.28826207 0.028129967 -0.38694954 -0.29595974 0.040277336 -0.17382416 -0.22319652 -0.39122647 0.12923582 0.14883089 0.14707808 0.047303375 0.017478604 -0.11881452 0.09160942 -0.18852966 -0.22018352 0.10980765 -0.07234802 -0.3418336 -0.1372989 0.12557872 0.3357481 -0.46314457 -0.14195122 0.24211365 0.32641625 0.18548423 0.22353394 0.04514471 -0.29946733 -0.08537561 0.15538359 -0.02638541 -0.1882836 -0.2602985 -0.20016633
只能 0.3439533 -0.26092952 0.1691067 0.2068206 0.047894306 -0.1716963 0.17596042 -0.11922356 -0.2767826 -0.115564466 0.020680241 -0.2666233 -0.11452223 -0.09141351 -0.060554117 0.24220483 -0.24717347 -0.10857168 0.097960226 0.33475426 0.37810352 0.19531877 0.21166085 -0.36841163 -0.2390742 0.2568456 -0.26943004 0.22946407 0.035431013 -0.099532716 0.116938844 -0.036422897 -0.047243822 -0.09041293 -0.19648616 -0.1310624 -0.001958872 -0.08741089 0.06250924 0.090162106 -0.0793461 -0.09166511 -0.35742146 -0.20005614 0.21606134 -0.2365488 0.0143626565 -0.13600913 0.024170598 0.2514632 -0.013671956 -0.1411592 0.116581865 0.3114605 -0.07604575 -0.14931685 0.017251244 -0.32165658 -0.28461322 0.020767096 -0.15789016 -0.10444293 0.15064317 -0.053224314
豪华 0.44229707 -0.55570775 0.5045857 0.4680123 -0.086858496 -0.10252974 0.24066812 -0.10545515 -0.047066007 0.34899276 -0.3488087 -0.5974594 0.015302385 -0.2971195 0.04029461 0.57423836 -0.14394273 0.018191013 0.1695059 0.33705625 0.90591365 0.40588653 0.8012811 -0.28251326 0.31555223 0.6155246 0.13327843 -0.14230858 0.3193064 -0.3217071 0.3058824 0.1176736 -0.24602778 -0.06326607 -0.6494174 0.22594546 0.4313216 -0.10184664 0.0700622 0.08145282 0.1610751 0.267388 -0.37163788 -0.5304361 -0.23349808 -0.112672955 0.01597949 -0.35379815 -0.061622553 0.20937872 0.27586257 -0.041351255 -0.19858727 0.38386923 -0.50375676 -0.39988172 0.21729173 -0.13257658 -0.16771108 -0.06269562 -0.12348032 -0.2683416 0.23316842 0.34258842
四星 0.42507857 -0.27431357 0.29523334 0.06155135 -0.24257024 -0.23089787 0.18971728 -0.17830148 -0.41936612 0.09362112 0.25509414 -0.39927003 0.040004402 0.013352659 0.018648518 0.27580723 0.08228083 -0.013595923 -0.045483373 0.48090047 0.3187122 0.555564 0.70017326 -0.5285714 0.31759822 0.5118149 -0.20932408 -0.0019750544 0.16011573 -0.49902642 -0.027548552 -0.06992588 -0.36436224 -0.018679664 -0.24587914 0.032226875 0.018842964 -0.13369708 -0.18327218 -0.01950519 0.038018007 0.042285662 -0.23037581 -0.29793984 0.13051087 -0.11019259 -0.2941706 0.06866334 0.10905225 0.57915163 -0.28030106 -0.104350455 -0.121105336 0.48311985 -0.014330595 0.09592094 0.24244623 -0.32255918 -0.08065752 0.10521903 -0.14449656 -0.24544261 0.051432107 0.049199454
再次 -0.010366261 -0.32005507 0.3572797 0.8239891 -0.72769547 -0.41156802 0.64738333 -0.003719926 -0.59714633 0.115371056 0.3202671 -0.07021148 -0.07777972 -0.44837388 -0.08608487 -0.21600632 -0.64085835 -0.21013354 0.013651313 0.1749447 0.527337 0.21378613 -0.09183529 -0.652136 0.31544006 -0.043369073 -0.46971747 -0.37274212 0.3142542 -0.100487985 -0.20185485 0.5330661 0.31513506 -0.07486812 0.08200109 0.19702646 0.2828453 -0.18678539 -0.4172007 0.006766348 0.24282467 0.6541545 0.29451847 -0.022582304 0.5892607 0.067602165 0.4431887 -0.3765686 0.3380805 0.24720809 0.3291248 0.53934497 0.16651389 0.049744498 0.38765928 0.120001405 -0.112028025 0.20508716 0.24352148 0.2490802 -0.27934715 -0.09541725 0.33021083 0.12988251
东西 0.115859106 -0.2810424 0.13361348 0.26378867 0.17186874 -0.24242438 0.2971139 -0.05676995 -0.45110276 -0.41531578 0.32258523 -0.2338 -0.18290459 0.15004656 -0.1980234 0.13336225 -0.33550674 0.009942091 0.09384836 0.44691858 0.22019282 0.3126523 0.029148765 -0.31080332 -0.43718365 0.12355583 -0.53552336 0.20166641 -0.056081425 -0.17659134 0.058447838 0.090118565 0.059600547 -0.121246986 -0.15199949 -0.222637 0.09242215 0.18826477 0.19620037 0.18007447 -0.23658784 -0.3576943 -0.36507192 -0.1384479 0.35923722 -0.21184355 -0.11431692 -0.0748855 0.17574213 0.43831733 -0.17864512 -0.15685922 0.20928593 0.4040099 0.04098682 0.03981019 -0.04882856 -0.37364125 -0.33458185 0.05252724 0.060145225 -0.009312516 0.0107462285 -0.18952844
需要 0.08282058 -0.2359274 0.18524532 0.41766533 -0.079918094 -0.10774379 0.32016078 -0.09544415 -0.3351202 0.046368062 0.10154819 -0.092102714 -0.25932592 -0.28082103 -0.106601045 0.08265966 -0.28353062 -0.07961055 0.08832086 0.26328778 0.4105786 0.20288393 0.018615454 -0.35540402 -0.15951759 0.12505071 -0.40948096 0.06022967 0.10596998 -0.17235692 -0.033716287 0.21888438 0.09509756 -0.034573015 -0.09870445 -0.002199918 0.06852899 -0.057421137 -0.0026675556 0.027098378 0.02057085 0.09576325 -0.16271023 -0.07613312 0.3226166 -0.18799376 0.24211268 -0.19902273 -0.0073928544 0.1959198 0.18381749 0.018529056 0.20650098 0.20527554 0.15332429 0.07648006 -0.10074984 -0.19586495 -0.13301824 0.043950826 -0.033715222 -0.13059658 0.20542425 -0.07884757
上网 0.45104435 -0.37665468 0.25540075 0.63498497 -0.029587384 0.07146482 0.24427705 0.072385706 -0.17401284 0.2778914 -0.34780616 -0.39634657 -0.31706667 -0.24566187 -0.0006255807 0.3176859 -0.110449776 0.07500894 0.25139937 0.33990693 0.4678598 0.25827006 0.29136285 -0.34097832 -0.13384736 0.265378 -0.13356428 0.16623718 0.23659606 -0.3550996 0.2769215 0.0037305811 -0.20737848 0.12693432 -0.5094025 0.13171168 0.14856443 -0.09224833 0.39594877 0.05872006 0.06664364 0.06841292 -0.30643895 -0.36691353 0.14133772 -0.33401835 0.1327352 -0.008022647 -0.27881598 0.27263346 0.2944863 -0.26072192 0.17946759 0.25238967 -0.15386228 0.09915346 0.0055703893 -0.22591631 -0.16430323 -0.019167185 -0.08065133 0.06300985 0.20485573 0.3127556
更 0.24104154 -0.27466282 0.18707918 0.34457675 -0.2558669 -0.2882948 0.2862076 -0.08044382 -0.35794055 0.11409087 0.14651354 -0.17291465 -0.07487527 -0.19160238 0.05622757 0.100432955 -0.25782514 -0.18189526 -0.011092274 0.32421917 0.34187397 0.21595398 0.19819361 -0.44511777 0.0873705 0.17739713 -0.28639987 -0.100326926 0.14834563 -0.14434627 -0.031460255 0.12198364 -0.03971984 -0.00779244 -0.15806644 0.019862892 0.07973843 -0.08894205 -0.077411294 0.08250607 0.074923806 0.25335082 -0.115698025 -0.09311737 0.23878926 -0.14432734 0.102341175 -0.14375967 0.12935176 0.24789004 0.04176807 0.0354284 0.13078406 0.16980289 0.16041602 0.059243217 0.032942437 -0.14639336 -0.022198517 0.12595704 -0.17586009 -0.1308703 0.1080302 -0.01048801
饭店 0.14735496 -0.24454784 0.18044949 0.23405857 -0.2112345 -0.2568643 0.3362763 -0.10824213 -0.467073 -0.03900657 0.42802042 -0.22112602 -0.04505164 0.010578807 -0.058965188 0.22902931 -0.12018672 -0.013852112 -0.22652069 0.45757264 0.24480596 0.38492507 0.2305192 -0.4249329 0.12017839 0.3473836 -0.41472548 -0.12705667 0.11061534 -0.37754962 -0.23052205 0.10661913 -0.1375986 -0.20008057 -0.10862631 0.029820098 0.08941775 0.05126892 -0.08855284 0.015840396 -0.1052513 0.07208152 -0.045218494 -0.1858287 0.31517795 -0.07204818 -0.1574051 -0.09281995 0.19594418 0.39628783 -0.25827685 -0.007638566 0.15870401 0.28204915 0.18954985 0.20937492 0.11339753 -0.20717153 0.005209294 0.20570898 -0.10519364 -0.08802335 -0.073552124 -0.0036954214
味道 0.468536 -0.27864146 0.16604193 0.05031973 0.18039678 -0.23778415 0.1793078 0.06173647 -0.3372949 -0.0030301895 0.11954435 -0.47037935 -0.022778634 0.04689408 0.08642396 0.33117187 -0.24785346 -0.26841193 0.016206345 0.5126403 0.27179608 0.2542318 0.27175072 -0.3938039 -0.23026896 0.38105014 -0.2353726 0.061731678 0.012588007 -0.22705519 0.070931725 -0.09085089 -0.30647603 0.05096409 -0.36679205 0.011026739 -0.04356075 -0.07968652 0.18021205 0.25401723 -0.1353611 -0.06160796 -0.53612125 -0.23074612 0.087367795 -0.21750373 -0.25595444 -0.025660189 0.007250019 0.30637854 -0.16539316 -0.2057816 0.19310154 0.2892232 -0.04998682 -0.036353342 0.103066 -0.42650098 -0.35200113 -0.02721182 -0.19341391 -0.016737588 -0.13243303 -0.07275228
里面 0.41942772 -0.3377194 0.21395975 -0.022974001 0.117695235 -0.22014536 0.1530647 -0.073000744 -0.2853423 -0.0131927235 0.10301817 -0.38531005 -0.098997615 -0.002549974 0.017649878 0.36468026 -0.20306168 -0.24894217 -0.073316224 0.47075236 0.27718833 0.29839766 0.3086901 -0.44099262 -0.21321702 0.49824426 -0.23799692 0.17009178 0.064080924 -0.157871 0.03187169 -0.10889737 -0.29544032 -0.048793674 -0.34245595 0.008277439 -0.103312574 -0.024707934 0.14000572 0.11698906 -0.14048174 -0.101512365 -0.42991784 -0.16138513 0.06464466 -0.13110541 -0.19597833 -0.14919798 -0.0033853895 0.24516898 -0.14722075 -0.2697767 0.121241026 0.33187824 -0.06848022 -0.1424045 0.1476211 -0.48239285 -0.34858748 -0.040761665 -0.20198785 -0.09811834 -0.13528064 -0.11454546
最后 0.15674685 -0.30406433 0.19141592 0.42796472 -0.121261984 -0.22389238 0.3288155 -0.22846246 -0.31828395 -0.14712803 0.033547275 -0.11922836 -0.21932168 -0.32750538 -0.062480535 0.0656207 -0.38272518 -0.06345871 0.31589645 0.22618234 0.43501994 0.16198467 0.09404892 -0.30899304 -0.14870933 -0.008734412 -0.31128603 0.19130996 0.13426965 -0.024456363 0.15107913 0.10462532 0.1993915 -0.055783585 -0.036001198 -0.20120336 0.11997347 -0.07997646 -0.04018143 0.12540263 0.07097508 -0.0021874513 -0.1936362 -0.11621189 0.40892106 -0.26609188 0.42468604 -0.19378084 0.1368534 0.22317293 0.26597932 0.0730175 0.14384331 0.2855436 0.090073854 -0.12615524 -0.1481927 -0.08492017 -0.15047856 0.028552283 -0.13564302 -0.17676969 0.47285548 -0.1471281
小时 0.2543061 -0.23823212 0.22015537 0.43674484 0.10677206 -0.07213503 0.25431657 -0.1569895 -0.23247793 -0.10180717 -0.069933385 -0.14561641 -0.30172542 -0.3186976 -0.13939576 0.12423034 -0.3949491 -0.07937921 0.19914646 0.25507545 0.4611109 0.15215227 -0.077502504 -0.36505166 -0.49884185 0.09703264 -0.32191724 0.3636883 0.11836267 -0.08846113 0.047426805 0.113077715 0.12959468 0.012632315 -0.058076374 -0.12806252 -0.04281976 -0.11429589 0.0051270328 0.1247484 -0.04003896 -0.08046593 -0.26756737 -0.027002184 0.33837962 -0.3086215 0.3217178 -0.18917164 -0.11611308 0.13178124 0.28167412 -0.085419476 0.20753676 0.27986968 -0.0006551831 -0.09257343 -0.094390914 -0.37918 -0.34364945 0.012800694 -0.094501756 -0.030365186 0.33312804 -0.13024858
早上 0.22998315 -0.33795714 0.21196698 0.30094048 0.18692678 -0.07980497 0.25718337 -0.04665354 -0.33691567 -0.28995088 0.21698241 -0.088196404 -0.2534707 -0.3011815 0.022527572 0.20635055 -0.41398945 -0.20728666 0.16903523 0.18818514 0.2238404 0.21546564 -0.20641135 -0.38104823 -0.47216457 0.097473204 -0.54573077 0.511401 0.1507352 0.13977994 -0.034579404 0.15315853 0.01827078 0.03093805 -0.14625446 -0.13454875 -0.060740147 0.21742184 0.18953192 0.059671674 -0.10491401 -0.13640185 -0.19741303 -0.15116733 0.2911213 -0.1424642 0.0784383 -0.28709057 0.022946404 0.19080046 0.121871576 -0.19529518 0.24425769 0.22502245 0.14425975 -0.18087538 0.014622202 -0.505636 -0.34073552 -0.097778894 -0.056482583 -0.08256192 0.037432425 -0.30778944
中 0.23535602 -0.18702056 0.15811852 0.21013325 -0.25474253 -0.244614 0.2641354 -0.13611656 -0.4168728 0.032533713 0.2704299 -0.16403535 -0.09487539 -0.15317668 -0.02367171 0.18541192 -0.12731631 -0.065011755 -0.07769647 0.3473843 0.29864526 0.34309787 0.3016489 -0.46794522 0.17271708 0.29618552 -0.3380409 -0.084873796 0.13471654 -0.24874927 -0.1035395 0.08922712 -0.098172374 -0.09206189 -0.17214444 0.059920006 0.038348895 -0.06310561 -0.1878911 0.034810293 -0.0060368967 0.20398827 -0.094482295 -0.1586774 0.28050014 -0.12208775 -0.0950995 -0.13860409 0.19669978 0.28651324 -0.13408303 0.058253292 0.09126827 0.24269783 0.1544972 0.103969984 0.06723987 -0.16392244 0.008233308 0.14109471 -0.15117522 -0.16455165 0.055265434 -0.029101359
床 0.5585787 -0.45111164 0.39833385 0.06936674 0.14424202 -0.20868933 0.1883363 -0.0015395754 -0.120319165 0.09048556 -0.046631675 -0.5715701 0.07990761 -0.012452886 0.1704774 0.6170638 -0.26274884 -0.29075602 -0.016152224 0.41693208 0.48986775 0.31329447 0.40121764 -0.42107663 -0.150473 0.6282979 -0.12268704 -0.028783254 0.16646886 -0.20053753 0.04115391 -0.12852 -0.36356363 -0.0113298595 -0.4795727 0.17609304 0.06647635 -0.03731235 0.16248292 0.07984985 -0.061921366 0.09917191 -0.43421277 -0.3333648 -0.1544365 -0.0013658984 -0.27115846 -0.3650599 -0.055238944 0.17813024 -0.026577605 -0.26013562 0.051959664 0.24988133 -0.26665372 -0.20261383 0.22660662 -0.40335557 -0.40638003 -0.09587835 -0.26048356 -0.12096562 -0.22426541 0.08039939
送 0.24030733 -0.26258492 0.14030981 0.37638918 0.09896809 -0.11181805 0.24471085 -0.06279166 -0.36625686 -0.13943096 0.13297236 -0.12413515 -0.29877448 -0.23452276 -0.060243543 0.16968109 -0.15644841 0.030733187 0.3025748 0.29650155 0.20394935 0.27415696 0.07150739 -0.32300866 -0.19782723 0.09165568 -0.52499163 0.26678088 0.042212125 -0.057316065 0.17157061 0.15643863 -0.037192337 0.0116758635 -0.19957334 -0.10420417 0.11871259 0.038700495 0.20133096 0.19815 -0.0031016206 -0.107239015 -0.21523294 -0.2181787 0.32751054 -0.34378684 0.0038805355 -0.065793104 0.019545494 0.26322055 0.08397912 -0.056575984 0.26920334 0.33750907 0.13152418 0.09915073 -0.08047132 -0.3305067 -0.21245067 0.06035543 0.042634215 -0.031343997 0.15075226 -0.04944893
硬件 0.36721307 -0.2887261 0.33243012 0.04466009 -0.2362091 -0.3314683 0.30303082 -0.04558565 -0.39073983 0.23545061 0.33158976 -0.3574617 0.086584166 -0.042969063 0.17823434 0.31109825 0.058839746 -0.2925515 -0.15196483 0.5270052 0.22772771 0.57777154 0.6332218 -0.48503625 0.3914139 0.51916385 -0.30137318 -0.18088873 0.20827241 -0.3133566 -0.18509863 0.08631714 -0.41620994 -0.10172436 -0.37205958 0.18656103 0.12724434 -0.045718614 0.0034791247 -0.02229049 0.015486488 0.24456088 -0.041197862 -0.2946037 0.117387645 0.064150825 -0.27520123 -0.037840568 0.17974931 0.4898001 -0.33795482 -0.060357675 0.06708646 0.3402779 0.15259022 0.20489702 0.2053812 -0.30225238 0.054665238 0.05763718 -0.13876387 -0.2457828 -0.16214395 -0.01871007
很差 0.32833487 -0.26900095 0.31191298 0.18943122 0.12734477 -0.30461589 0.32085252 0.026543668 -0.26166394 0.039222445 0.35258594 -0.2710437 0.0062673306 -0.1961404 0.32796967 0.32813394 0.040073328 -0.24828388 0.12698242 0.43638784 0.026679274 0.517611 0.42209888 -0.41830963 0.16010721 0.38198966 -0.45741478 0.09701171 0.16047835 -0.09214746 -0.07855958 0.15755022 -0.329676 -0.028998353 -0.41617414 0.02886498 0.18795736 0.16452885 0.36282578 0.058627278 -0.023600692 0.043022837 -0.10243123 -0.37801656 0.19936474 -0.028377874 -0.26707268 -0.05971002 0.08099108 0.47750655 -0.2740914 -0.18652225 0.20093024 0.30249926 0.24862298 0.14559548 0.107120626 -0.43187076 -0.09559116 -0.10088159 0.04260083 -0.18275067 -0.17475621 -0.22984728
