4007 64
酒店 0.69347394 -0.81889105 0.65798944 0.87888503 -0.373478 -0.57857597 0.7537413 -0.1886397 -1.1768779 -0.29491535 0.5829637 -0.5152488 -0.1729104 -0.7471367 0.23928991 0.77109766 -0.6875542 -0.21110225 -0.057963412 1.111352 0.91324306 0.892966 0.2904305 -1.3480692 -0.05800441 0.80118537 -1.0544534 0.18408553 0.2553328 -0.22604367 0.18348883 0.49868006 -0.33033475 -0.19644436 -0.20524585 0.1413446 0.44220138 -0.07253337 0.0034526372 0.10502964 0.023911111 0.61888456 -0.33441526 -0.3929891 0.7995263 -0.28664553 0.08995228 -0.34744287 0.44002 1.0306164 0.08746061 0.15498783 0.1928508 0.75087315 0.30643636 0.24767886 0.26597568 -0.5399546 -0.2540272 0.40595728 -0.47067377 -0.6215227 0.1577953 -0.049269814
房间 0.98591626 -0.66493464 0.5318499 0.3958099 0.12617095 -0.556961 0.36075142 -0.3548525 -1.0165329 -0.38758463 0.18280421 -0.6018476 -0.42293918 -0.4237938 0.29208928 1.0274523 -0.7610717 -0.40239185 0.035513565 1.0566323 0.704749 0.85274565 0.39310998 -1.4621177 -0.6554431 1.1669729 -0.8024985 0.8223142 0.30318567 -0.27318037 0.35515133 -0.04194952 -0.5728384 -0.049776427 -0.41803262 -0.005168393 -0.110789865 -0.20040129 0.18821731 0.3958873 -0.13739675 0.3499075 -0.9413377 -0.36319637 0.50098073 -0.6596643 -0.00021919777 -0.28671998 -0.10916073 0.8068197 -0.05960836 -0.3038372 0.24673277 0.8557435 -0.11216019 -0.0456003 0.21973532 -1.2431633 -0.8438523 0.11403992 -0.54011834 -0.42380562 -0.027379781 -0.13473363
没有 0.8792084 -0.76124364 0.6186251 0.6432645 -0.020691697 -0.62184227 0.53383 -0.3442682 -1.0551577 -0.35324666 0.2678535 -0.5536533 -0.34376702 -0.6661712 0.2235882 0.8897092 -0.870531 -0.3138233 0.1535205 1.0501314 0.8549563 0.9025793 0.24689554 -1.4760853 -0.4856794 0.98874 -0.9962393 0.66445166 0.32406345 -0.18298882 0.37370273 0.2260601 -0.4222923 -0.016521478 -0.3163049 -0.006878048 0.09094891 -0.16780122 0.15391333 0.29399595 -0.04777658 0.43018168 -0.72003484 -0.39254087 0.7324803 -0.5914696 0.17133555 -0.36059555 0.09106752 0.91130054 0.105584905 -0.1738008 0.23913006 0.7929662 0.08388841 0.01227668 0.21510595 -0.9983005 -0.66245806 0.2118925 -0.5077341 -0.5100015 0.13031961 -0.14277565
住 0.7761747 -0.87673414 0.618476 0.8176419 -0.2612828 -0.60011744 0.673954 -0.22578895 -1.1798768 -0.3053084 0.4800517 -0.60362214 -0.15232405 -0.6674559 0.22789815 0.848682 -0.80556875 -0.23842834 -0.06244414 1.1726384 0.97847164 0.89600104 0.36631212 -1.3834919 -0.1372444 0.91791546 -1.014031 0.25324276 0.26816124 -0.29819834 0.2496515 0.37562504 -0.31213018 -0.16575782 -0.25806808 0.12098695 0.34840408 -0.09003047 0.054513954 0.18682258 -0.017005442 0.5882252 -0.48769715 -0.39860877 0.7515555 -0.34162977 0.14889193 -0.3571764 0.3690504 1.0193243 0.08163475 0.10888316 0.23743501 0.8123014 0.1723145 0.17538348 0.23310947 -0.62520456 -0.36130735 0.38735694 -0.52427185 -0.6281477 0.16871846 -0.08035794
服务 0.7954516 -0.7457077 0.56597066 0.6049941 -0.11654285 -0.6040072 0.6036633 -0.26915312 -1.1430084 -0.2884808 0.4538195 -0.51017165 -0.32183033 -0.5661967 0.3113981 0.9451101 -0.6896494 -0.3297966 -0.043517143 1.1760391 0.8295186 0.88468474 0.3255688 -1.4043068 -0.3225878 0.9361427 -1.0139208 0.4824295 0.3039131 -0.2750059 0.21684565 0.22751704 -0.44688612 -0.117736846 -0.322592 0.090226166 0.1992563 -0.1252216 0.13789047 0.25727403 -0.010895807 0.51584226 -0.55168384 -0.40515426 0.6606337 -0.41319475 0.018851746 -0.31103313 0.19919862 0.90637815 -0.0073647983 -0.055013634 0.25155127 0.7899276 0.19771793 0.18440278 0.2450754 -0.9341949 -0.50840604 0.2651006 -0.47776133 -0.55771095 0.05435794 -0.08907779
不错 0.9302335 -0.6951511 0.54292804 0.48826116 -0.012411787 -0.55947316 0.43784603 -0.3203744 -1.1253366 -0.33239454 0.37316528 -0.5871416 -0.411997 -0.42124525 0.261494 1.0614727 -0.66910535 -0.38061416 -0.13316862 1.1730027 0.79029375 0.8669929 0.4860229 -1.4464986 -0.4741325 1.1432292 -0.86065876 0.6092046 0.27170473 -0.33620954 0.24114421 0.051878627 -0.5324871 -0.15328771 -0.42206606 0.008578257 0.07744653 -0.1204263 0.16382751 0.2988655 -0.12688184 0.43765813 -0.80702764 -0.4027839 0.5515873 -0.5750753 -0.07890734 -0.25362617 0.029596666 0.8423874 -0.13106157 -0.20704709 0.22362575 0.9235379 0.00055355346 0.08965904 0.22503616 -1.1238515 -0.7539463 0.22633366 -0.534484 -0.47103772 0.0137947565 -0.1501621
入住 0.47642407 -0.88466674 0.7710535 1.1090814 -0.54907036 -0.5566645 0.94795275 -0.03101689 -1.1254215 -0.2464528 0.7117266 -0.48516008 0.048951402 -0.9937404 0.27523166 0.59839535 -0.6732103 -0.10648833 0.004119351 1.0989428 0.97898734 0.87919176 0.13816662 -1.1839166 0.20335473 0.5189173 -1.1458893 -0.21113883 0.24333602 -0.09432554 0.12231702 0.80268294 -0.27256086 -0.20162699 -0.099898376 0.27436793 0.7228333 0.007554141 -0.0063939006 0.0040526814 0.18056394 0.77838737 0.071985625 -0.35624266 0.9302126 -0.008040234 0.2467914 -0.46693343 0.6896991 1.06844 0.34763643 0.4010197 0.19027965 0.61705226 0.49874175 0.38076732 0.24872026 -0.03938749 0.07954222 0.52340686 -0.38619557 -0.7123643 0.2571037 0.08044737
说 0.8746151 -0.8026775 0.6259141 0.7114467 -0.021258986 -0.64258647 0.55008745 -0.40045077 -1.0804412 -0.39607778 0.2059391 -0.5664214 -0.36628938 -0.7496501 0.25259194 0.86729574 -0.9127892 -0.31090146 0.23178825 1.0655637 0.8647224 0.9346845 0.1871387 -1.4718881 -0.450854 0.96755993 -1.0602534 0.7125481 0.3118914 -0.12757549 0.41499504 0.23793578 -0.40345794 -0.008074731 -0.26598915 -0.016011273 0.060626272 -0.2107169 0.1580255 0.3056801 -0.05640833 0.40802392 -0.674219 -0.39871293 0.7694177 -0.6447158 0.24936602 -0.3748146 0.14288728 0.93584496 0.15771899 -0.16019422 0.25067872 0.7734679 0.110991724 0.0010887611 0.19425899 -1.0068965 -0.6215736 0.22914685 -0.5220713 -0.5560814 0.1805551 -0.16840865
比较 0.94747525 -0.70196784 0.50285256 0.40474847 0.060155414 -0.5846131 0.41579235 -0.34376818 -1.1304003 -0.35946932 0.35651478 -0.5742137 -0.43365678 -0.3849245 0.2751548 1.041446 -0.72804594 -0.37360635 -0.089991234 1.1257033 0.7616353 0.8587393 0.4185782 -1.4346504 -0.58547074 1.1732191 -0.88871557 0.691314 0.29724067 -0.34471452 0.2341889 0.010030512 -0.543093 -0.12921573 -0.41107655 0.014135961 0.006992885 -0.16403297 0.17440027 0.33737022 -0.12822276 0.4195318 -0.8975785 -0.4019833 0.5619084 -0.61543053 -0.09642445 -0.28361997 -0.01687972 0.84899837 -0.11462866 -0.2711465 0.25363705 0.92387545 -0.025985342 0.06945087 0.20497951 -1.2147897 -0.83006275 0.219894 -0.53112155 -0.44640926 -0.01847826 -0.13676873
前台 0.81818515 -0.74577713 0.62083876 0.6933155 0.0055141533 -0.6389963 0.54846466 -0.3823989 -1.0464811 -0.36467984 0.2029263 -0.5142972 -0.3953602 -0.7320942 0.27938855 0.873821 -0.8826646 -0.3496599 0.2280279 1.0661397 0.8237093 0.8874381 0.22673686 -1.4810693 -0.4243372 0.945793 -1.0354284 0.7043831 0.30267152 -0.11375187 0.38492042 0.26302993 -0.42743003 0.0027925458 -0.26102844 -0.0031133553 0.07042235 -0.15441321 0.1434741 0.29164994 -0.010583135 0.44474247 -0.677191 -0.3959801 0.7398812 -0.6093606 0.2378558 -0.33490366 0.095732085 0.90695083 0.13582198 -0.16371621 0.26886654 0.7428897 0.1353245 0.067748755 0.19428553 -1.013879 -0.62066066 0.18411183 -0.5119434 -0.5541923 0.13769007 -0.18816127
感觉 0.84670436 -0.78370595 0.6165459 0.6393168 -0.12755798 -0.5549616 0.56341815 -0.28827786 -1.1431681 -0.3370106 0.42430243 -0.588231 -0.3109008 -0.584582 0.250576 0.90943325 -0.7421019 -0.32336152 -0.052195862 1.120899 0.84979355 0.87672806 0.341491 -1.4144603 -0.33857605 0.9864327 -0.9934497 0.4067157 0.27354646 -0.27969584 0.2439995 0.26996487 -0.45612267 -0.12312672 -0.29551724 0.06171006 0.22865695 -0.10051831 0.09543283 0.25798163 -0.027499827 0.5078939 -0.6083698 -0.38047078 0.69031405 -0.45477816 0.06978065 -0.34752205 0.18777493 0.9434497 0.01594227 -0.04597919 0.22924381 0.82435477 0.12986699 0.14272857 0.26483142 -0.8608229 -0.55274826 0.32428893 -0.5061143 -0.55812526 0.098250136 -0.07608167
早餐 0.8627986 -0.783322 0.5843075 0.62190676 -0.037300393 -0.63226354 0.5438777 -0.32829037 -1.117679 -0.3852428 0.3574354 -0.5573555 -0.35399833 -0.5736212 0.23023784 0.9298212 -0.8080237 -0.3194 0.050798688 1.1119448 0.8173215 0.9213774 0.2676717 -1.4366306 -0.5117057 1.0341638 -1.0374249 0.61131716 0.28316772 -0.25500545 0.31904155 0.2000883 -0.44810826 -0.075581916 -0.36478895 0.013809813 0.15810639 -0.14103681 0.17362306 0.32143235 -0.06908636 0.42214218 -0.72120804 -0.39101845 0.7348695 -0.5522653 0.03144936 -0.31633988 0.13676909 0.92492914 -0.013655782 -0.13843128 0.23588924 0.8382096 0.0876755 0.11601011 0.23617165 -1.0307704 -0.6931643 0.27356428 -0.49532187 -0.4640068 0.05305433 -0.08810732
一个 0.872243 -0.8393695 0.6384682 0.7137139 -0.061397 -0.64644724 0.59778076 -0.31470314 -1.1146876 -0.37831837 0.35285684 -0.6126279 -0.32943115 -0.6715079 0.23234706 0.89217633 -0.9064107 -0.34677184 0.11635093 1.1703132 0.9375211 0.93368894 0.25709906 -1.4902047 -0.4589672 0.9905048 -1.0607959 0.55236775 0.30830806 -0.23120914 0.36785653 0.28638828 -0.39291272 -0.04185727 -0.3031166 0.03981438 0.18295752 -0.15259078 0.15700628 0.29541796 -0.057402633 0.48009413 -0.66321576 -0.40974766 0.7859766 -0.56950593 0.21680066 -0.34644464 0.15922773 0.99234974 0.09699303 -0.10677243 0.2832319 0.8319757 0.12372634 0.07618676 0.21649884 -0.9121714 -0.62144434 0.24607682 -0.53048307 -0.5529292 0.15685816 -0.15195274
携程 0.65716374 -0.84034306 0.7037414 1.0054449 -0.4073632 -0.55065715 0.85350484 -0.20765743 -1.1623552 -0.252963 0.5053254 -0.5258615 -0.11310787 -0.9081259 0.26502827 0.74422795 -0.7645017 -0.18201037 0.07836487 1.1251355 0.9754654 0.87434685 0.19465663 -1.3302855 -0.002014505 0.69532275 -1.1231102 0.090644255 0.25940427 -0.17426886 0.2884879 0.6145425 -0.32329154 -0.14200388 -0.17917581 0.1864084 0.47435373 -0.084133446 -0.022827126 0.1206068 0.122522324 0.67913735 -0.23771666 -0.40656072 0.8721255 -0.29535243 0.2192055 -0.42351446 0.49658808 1.0418084 0.28229925 0.22620559 0.24130152 0.6935873 0.3423656 0.2251155 0.25017726 -0.37780672 -0.17153688 0.4412157 -0.4448274 -0.6696529 0.29789147 0.043077253
非常 0.8014543 -0.7862186 0.6460275 0.6763681 -0.17848575 -0.60581553 0.6389647 -0.21183324 -1.1655983 -0.33748832 0.5145218 -0.5436884 -0.268708 -0.6349604 0.32005873 0.92504394 -0.7243552 -0.3222829 -0.06677844 1.2189566 0.8596709 0.90252626 0.31994054 -1.4504164 -0.30718654 0.9593378 -1.0584887 0.37009484 0.30233735 -0.25448644 0.18281901 0.36400318 -0.47694847 -0.1841968 -0.28420773 0.13641699 0.300503 -0.055893198 0.09692455 0.22301777 -0.0031618956 0.58659226 -0.5177339 -0.39666295 0.7563069 -0.34899315 0.016270215 -0.3570514 0.25077602 0.99650574 0.01316067 0.0069714664 0.25628105 0.85239196 0.2146724 0.24160647 0.24096493 -0.780809 -0.48624587 0.3091411 -0.52512676 -0.5795462 0.07250304 -0.07649743
服务员 0.8852156 -0.7555617 0.6176237 0.6380229 0.025371408 -0.6599676 0.5042367 -0.41389763 -1.0732802 -0.3989274 0.24712794 -0.5475905 -0.44199538 -0.693622 0.25306064 0.8926655 -0.8901505 -0.37010086 0.19878271 1.0817366 0.8361098 0.9247765 0.21729836 -1.5059212 -0.5358812 1.007536 -1.0877469 0.7535634 0.32233462 -0.13230748 0.35383713 0.22072765 -0.43015546 0.02197192 -0.27920258 -0.04287833 0.008607281 -0.17183368 0.19661362 0.33508575 -0.052392177 0.39503545 -0.73125094 -0.40967053 0.7168004 -0.6769409 0.16856161 -0.33292812 0.053766042 0.89984286 0.11542005 -0.22343518 0.29624245 0.79198617 0.093584284 0.03661356 0.20398477 -1.118375 -0.7032607 0.17662545 -0.53014576 -0.50639445 0.13167414 -0.206957
宾馆 0.51709247 -1.0915217 0.9360916 1.3515711 -0.703675 -0.6352452 1.271944 0.021224527 -1.3801254 -0.28048512 1.0292774 -0.55495715 0.11152333 -1.1760492 0.35794148 0.73862946 -0.75481117 -0.12589242 -0.028498922 1.4206382 1.1393031 1.0429345 0.06768235 -1.4450269 0.21272938 0.52364135 -1.4979863 -0.42908955 0.28838083 -0.15345359 0.11535324 1.0758963 -0.33872148 -0.3443769 -0.07455464 0.41776416 0.9673208 0.08327276 -0.018510077 -0.047396608 0.23417632 0.9703588 0.18044397 -0.4906864 1.2743653 0.07949861 0.23804514 -0.5647707 0.87600905 1.4243131 0.41531244 0.5979809 0.2681719 0.7424657 0.6756168 0.5890235 0.29968652 0.13391826 0.17211267 0.6959283 -0.51909083 -0.81862825 0.2441046 0.17057066
设施 0.9891748 -0.66737473 0.5622464 0.37239516 0.0646688 -0.5555759 0.36965284 -0.31905898 -1.0554693 -0.35396677 0.30962926 -0.63098335 -0.3657412 -0.330177 0.31498522 1.0929142 -0.68887144 -0.43725234 -0.09788163 1.1663496 0.73081124 0.85594803 0.47216034 -1.4695048 -0.56814146 1.1510584 -0.81688213 0.67414033 0.2622642 -0.35200876 0.23134321 -0.032121863 -0.61066324 -0.13787454 -0.41926256 -0.006899974 -0.039009366 -0.20223996 0.14082122 0.36727136 -0.13077794 0.42976874 -0.90357244 -0.41766742 0.512326 -0.56435776 -0.0859076 -0.25740752 -0.032520343 0.8534804 -0.16657056 -0.26391336 0.1892903 0.900905 -0.055293642 0.07702427 0.23717621 -1.2001759 -0.80340916 0.21076985 -0.57366866 -0.43710756 -0.03403174 -0.13955954
方便 0.9533353 -0.76071846 0.5045439 0.6256331 -0.041791104 -0.5966314 0.55909264 -0.35867295 -1.1768271 -0.37188223 0.46245605 -0.58836675 -0.40759087 -0.48744342 0.26949644 1.0485351 -0.84926987 -0.31833544 -0.07754791 1.2210455 0.89396787 0.9452269 0.33555254 -1.4494082 -0.5564265 1.1387805 -1.0591111 0.55447155 0.28209838 -0.2767196 0.20692973 0.1758821 -0.42481133 -0.14346552 -0.36867946 0.007733133 0.1916593 -0.07688612 0.15436167 0.29019475 -0.13237758 0.47118348 -0.70765644 -0.45395985 0.65755284 -0.5712506 -0.014415367 -0.33181033 0.09045053 0.92893595 0.018667674 -0.19843546 0.314608 0.9520019 0.09414498 0.15650468 0.25616258 -1.0516758 -0.7597506 0.25490746 -0.5750826 -0.5197649 0.05745624 -0.1887628
客人 0.7874003 -0.96577466 0.7862051 1.0362105 -0.3538415 -0.6740714 0.89401007 -0.21628633 -1.3065519 -0.335063 0.5859057 -0.58055973 -0.19723621 -0.9306976 0.2843168 0.85393023 -0.89538175 -0.26906833 0.05817681 1.2587682 1.0390745 1.0179981 0.18189713 -1.5702274 -0.18471533 0.8733331 -1.2971143 0.23514976 0.31451413 -0.19491239 0.29141438 0.61310214 -0.383213 -0.12252397 -0.20959526 0.15404159 0.46749192 -0.096704885 0.06075849 0.16077569 0.07117212 0.69452274 -0.33309475 -0.41685784 0.9743415 -0.3621453 0.2384905 -0.45819515 0.44316152 1.1774483 0.25069326 0.15240628 0.2631168 0.81536895 0.3715465 0.27725458 0.27690083 -0.5981657 -0.3198978 0.42636955 -0.5333183 -0.7087306 0.19895212 -0.049673367
月 0.032568492 -1.3896487 1.3514597 2.3319354 -1.4204506 -0.6671438 2.2436433 0.34799254 -1.7624096 -0.24681029 1.7665052 -0.51229596 0.57757217 -1.941779 0.5636808 0.551214 -0.57693964 0.1694578 0.010148329 1.8034177 1.3939949 1.3777773 -0.20850874 -1.4665182 0.97511905 -0.016856372 -2.1126935 -1.6079761 0.247111 -0.058513954 -0.18763092 2.107475 -0.37477797 -0.6525846 0.18510422 0.8566849 2.0687995 0.3931261 -0.15411311 -0.50478977 0.65609133 1.5701209 1.3433406 -0.53762317 1.9687234 0.9578652 0.27957863 -0.9821213 1.7214938 1.951912 0.88274205 1.3978522 0.36792842 0.69574827 1.4410517 1.1506257 0.2834785 1.4108831 1.0539663 1.1545874 -0.48773995 -1.2310072 0.43376496 0.63800114
价格 0.8193503 -0.7829226 0.558766 0.6363495 -0.11713168 -0.57347363 0.57181907 -0.2769639 -1.1456068 -0.29971236 0.37852263 -0.56319344 -0.27678987 -0.57664937 0.23408923 0.93971896 -0.7176074 -0.2565942 -0.02829554 1.150358 0.88084054 0.8579179 0.37832132 -1.3676893 -0.3230504 0.972918 -0.95540804 0.44562128 0.2617576 -0.2819485 0.3040345 0.25623086 -0.42060024 -0.10145651 -0.3202184 0.051741123 0.20440978 -0.17246757 0.121506624 0.26766533 -0.043716844 0.50835043 -0.6172004 -0.37435776 0.65170985 -0.5034919 0.06612173 -0.28578067 0.19513203 0.9243162 -0.012666355 -0.08089403 0.2565658 0.8157626 0.07070778 0.14497778 0.26002526 -0.86659104 -0.56092983 0.27990544 -0.4751515 -0.5349426 0.13191396 -0.062202808
日 0.25756145 -1.5787642 1.4616164 2.104197 -1.4191283 -0.7622017 2.0834768 0.48822105 -1.6403342 -0.31953645 1.7681961 -0.56757593 0.5769229 -1.7815696 0.52999115 0.5352699 -0.72542506 0.1449425 -0.062474906 1.6951799 1.5839902 1.2548486 -0.19795209 -1.4670389 1.0073965 -0.034484044 -2.0704248 -1.5449584 0.4279844 0.024999095 -0.11767268 2.0952249 -0.17290446 -0.5838096 0.15842247 0.8209396 1.9861088 0.4162933 -0.16556935 -0.44590512 0.6203959 1.5569631 1.2180763 -0.58014524 1.9258273 0.75103813 0.40507793 -0.96765304 1.7927136 1.9795456 0.7918731 1.3549029 0.18743515 0.7081528 1.3920029 1.2021521 0.43125886 1.3290739 1.0182157 1.1317272 -0.47991136 -1.1956719 0.34643844 0.42282647
差 0.7962492 -0.6169351 0.45140725 0.37854218 0.056662712 -0.49750072 0.38743445 -0.2346451 -0.94433117 -0.28214106 0.34093803 -0.50068605 -0.2821049 -0.32628962 0.3013429 0.89590406 -0.6014147 -0.38963777 -0.055379342 1.0433698 0.62849563 0.78508097 0.36902428 -1.2781754 -0.43909943 0.96887875 -0.78551155 0.60772043 0.19965701 -0.24570335 0.23640314 0.09009178 -0.47109413 -0.1305265 -0.35408762 0.029115677 0.055368967 -0.09694444 0.13324599 0.25223544 -0.12245837 0.4073818 -0.70436686 -0.35113937 0.5101228 -0.4156645 -0.035463285 -0.18366167 0.018125717 0.8027251 -0.1532676 -0.18819174 0.18929884 0.7353674 0.021861002 0.12685668 0.18526544 -0.9758386 -0.6427201 0.15019768 -0.46240285 -0.38877538 -0.05299079 -0.086717136
元 0.9025688 -0.8733906 0.6143157 0.7772036 -0.07479459 -0.64311874 0.6344934 -0.29993793 -1.1688826 -0.31683457 0.32403046 -0.6350617 -0.31421053 -0.7285273 0.22159754 0.9239342 -0.88700795 -0.28433967 0.09294688 1.1873646 0.9949071 0.93717855 0.29593956 -1.457908 -0.41572785 0.98738325 -1.0792724 0.5230196 0.3191338 -0.26908273 0.38347396 0.32569847 -0.37170413 -0.042486493 -0.34814528 0.053845357 0.23247936 -0.1937319 0.16223516 0.32346958 -0.03817524 0.50277805 -0.68986267 -0.42218322 0.74415267 -0.5856484 0.18171409 -0.3305911 0.17629795 1.0434651 0.106813565 -0.10027865 0.32140443 0.86547273 0.08503988 0.106337406 0.21929398 -0.9522208 -0.63955516 0.31435454 -0.50612366 -0.529336 0.19460848 -0.07778801
没 0.91320807 -0.8843828 0.68178236 0.7699063 -0.0790553 -0.6669612 0.64289606 -0.32829544 -1.1701219 -0.40418613 0.3505499 -0.61845374 -0.35444173 -0.7394758 0.2507011 0.94717234 -0.95248455 -0.32731164 0.13403444 1.1414962 0.9578473 0.9922539 0.22637223 -1.5469576 -0.45097974 1.0185589 -1.1092088 0.58002985 0.3165289 -0.1868887 0.37141934 0.3154975 -0.4110674 -0.0695893 -0.29154685 0.036257997 0.18613093 -0.16107042 0.12186744 0.2709842 -0.042407986 0.47175783 -0.6781955 -0.40320814 0.84360236 -0.5715583 0.17620765 -0.3993322 0.20989242 1.0322046 0.117193714 -0.11874754 0.27260184 0.83926034 0.14322144 0.08412415 0.21768011 -0.9705186 -0.6405089 0.28613967 -0.5379066 -0.5525599 0.161538 -0.12570736
晚上 0.8242833 -0.835248 0.6150676 0.80872244 -0.14017613 -0.61035407 0.69067764 -0.26056662 -1.1550032 -0.37099943 0.44765282 -0.59392184 -0.2509145 -0.7365192 0.2828989 0.867188 -0.8609436 -0.3209177 0.035554744 1.1179401 0.9002151 0.935157 0.20351262 -1.4686519 -0.38023472 0.91129434 -1.0749984 0.45879856 0.32535657 -0.18728182 0.28665045 0.38729596 -0.39645675 -0.10379151 -0.30531695 0.06836725 0.27221748 -0.092519 0.12661776 0.23661873 0.0028750128 0.50469005 -0.5294502 -0.39496517 0.7976431 -0.4699151 0.15019341 -0.39730254 0.27758536 0.9956566 0.1449677 -0.057711296 0.2763515 0.78985965 0.19653016 0.094951935 0.24641272 -0.7937887 -0.53451836 0.3004599 -0.52719057 -0.57363474 0.13524947 -0.13525364
年 0.26608473 -1.5325917 1.4317437 2.2052934 -1.4065694 -0.8004205 2.18819 0.43231297 -1.8507899 -0.27999914 1.8158493 -0.6130232 0.5842015 -1.9049186 0.5931234 0.6867086 -0.7589841 0.065956295 -0.06781825 1.8232348 1.5693243 1.3429899 -0.105067246 -1.5233219 0.9712809 0.07023622 -2.0669723 -1.4718088 0.36863232 -0.039118096 -0.074385494 2.071218 -0.34311974 -0.64665467 0.05074684 0.8107906 2.0249135 0.38271397 -0.13766067 -0.37262198 0.66007996 1.5091642 1.1328535 -0.6535687 1.9606128 0.8121587 0.4082702 -0.92901176 1.7989925 2.0545375 0.82944804 1.3720812 0.24434896 0.84866416 1.4012331 1.1601167 0.463527 1.2468319 0.98520935 1.1585455 -0.44704887 -1.2129674 0.43189818 0.4885063
房 0.9517853 -0.84672433 0.7330009 0.7329624 -0.0900333 -0.59442 0.6128725 -0.33638677 -1.0186042 -0.35626915 0.15337141 -0.67916965 -0.2404624 -0.75366986 0.3022515 1.0247825 -0.9290713 -0.32741085 0.09841273 1.1098819 1.0060469 0.95405865 0.39687216 -1.4539844 -0.3475245 1.055993 -0.8379762 0.53844565 0.36930853 -0.2807696 0.38137913 0.21135059 -0.3994923 -0.050744124 -0.43244618 0.12704927 0.22519761 -0.21804105 0.17941369 0.30683962 -0.025228526 0.567559 -0.76013523 -0.42753974 0.6518994 -0.5046147 0.25377893 -0.42589933 0.16633151 0.9312447 0.25395936 -0.027838416 0.22116116 0.7819619 -0.04786655 0.01817483 0.2993544 -0.88313055 -0.63157004 0.21607484 -0.5702769 -0.59457666 0.17529486 0.007153493
时 0.78640324 -0.8459271 0.7145616 0.86313224 -0.15575965 -0.6115524 0.7227946 -0.27734008 -1.1628693 -0.333089 0.3789471 -0.5354382 -0.30985856 -0.8279295 0.28258783 0.8206784 -0.86889935 -0.28230664 0.17417786 1.109059 0.93188125 0.96716964 0.15459003 -1.4959748 -0.3276052 0.8913517 -1.145787 0.50004846 0.34418824 -0.13179213 0.3404425 0.43929052 -0.39470032 -0.06780111 -0.21789943 0.059138276 0.26108006 -0.115299754 0.1131344 0.24518694 0.024251176 0.5346739 -0.5012359 -0.3839178 0.864984 -0.47747967 0.2604146 -0.4032566 0.2384326 1.0214578 0.22453874 -0.006580995 0.27085295 0.7378188 0.23360099 0.13523607 0.24231249 -0.7917033 -0.45802054 0.28514233 -0.4856663 -0.6299067 0.18244503 -0.14129148
环境 0.8481992 -0.7127332 0.53985184 0.5447849 -0.09459277 -0.5529025 0.51582813 -0.29543218 -1.1072388 -0.31468606 0.4108167 -0.5646295 -0.32030696 -0.49404913 0.25074273 0.9745466 -0.7117487 -0.3424839 -0.0910155 1.1331346 0.80193406 0.8776798 0.38927203 -1.3863602 -0.40220365 1.0223914 -0.9306553 0.4846913 0.2876915 -0.2826367 0.19704784 0.16820748 -0.4906443 -0.14929613 -0.33165994 0.069957726 0.16705732 -0.10744532 0.13593544 0.26126304 -0.07295198 0.46229824 -0.6575298 -0.3905143 0.62798005 -0.451725 -0.033695716 -0.30525056 0.11459999 0.88855493 -0.06450232 -0.11092005 0.23474754 0.8413999 0.07678472 0.13996176 0.24877495 -0.9441934 -0.6209339 0.24820502 -0.5193118 -0.51327485 0.0496338 -0.11097129
里 0.9814806 -0.7878348 0.6013824 0.5638309 0.011127954 -0.63936603 0.50019574 -0.33110088 -1.1338706 -0.3634722 0.2789622 -0.6308968 -0.39160466 -0.5416686 0.2877695 1.0162543 -0.85284364 -0.3791143 0.043712202 1.1569206 0.86927336 0.9397418 0.30921537 -1.5374861 -0.54015917 1.0833789 -0.98590374 0.6693149 0.3272697 -0.251645 0.3422592 0.13708872 -0.49384528 -0.049211048 -0.37653297 0.0056349705 0.055811103 -0.17726061 0.14055687 0.35983762 -0.09680177 0.43735856 -0.79811084 -0.40545723 0.67151535 -0.62687445 0.1036835 -0.36044014 0.057153266 0.94565016 0.015434905 -0.20208369 0.2660169 0.88723683 0.03529789 0.0417121 0.24761942 -1.093067 -0.7811134 0.2620165 -0.5791301 -0.5289916 0.05457094 -0.16034532
会 0.7810181 -0.9103237 0.7150124 0.9524006 -0.32580188 -0.6658571 0.80371267 -0.22948186 -1.2487793 -0.3408976 0.5523491 -0.5889755 -0.19074814 -0.83474994 0.25759757 0.80435133 -0.8866577 -0.25291795 0.025575444 1.207854 1.0283431 0.9630157 0.23361748 -1.4930182 -0.1854761 0.8656144 -1.1786864 0.27064297 0.32132563 -0.19052152 0.26803425 0.54021174 -0.33862868 -0.13710232 -0.23328944 0.11783506 0.40296966 -0.081883214 0.05218613 0.17810887 0.032261875 0.64932144 -0.40765622 -0.40345725 0.9103759 -0.35780102 0.22482355 -0.42490602 0.43195003 1.1053227 0.1582698 0.1195543 0.2632696 0.8094746 0.32591867 0.23809496 0.2352739 -0.59324855 -0.3446724 0.41215646 -0.52864444 -0.64594203 0.21941538 -0.076588415
干净 1.0007814 -0.69548154 0.5101689 0.40161726 0.104340635 -0.58563954 0.3724856 -0.33962628 -1.0659931 -0.36704 0.2543523 -0.5950584 -0.4196906 -0.3971556 0.25669667 1.0605706 -0.7459899 -0.38058138 -0.023502715 1.0924708 0.78747046 0.8582876 0.41215044 -1.4947255 -0.6067839 1.1314487 -0.87913424 0.71789056 0.28626627 -0.2944193 0.30152148 -0.007514973 -0.55957896 -0.09190243 -0.410897 -0.022079557 -0.052754458 -0.19858356 0.1866453 0.3784988 -0.16378187 0.41024008 -0.9154646 -0.4163911 0.5447999 -0.625337 -0.028846921 -0.3063066 -0.046478286 0.86018246 -0.095509775 -0.2607887 0.23983735 0.89674044 -0.026621128 0.023904806 0.22717729 -1.1985877 -0.83455205 0.2210422 -0.5656477 -0.4730987 -0.0003651065 -0.1689092
太 0.81207424 -0.70868254 0.5594266 0.5763231 -0.074625984 -0.5840918 0.54888177 -0.24821353 -1.0679661 -0.3267211 0.3905896 -0.53227663 -0.29951957 -0.4679981 0.3104541 0.87361467 -0.7106993 -0.36554316 -0.043306917 1.1089401 0.73860353 0.8706427 0.28368065 -1.3478217 -0.41858926 0.9675067 -0.9136372 0.54856604 0.26782772 -0.2821214 0.25653678 0.19717534 -0.44594195 -0.14251919 -0.32772633 0.031111483 0.1724498 -0.1159524 0.15508142 0.2934552 -0.089816645 0.46573135 -0.6156596 -0.36005032 0.67039365 -0.41485178 0.0146247465 -0.251731 0.1478396 0.92677623 -0.06303438 -0.09378859 0.24753778 0.78001696 0.06993969 0.14791094 0.18652979 -0.9192822 -0.58724296 0.26145723 -0.47522196 -0.49309742 0.01253786 -0.077189445
下次 0.68138045 -0.88640857 0.58821404 0.9134488 -0.38852444 -0.61050314 0.79302007 -0.19937763 -1.2226267 -0.30416167 0.6333152 -0.57694024 -0.14880656 -0.7309646 0.19530502 0.74707144 -0.77716416 -0.27858266 -0.064230084 1.1798003 0.9471702 0.8817903 0.32309756 -1.3414339 -0.02139716 0.8099392 -1.0902202 0.112493135 0.2665583 -0.21244162 0.19801162 0.5326576 -0.26771557 -0.20883077 -0.23256692 0.13930835 0.43710023 -0.08983244 0.024353145 0.17685471 0.01455718 0.62720007 -0.27626973 -0.39336473 0.8284515 -0.26285145 0.18668203 -0.3591217 0.5063943 1.0390095 0.12915307 0.19291678 0.21973088 0.7832181 0.27424037 0.22867212 0.2254047 -0.45512727 -0.22220905 0.45629486 -0.49212804 -0.6759784 0.2540511 -0.08246061
不好 0.76612455 -0.6717549 0.50276685 0.53654736 -0.020845512 -0.5489688 0.45326886 -0.27178282 -0.98069227 -0.30334345 0.3455211 -0.49185994 -0.28867355 -0.5157058 0.2792711 0.8534349 -0.6689764 -0.32804504 0.013341444 0.99990654 0.69474465 0.8271925 0.28339577 -1.3037554 -0.40436018 0.9216244 -0.8563696 0.5211521 0.23853645 -0.23505382 0.24665941 0.14922507 -0.41356888 -0.07324734 -0.31880742 0.050922588 0.13377349 -0.10951632 0.14587873 0.24225082 -0.061947346 0.40090555 -0.63836616 -0.3533472 0.60991323 -0.45947167 0.055072088 -0.27865174 0.104338765 0.842057 -0.024939729 -0.118180625 0.23666415 0.7655579 0.09611844 0.08601211 0.19398148 -0.89484143 -0.6049971 0.23813011 -0.48001143 -0.4484002 0.046045016 -0.14605193
知道 0.83622307 -0.8164495 0.63186556 0.7689257 -0.15586454 -0.63582474 0.6685817 -0.3170003 -1.1187029 -0.3507368 0.36748606 -0.56684333 -0.29701835 -0.73283374 0.2595746 0.87151814 -0.86288404 -0.29322192 0.08944548 1.1315539 0.89264446 0.93665284 0.22571857 -1.4717464 -0.3641038 0.902652 -1.0847315 0.5015439 0.32785586 -0.19192614 0.33579218 0.3634083 -0.38403907 -0.07105824 -0.2637831 0.046367258 0.19330767 -0.16522437 0.11236647 0.2628769 -0.02127671 0.4850901 -0.56249386 -0.38693082 0.78538054 -0.5035669 0.18458208 -0.3665927 0.23698835 1.0025549 0.11790044 -0.061851926 0.24143164 0.7789075 0.14866714 0.11481427 0.21888565 -0.83201766 -0.52092457 0.2821498 -0.5091575 -0.5731302 0.18461972 -0.09840145
这家 0.61324173 -0.77328366 0.60925514 0.83170277 -0.37377346 -0.5480952 0.74876046 -0.15202363 -1.1255115 -0.268868 0.6018737 -0.5059935 -0.064083695 -0.7060743 0.23921493 0.7084904 -0.6149084 -0.18971886 -0.07445548 1.1108235 0.88422245 0.81301785 0.3110172 -1.2001847 0.041257635 0.7402993 -0.93674225 0.08880423 0.27792737 -0.2354486 0.15135312 0.51064736 -0.2889652 -0.20531149 -0.19796246 0.1300644 0.46727985 -0.024227727 -0.01375731 0.08376325 0.06460505 0.6071159 -0.22472197 -0.34172338 0.76423925 -0.1922955 0.118401855 -0.34903103 0.4989543 0.97284317 0.08256531 0.20831914 0.199273 0.7089104 0.28090495 0.27150604 0.2531058 -0.36661357 -0.15970568 0.39539245 -0.42812613 -0.6045873 0.21147278 -0.046449654
不能 0.9179838 -0.8427753 0.6491098 0.70998526 -0.08007282 -0.6127184 0.6115769 -0.33825085 -1.1584002 -0.35896876 0.32425353 -0.5885174 -0.33314124 -0.6958336 0.25360325 0.94277924 -0.88431937 -0.3288105 0.081404194 1.1481799 0.9280745 0.95891774 0.2342096 -1.5374736 -0.44346994 1.0058724 -1.0914888 0.57418746 0.30989718 -0.21374856 0.3331126 0.27340114 -0.4194154 -0.039908484 -0.30133727 0.042106863 0.13479584 -0.17926861 0.120604664 0.30001095 -0.032411564 0.48735684 -0.6767778 -0.4303581 0.766971 -0.5725216 0.18725812 -0.37090287 0.15955022 0.97464967 0.10751696 -0.12549658 0.2595438 0.8028 0.11045006 0.07112157 0.22230338 -0.9510391 -0.6106163 0.2673015 -0.5613816 -0.5579944 0.12777025 -0.12664692
点 0.82588935 -0.8384229 0.6364818 0.79030263 -0.11293441 -0.6102706 0.6845405 -0.3017302 -1.1455656 -0.38730136 0.40575913 -0.580512 -0.29934397 -0.7222157 0.26646337 0.8460254 -0.87290937 -0.28269127 0.083302185 1.12605 0.91910344 0.9464028 0.19456223 -1.4300653 -0.3801265 0.9044851 -1.0868927 0.48528337 0.3004194 -0.17805266 0.29542133 0.36159566 -0.35776523 -0.093866415 -0.2734412 0.03620587 0.22624376 -0.09053911 0.112036444 0.26091754 -0.031440124 0.5007341 -0.5631365 -0.37223896 0.82295597 -0.4645741 0.1851676 -0.37643868 0.2204763 1.0137298 0.12103062 -0.023638668 0.27283645 0.77952814 0.1753282 0.12312318 0.24010515 -0.8169551 -0.5194421 0.28686997 -0.48424435 -0.56216705 0.15539075 -0.1309453
点评 0.17576219 -1.3501695 1.1373792 1.8500336 -1.1452153 -0.58923197 1.7767456 0.3153517 -1.4440602 -0.22234805 1.4199688 -0.45566168 0.3566928 -1.4856812 0.4371971 0.52718127 -0.55896485 0.08123627 -0.032954123 1.5214856 1.2821133 1.1260316 -0.067353 -1.35769 0.76956314 0.08657899 -1.7486956 -1.171139 0.29292125 -0.020692995 -0.106766455 1.7123865 -0.23975705 -0.5345704 0.05233723 0.5972419 1.6224666 0.258663 -0.1103229 -0.3672858 0.4321122 1.2669326 0.97565436 -0.4980923 1.5496116 0.6267451 0.26722667 -0.83150375 1.4155937 1.6540346 0.63319045 0.9905252 0.3101865 0.674981 1.1054064 0.9756584 0.29260692 1.012557 0.7289597 0.99110925 -0.45789444 -1.0504663 0.2909922 0.4641422
装修 0.78938824 -0.7250155 0.59116423 0.57562673 -0.095367596 -0.55819875 0.54018784 -0.26333573 -1.0362234 -0.3211288 0.40549287 -0.5426413 -0.26194993 -0.53552765 0.26000613 0.8716386 -0.6859439 -0.2997235 -0.004216891 1.0556307 0.8019863 0.8460504 0.30136856 -1.3583361 -0.3590382 0.9130362 -0.92998886 0.397481 0.27895084 -0.25142047 0.20945469 0.25029543 -0.4521519 -0.09932134 -0.29815486 0.080520466 0.17794822 -0.138648 0.08161458 0.23206833 -0.044299293 0.4822891 -0.56206805 -0.38371506 0.64013135 -0.42454088 0.031191884 -0.342516 0.158628 0.9046369 0.044614792 -0.07708013 0.20780547 0.76361084 0.092562236 0.12196053 0.2040513 -0.79385686 -0.5618198 0.28224936 -0.5033998 -0.48991963 0.054644376 -0.09528421
吃 0.80598795 -0.8174871 0.5855844 0.7216589 -0.066842 -0.60289913 0.60936147 -0.28239194 -1.119268 -0.40233222 0.4134053 -0.5460233 -0.31782073 -0.6491975 0.20081122 0.8476979 -0.81992215 -0.2958535 0.08746218 1.0994852 0.8725716 0.8741151 0.17431255 -1.4081998 -0.4418796 0.88676554 -1.0592529 0.46062645 0.27488628 -0.20893227 0.33071584 0.30869365 -0.3333457 -0.095016345 -0.28633383 0.01974796 0.23149057 -0.094625324 0.14900196 0.2660903 -0.039614175 0.41472295 -0.5590563 -0.34955218 0.7827318 -0.48707154 0.098780796 -0.35778248 0.2259913 0.96016747 0.055223282 -0.062593676 0.25249973 0.7993073 0.16550855 0.10154513 0.22273919 -0.84290916 -0.5739994 0.27908728 -0.4416431 -0.46678197 0.11020331 -0.09383079
卫生间 1.0237839 -0.82651603 0.6404695 0.58197063 0.02896082 -0.656755 0.5602006 -0.32970914 -1.1806444 -0.4174409 0.36024752 -0.63881767 -0.38711292 -0.5593354 0.31855205 1.0631323 -0.8517738 -0.42815596 0.001330175 1.2143955 0.8867834 0.97283447 0.3228986 -1.6070017 -0.6023864 1.1651559 -1.0389802 0.65408826 0.33008105 -0.27628648 0.31517717 0.13917974 -0.52597 -0.07332953 -0.40660077 0.022692857 0.058633555 -0.1894686 0.1627326 0.35041115 -0.10453384 0.47921604 -0.8461438 -0.409759 0.7204149 -0.62887126 0.054797534 -0.35020387 0.045550976 0.97017956 -0.020383228 -0.20635927 0.28435186 0.92953116 0.041516826 0.05278719 0.2521258 -1.1130555 -0.7939371 0.24021547 -0.60687006 -0.5268298 0.022405585 -0.13388784
问题 0.78374213 -0.8427583 0.6338998 0.81922376 -0.21774118 -0.6194716 0.71109873 -0.25821868 -1.146183 -0.3525725 0.45607027 -0.5390094 -0.26108935 -0.7578232 0.258736 0.8151868 -0.83418244 -0.29808375 0.07996187 1.1334919 0.90191454 0.8983007 0.18609455 -1.4299207 -0.27757645 0.8611714 -1.1238858 0.35969046 0.27869922 -0.17777887 0.26334646 0.41446847 -0.36892983 -0.080029264 -0.23075046 0.08204016 0.30257982 -0.13716075 0.072791316 0.19384845 0.0075239493 0.54796004 -0.46847573 -0.38066378 0.83623075 -0.4043401 0.15856622 -0.3648144 0.29108354 1.0021471 0.13533026 0.031344093 0.23223378 0.7623768 0.2481113 0.1695773 0.22816594 -0.7214189 -0.43828213 0.35691032 -0.52635926 -0.57770663 0.16979265 -0.07380729
免费 0.90346843 -0.8940532 0.6557654 0.83872724 -0.15444942 -0.6431812 0.67411 -0.28955477 -1.2229272 -0.3152374 0.3710867 -0.66298306 -0.27861536 -0.7406352 0.2998962 0.97189957 -0.9124912 -0.33244237 0.113132924 1.2334707 0.9923189 0.9617114 0.24306907 -1.5458659 -0.3958196 1.001352 -1.1061646 0.51986116 0.31847993 -0.25154987 0.3489904 0.323562 -0.4134105 -0.056889515 -0.32980672 0.11271767 0.22836624 -0.15844552 0.118378565 0.2810176 -0.020187497 0.59681624 -0.64388186 -0.40928403 0.8210459 -0.5133822 0.19866468 -0.37279564 0.23351929 1.0778971 0.17852432 -0.030851293 0.2933472 0.8104269 0.11742029 0.13242055 0.24529898 -0.86435074 -0.5622451 0.3422564 -0.573815 -0.5806389 0.1775221 -0.046545673
有点 0.88314795 -0.7647209 0.58310217 0.5946648 -0.049319096 -0.6099038 0.5455615 -0.32494035 -1.1217403 -0.37070608 0.39610273 -0.5847586 -0.3172867 -0.5874872 0.26361957 0.9489178 -0.7888647 -0.32811096 -0.009570699 1.117758 0.8265889 0.8835697 0.3174796 -1.4455088 -0.44913116 1.0036241 -0.97263277 0.52491945 0.30947682 -0.25246024 0.26252863 0.22090617 -0.46528047 -0.11720177 -0.3257959 0.048649587 0.12351358 -0.16284811 0.13899776 0.29064667 -0.06434742 0.47110295 -0.69865495 -0.3884282 0.6866693 -0.5023101 0.04529582 -0.33328503 0.13847132 0.9173391 -0.0027762929 -0.11636273 0.26357928 0.8302164 0.097431906 0.09818096 0.22106117 -0.9551158 -0.66625607 0.2849929 -0.52859086 -0.5273243 0.06838006 -0.12361333
居然 0.84279925 -0.762595 0.608348 0.6598947 -0.068955876 -0.573973 0.55825424 -0.3236755 -1.0531518 -0.35144493 0.27347818 -0.5509055 -0.33023703 -0.65789753 0.25809973 0.8589901 -0.8135718 -0.31807643 0.11640523 1.0544405 0.8496398 0.8777392 0.25694686 -1.3889296 -0.42422885 0.92512137 -0.9862832 0.55448854 0.2895606 -0.20351805 0.3485236 0.25422418 -0.392354 -0.05330527 -0.30440846 0.010622628 0.14225337 -0.16059062 0.13674048 0.27034223 -0.020032326 0.45143306 -0.6353049 -0.37721404 0.7014282 -0.53311944 0.18277203 -0.33185297 0.14762267 0.91296077 0.11550553 -0.1266055 0.2658491 0.75348747 0.07805055 0.06826325 0.21123298 -0.8739389 -0.58857304 0.25187147 -0.49422842 -0.5188051 0.12709288 -0.10324476
态度 0.80237144 -0.71436775 0.5497656 0.5785169 -0.0064339754 -0.60703784 0.5183013 -0.33738256 -1.0091376 -0.3244078 0.27105257 -0.4968107 -0.37715927 -0.61418974 0.2765316 0.88364846 -0.75996894 -0.34738532 0.06693801 1.0569835 0.7460614 0.8738066 0.25768828 -1.3747414 -0.42157704 0.95381284 -0.98068345 0.6411451 0.3126407 -0.20729633 0.30670118 0.17095523 -0.41579244 -0.025478061 -0.3024824 0.024897322 0.064459205 -0.13939278 0.18531732 0.29925996 -0.057618674 0.40934476 -0.6433876 -0.34894764 0.6799607 -0.5415867 0.104945764 -0.32224694 0.07789406 0.85729665 0.025283335 -0.17931662 0.26498935 0.7739694 0.12892342 0.083594635 0.17178011 -1.0147029 -0.6011998 0.17157981 -0.5059772 -0.5019274 0.07473134 -0.18513024
实在 0.8631737 -0.8284858 0.6026899 0.68936205 -0.12891072 -0.60618234 0.60851496 -0.2611269 -1.1258575 -0.35530162 0.44703263 -0.5632657 -0.2904035 -0.6286382 0.28813058 0.9277175 -0.79736996 -0.33470768 0.01766586 1.1372544 0.8625488 0.9099534 0.30674818 -1.4491384 -0.3426752 0.9568591 -1.0098547 0.48584396 0.290918 -0.22902279 0.28708443 0.27779484 -0.39893353 -0.12604685 -0.30148992 0.06216167 0.21614027 -0.1378976 0.111679025 0.2512066 -0.038344778 0.49875373 -0.6076537 -0.40936142 0.7506425 -0.4710872 0.10467345 -0.3305003 0.22171004 0.9985958 0.034909226 -0.07315144 0.2371123 0.8257585 0.14911966 0.13307244 0.24627432 -0.83860266 -0.55913675 0.31574056 -0.5363341 -0.531414 0.1104169 -0.079818964
地方 0.8275268 -0.8015661 0.6110832 0.72841007 -0.14648391 -0.5994938 0.62736386 -0.30847952 -1.1234454 -0.3644949 0.41593271 -0.588405 -0.30616888 -0.63233334 0.23070647 0.878513 -0.8119082 -0.31501156 0.006291787 1.1422162 0.90523416 0.91490674 0.2663158 -1.4280049 -0.38188457 0.9739159 -1.0493593 0.470774 0.30275273 -0.24918723 0.28589967 0.30233547 -0.3670103 -0.10317138 -0.27268368 0.0388807 0.22451071 -0.128923 0.10102234 0.2601179 -0.050827265 0.47465158 -0.5911417 -0.37400037 0.73274916 -0.5036245 0.10906815 -0.34146935 0.19727254 0.9894923 0.06526607 -0.05955309 0.24808644 0.81679755 0.14203592 0.12702857 0.22117239 -0.84796715 -0.5623897 0.31534344 -0.49978527 -0.5428481 0.14789794 -0.11783104
位置 0.8608325 -0.74628013 0.56985795 0.6012623 -0.083242185 -0.60120475 0.56457263 -0.3046014 -1.1501255 -0.33560255 0.4311698 -0.5702823 -0.34352028 -0.55270976 0.24300218 0.9525887 -0.7656471 -0.3121635 -0.052347396 1.1433396 0.84641975 0.8847726 0.3082722 -1.4018738 -0.44160196 1.0079551 -0.99763995 0.52417845 0.28312945 -0.2863599 0.23702882 0.21518429 -0.4445089 -0.13512595 -0.3185297 0.0520298 0.1698401 -0.1210895 0.12130963 0.26634365 -0.060887773 0.46986607 -0.6520354 -0.39639628 0.6526477 -0.49963653 0.049007345 -0.3393287 0.13453442 0.91318405 0.011494348 -0.1156804 0.26574662 0.8437773 0.118859395 0.10139931 0.24613886 -0.94294095 -0.63289124 0.27119938 -0.5020286 -0.5059376 0.08322576 -0.14014974
已经 0.8145783 -0.88078487 0.6738349 0.86085397 -0.22519921 -0.64451295 0.7710898 -0.2697184 -1.1958342 -0.36471137 0.4763308 -0.58893764 -0.2596015 -0.80363 0.25958893 0.8787236 -0.8414704 -0.28794137 0.07622944 1.1646794 0.97364795 0.9766263 0.21014175 -1.4926754 -0.3010649 0.89469767 -1.1502684 0.36141023 0.3265027 -0.18890135 0.27556482 0.45529616 -0.3971878 -0.124258 -0.24584581 0.095408276 0.31988633 -0.12274764 0.06981611 0.21696955 0.028480384 0.5723037 -0.48802865 -0.3987407 0.8503564 -0.44284287 0.17975093 -0.41520742 0.32794186 1.0527709 0.18452361 0.020218033 0.27523187 0.80491155 0.24205163 0.17842843 0.23456277 -0.7116695 -0.46940744 0.34183472 -0.5277598 -0.61109924 0.18678716 -0.075486995
大堂 0.94927895 -0.8080848 0.64884186 0.64591724 -0.044604287 -0.65193576 0.5784089 -0.35430095 -1.1939023 -0.36185881 0.34009647 -0.60476863 -0.39485198 -0.641181 0.29260507 0.9727975 -0.8570889 -0.3539717 0.081567265 1.1903114 0.8896781 0.95225704 0.26954177 -1.535603 -0.48813468 1.0759975 -1.070641 0.6581376 0.33548835 -0.23479237 0.3335695 0.2373834 -0.46677622 -0.054693066 -0.33115253 0.019964254 0.118139274 -0.1736001 0.13444042 0.33155057 -0.08523092 0.46670252 -0.73861265 -0.39782566 0.757246 -0.6034796 0.121494465 -0.35013926 0.098339744 0.96817714 0.04757 -0.1606216 0.2679856 0.8548301 0.10826165 0.09760905 0.23329885 -1.0435771 -0.6873859 0.25833818 -0.5766407 -0.5393841 0.110058874 -0.13211408
发现 0.89539814 -0.82414955 0.67161226 0.7261235 -0.099174045 -0.6480083 0.6409115 -0.29698405 -1.1490912 -0.3674342 0.35941857 -0.5951746 -0.3218283 -0.74160224 0.2968327 0.9094439 -0.89747316 -0.33095342 0.09283694 1.1329769 0.9088789 0.9512019 0.23478764 -1.5103413 -0.40031013 0.983684 -1.076128 0.5395682 0.33511633 -0.19692126 0.34266603 0.334046 -0.44009113 -0.07801872 -0.28352475 0.061666522 0.18607552 -0.14483038 0.120400675 0.26557812 -0.04389818 0.53089917 -0.64471734 -0.41792193 0.7678054 -0.5259656 0.17802936 -0.40153092 0.18969505 0.985428 0.12936243 -0.08635941 0.2713967 0.81247675 0.13023451 0.093474306 0.24581946 -0.91652656 -0.60659057 0.2962957 -0.5561322 -0.5663603 0.12599495 -0.105186984
选择 0.6011122 -0.8855928 0.6588483 0.9658339 -0.41464952 -0.5559036 0.84985274 -0.13004555 -1.1737019 -0.27963293 0.6503608 -0.52871644 -0.061266806 -0.7807395 0.22348356 0.68725425 -0.7007835 -0.17429228 -0.06987373 1.1617888 0.9468175 0.89188 0.25269723 -1.289018 0.034258496 0.7101315 -1.0924227 -0.04089653 0.26681274 -0.22218567 0.1636245 0.6250757 -0.2787125 -0.20286427 -0.1753963 0.18961062 0.55951774 -0.040669024 -0.018333336 0.094947316 0.06687441 0.6816063 -0.166932 -0.39096105 0.86627275 -0.17346115 0.14890352 -0.40020862 0.561212 1.0556283 0.16512692 0.2891677 0.23618321 0.7440974 0.33798322 0.3177013 0.219474 -0.29225978 -0.118367255 0.46761462 -0.45218766 -0.67271936 0.22290498 0.0066461572
不会 0.59584147 -0.71960646 0.5383142 0.8051042 -0.3502521 -0.51971585 0.6651447 -0.19017579 -1.0257058 -0.23954082 0.52321565 -0.4906005 -0.098906845 -0.6505928 0.15704778 0.62761015 -0.63215464 -0.20517902 -0.04987216 1.0171746 0.8210716 0.74345386 0.27936596 -1.1265854 -0.0209903 0.6982722 -0.8486529 0.10218749 0.2475184 -0.21140575 0.21179204 0.45001101 -0.22971998 -0.18810941 -0.17743398 0.09455325 0.41534853 -0.06494743 -0.009255092 0.12140657 0.037472457 0.56325775 -0.3007926 -0.3153278 0.71681046 -0.2160397 0.17974816 -0.30135456 0.43181473 0.9241841 0.097669475 0.16086777 0.20324242 0.6161642 0.24875487 0.20054258 0.1917021 -0.38416955 -0.15541254 0.37454712 -0.422141 -0.5538171 0.17390703 -0.055495717
交通 0.823725 -0.7514599 0.5081142 0.5833206 -0.029716974 -0.54783857 0.5499147 -0.3241038 -1.14628 -0.3217547 0.4641261 -0.5667375 -0.33121645 -0.4312508 0.16178666 0.9080684 -0.80080044 -0.30993178 -0.09903761 1.1240493 0.87084603 0.82328904 0.27236363 -1.3470057 -0.524782 0.99640125 -1.0021403 0.5219502 0.26623037 -0.31355697 0.21690735 0.22106592 -0.36460823 -0.1803504 -0.29906303 -0.00058624585 0.1480795 -0.09595896 0.14911835 0.27900606 -0.08771243 0.41522247 -0.74967265 -0.41084075 0.5976085 -0.50597274 0.0017973767 -0.32406896 0.119730294 0.86865354 -0.03230453 -0.121899135 0.2506176 0.90366966 0.046906568 0.11509842 0.16760594 -0.956374 -0.70571 0.29732543 -0.4789377 -0.47700822 0.096370265 -0.12586537
退房 0.73813444 -0.7675441 0.603204 0.7735435 -0.11215439 -0.58171403 0.60002196 -0.28770778 -1.0609977 -0.34044918 0.3599095 -0.52643186 -0.31430244 -0.7499422 0.23258533 0.7856738 -0.82145935 -0.28196427 0.1442549 1.0196402 0.865342 0.8854295 0.15811244 -1.3659503 -0.35551515 0.83659536 -1.0528029 0.49784723 0.28353095 -0.113693774 0.30103627 0.35539418 -0.34761786 -0.038162403 -0.23193726 0.048705034 0.19342105 -0.11154505 0.09713856 0.21591246 -0.023017263 0.49617377 -0.5071078 -0.34881788 0.78249127 -0.48737553 0.21338762 -0.35619348 0.22282287 0.90835947 0.18848793 -0.057874236 0.26288185 0.7178868 0.18276216 0.115234315 0.22111648 -0.77548915 -0.45899826 0.26474753 -0.46047258 -0.5220399 0.16494085 -0.1316098
空调 0.90164137 -0.80560213 0.613404 0.6492587 -0.05589415 -0.62757087 0.58275074 -0.32517323 -1.0923245 -0.3790655 0.36691487 -0.5837936 -0.29684734 -0.6304596 0.25784168 0.9082931 -0.8811413 -0.3445278 0.059472397 1.1170729 0.86891896 0.90855443 0.2537581 -1.4811248 -0.4972945 0.9550857 -1.0154388 0.5760306 0.28521892 -0.21031722 0.3388326 0.22989754 -0.40383723 -0.04992103 -0.33420697 0.019503433 0.14478943 -0.14978732 0.15484574 0.31531546 -0.06357448 0.43543825 -0.679521 -0.4120164 0.7281533 -0.5636259 0.16238797 -0.35083967 0.14408271 0.96108127 0.060696393 -0.14958192 0.24621409 0.8203519 0.06481755 0.0747608 0.2061801 -0.94946283 -0.67391896 0.27793035 -0.5517803 -0.5061574 0.089835584 -0.17633073
餐厅 0.8480933 -0.81808144 0.6066482 0.704671 -0.11404504 -0.6334927 0.6424352 -0.32092485 -1.173317 -0.36864907 0.4234387 -0.59237677 -0.31233844 -0.67944217 0.26967394 0.9390384 -0.8285019 -0.31257623 0.061985407 1.1711295 0.8783201 0.94800925 0.24074268 -1.4930243 -0.4124029 0.96206963 -1.0929124 0.506058 0.30936962 -0.2241619 0.30579236 0.30713442 -0.42319265 -0.08475179 -0.32048315 0.0439971 0.19135123 -0.12322881 0.14845584 0.28533912 -0.054663602 0.49227133 -0.6037235 -0.40463257 0.7612357 -0.5121853 0.089910634 -0.34226865 0.20386761 1.0076894 0.07711935 -0.1004945 0.27127862 0.82224554 0.1437798 0.11324664 0.23242883 -0.9163831 -0.609076 0.30523753 -0.52266437 -0.5323145 0.104332104 -0.116141185
要求 0.85284215 -0.83130825 0.66569716 0.7670226 -0.11457798 -0.6260334 0.64559597 -0.29923236 -1.1690651 -0.33448374 0.34941712 -0.60381144 -0.32805237 -0.7570703 0.26326948 0.8955097 -0.8799427 -0.300127 0.10620708 1.1489098 0.93706435 0.95050216 0.22674017 -1.5081906 -0.38351765 0.9550303 -1.0947192 0.520467 0.2953088 -0.18000303 0.33834973 0.3366718 -0.40708026 -0.062804535 -0.2987726 0.049298942 0.19950838 -0.16970932 0.105957486 0.2489692 0.003989308 0.5245443 -0.62967306 -0.39394072 0.7767371 -0.53275985 0.20211667 -0.39719343 0.19530569 0.9821372 0.17001116 -0.040156122 0.27267748 0.801541 0.1595668 0.09734243 0.2539749 -0.86086214 -0.5446827 0.30571866 -0.5488108 -0.5720981 0.1777356 -0.117338374
很多 0.81264144 -0.80786395 0.59692883 0.7079565 -0.13466148 -0.5911091 0.6263016 -0.27656662 -1.1429944 -0.32956487 0.4088325 -0.58504456 -0.29479775 -0.6610863 0.24021842 0.8857376 -0.8032443 -0.2925845 0.023032105 1.1270334 0.8875921 0.90476626 0.27294806 -1.4066001 -0.36717865 0.94470817 -1.0419964 0.44193253 0.28294438 -0.23769487 0.27119917 0.30209836 -0.38807654 -0.102279715 -0.3061233 0.0678637 0.23174417 -0.12042839 0.09517983 0.26868662 -0.018100658 0.5037096 -0.58117574 -0.4029989 0.7329838 -0.47229406 0.119119704 -0.35148028 0.20812786 0.97551006 0.061495326 -0.035210636 0.26094475 0.79932183 0.15131557 0.1376101 0.2225844 -0.8412969 -0.52894217 0.30969778 -0.49469772 -0.5539114 0.12572905 -0.090567246
预定 0.6161164 -0.70941335 0.5605602 0.7223695 -0.23048547 -0.48187876 0.610914 -0.22011763 -0.9246973 -0.26283425 0.3284668 -0.4722732 -0.15108465 -0.71858704 0.23375466 0.684424 -0.6663213 -0.17610528 0.098345764 0.9223249 0.811768 0.7633385 0.16909274 -1.1686571 -0.158011 0.684004 -0.9179835 0.24771841 0.26068783 -0.1532702 0.281212 0.39504683 -0.30984774 -0.08914203 -0.21179582 0.119478166 0.29701596 -0.11421408 0.056068555 0.17703874 0.04337494 0.51127875 -0.3559467 -0.34849685 0.67994845 -0.32458666 0.20635891 -0.35548064 0.2975793 0.83977544 0.20568779 0.058127537 0.2004601 0.61833614 0.20282511 0.13978057 0.21039477 -0.5137129 -0.31114334 0.28788915 -0.38547868 -0.5300217 0.17123103 -0.022222405
电话 0.8753115 -0.81362593 0.62571645 0.7256585 -0.09731181 -0.6421346 0.58494115 -0.36658952 -1.1270579 -0.34522936 0.32950938 -0.57269126 -0.33543742 -0.7070983 0.24717698 0.8712939 -0.8882706 -0.31390557 0.13158669 1.0907689 0.91632587 0.9361597 0.2045098 -1.4912546 -0.41333723 0.9648103 -1.0807039 0.6045039 0.29846343 -0.17615518 0.37435544 0.29605561 -0.38021836 -0.0471999 -0.29529178 0.022924263 0.14456557 -0.18728875 0.13157837 0.264891 -0.023756668 0.45431313 -0.6598743 -0.408988 0.782498 -0.5815007 0.20983973 -0.36403888 0.18785006 0.9685877 0.1512684 -0.09393359 0.24866845 0.77046376 0.1188271 0.06738015 0.23372844 -0.9183333 -0.5971789 0.2677812 -0.5245805 -0.55362654 0.17927867 -0.1581535
竟然 0.84435576 -0.77706885 0.6092119 0.661895 -0.046122417 -0.618752 0.5712007 -0.34067705 -1.0594542 -0.35376522 0.31438234 -0.5590651 -0.3501134 -0.6679741 0.26644704 0.860657 -0.83204454 -0.32753113 0.12963776 1.0496137 0.84370524 0.8894859 0.21177977 -1.4083788 -0.44523525 0.9618928 -1.0095749 0.60756356 0.30731457 -0.1718577 0.323718 0.26333106 -0.38527983 -0.036832046 -0.27800247 0.024257207 0.12256193 -0.16297254 0.14108686 0.28970578 -0.041069124 0.45780477 -0.66785276 -0.36996165 0.7090351 -0.55782497 0.15821736 -0.33384177 0.13234858 0.9161906 0.11118952 -0.14484614 0.2604658 0.7663475 0.102611326 0.047000565 0.20076604 -0.9258565 -0.6224503 0.24551207 -0.5069687 -0.5155842 0.13561888 -0.160187
以后 0.71554315 -0.8401681 0.5703925 0.79325956 -0.26965204 -0.5822196 0.68485457 -0.25834596 -1.1453761 -0.30826607 0.46943158 -0.5729854 -0.19758934 -0.6990572 0.19594297 0.76174754 -0.7704307 -0.2888973 -0.024785053 1.1286359 0.9145861 0.8558508 0.29977468 -1.3669333 -0.1654471 0.8597339 -1.0268526 0.29899153 0.27871084 -0.21645634 0.26291728 0.39729673 -0.3219629 -0.1539591 -0.24754713 0.08104729 0.31478423 -0.13149865 0.049957648 0.20203781 0.0074376403 0.52990466 -0.42535087 -0.36056712 0.7839757 -0.36750734 0.16655163 -0.35103467 0.35826722 0.95820314 0.09350866 0.08279744 0.22588798 0.7726544 0.17442678 0.17748357 0.22790867 -0.62210435 -0.3484803 0.37612826 -0.4996239 -0.6031213 0.20483407 -0.08274856
算 0.83588046 -0.67244387 0.524661 0.5269985 -0.017165355 -0.5490487 0.48082545 -0.29020196 -1.0411947 -0.3287353 0.33558917 -0.5264095 -0.34931645 -0.4755668 0.22067797 0.893859 -0.6910702 -0.3185234 -0.008969491 1.0220193 0.78056246 0.8272507 0.32094768 -1.3363445 -0.4193284 0.96364397 -0.8942319 0.52377766 0.2533082 -0.25335234 0.26741657 0.13478315 -0.40770066 -0.0789306 -0.31874958 0.031378422 0.11819616 -0.13065206 0.13190447 0.2918479 -0.093663186 0.42624757 -0.668056 -0.34785 0.5693104 -0.513654 0.022208337 -0.2809962 0.06809294 0.827534 -0.007495931 -0.1237578 0.22059494 0.7975391 0.052585464 0.07606863 0.21230824 -0.95382524 -0.63690454 0.24798027 -0.47773045 -0.47977316 0.056321185 -0.107228495
朋友 0.6928341 -0.8214875 0.6375849 0.8466751 -0.29471028 -0.5540139 0.7047769 -0.22042978 -1.0846006 -0.30244908 0.4712186 -0.51521504 -0.18084738 -0.7593141 0.22589484 0.7538536 -0.7648343 -0.21298254 0.027629804 1.082654 0.891387 0.8501321 0.22087872 -1.3214658 -0.14810464 0.7715398 -1.0512344 0.21939631 0.29514822 -0.19979133 0.26025867 0.4542598 -0.30586326 -0.13634627 -0.21597898 0.10427519 0.36353382 -0.08758842 0.04676457 0.16382754 0.023251558 0.5450568 -0.34354028 -0.3729371 0.8064251 -0.3317162 0.19397628 -0.3851141 0.35992852 0.97893125 0.14855805 0.113861665 0.24339132 0.71797144 0.2600015 0.20463121 0.24014598 -0.52579695 -0.29525116 0.37125534 -0.4830686 -0.6001025 0.19113286 -0.060254052
建议 0.6391839 -0.78437626 0.57897985 0.8177663 -0.31868944 -0.544199 0.70118386 -0.18044446 -1.0613728 -0.2835814 0.5026987 -0.47506618 -0.11142065 -0.6665254 0.23707338 0.6914401 -0.68882114 -0.18498988 -0.028865436 1.0148184 0.8715978 0.8101401 0.20372076 -1.2191415 -0.06873257 0.6982802 -0.9720054 0.16158138 0.2746404 -0.18972886 0.209877 0.4840355 -0.2565842 -0.12679543 -0.17697187 0.11010196 0.4059553 -0.07413041 0.034298103 0.15490976 0.052148115 0.55950534 -0.26613992 -0.32708102 0.7505579 -0.28362432 0.15222144 -0.3301587 0.38935703 0.93623185 0.14365108 0.12298004 0.22435914 0.6788249 0.25792912 0.23348778 0.22725537 -0.42529815 -0.2555184 0.39404663 -0.44922173 -0.54205865 0.19928278 -0.03579224
一点 0.7430475 -0.7722316 0.61495733 0.7433518 -0.1817986 -0.5849395 0.65055186 -0.26290593 -1.106522 -0.33970845 0.44326708 -0.5315783 -0.24884446 -0.6691945 0.2590501 0.82010835 -0.74412906 -0.2748926 0.03351832 1.1019332 0.84857446 0.8878934 0.24435613 -1.3661054 -0.29101068 0.8753785 -1.0239487 0.36078575 0.2846544 -0.21586314 0.25625476 0.35570636 -0.378173 -0.1220467 -0.25473675 0.09810766 0.26629412 -0.110820256 0.077976316 0.20989113 -0.0019883444 0.52148485 -0.47304222 -0.37960878 0.7582328 -0.39665687 0.12743059 -0.37368307 0.25798646 0.94668376 0.08663334 -0.017286202 0.24236567 0.7711778 0.18606466 0.14712606 0.21914071 -0.70504135 -0.4695405 0.33379212 -0.47382846 -0.54109335 0.11197999 -0.05978746
找 0.8218841 -0.7585242 0.58000404 0.66956204 -0.06937928 -0.61219674 0.5873667 -0.3391896 -1.0750332 -0.37456003 0.3449894 -0.56270576 -0.33757523 -0.64602554 0.2371111 0.858549 -0.83417475 -0.3300746 0.07018013 1.0632721 0.8316795 0.88472986 0.24298336 -1.4205225 -0.43752477 0.9228688 -1.0179002 0.5474835 0.29302773 -0.20790036 0.32812402 0.24371274 -0.397219 -0.039935317 -0.28983194 0.029554624 0.1445313 -0.13178165 0.12717511 0.284098 -0.031831484 0.4360655 -0.61813414 -0.3779053 0.7365749 -0.5240966 0.17097306 -0.34036022 0.15218122 0.94236064 0.066043936 -0.11287659 0.24089617 0.7982497 0.10604627 0.08051506 0.23680536 -0.909044 -0.61850005 0.2416395 -0.49745336 -0.5242408 0.15471688 -0.1402502
标准 0.8346265 -0.78909427 0.61531174 0.66493094 -0.15775104 -0.5791636 0.6246965 -0.2720363 -1.1143774 -0.3171002 0.38015723 -0.592695 -0.2586044 -0.64339805 0.26078236 0.8796928 -0.7472917 -0.2700914 0.029907275 1.1130905 0.85307586 0.898503 0.29945478 -1.3886968 -0.3023101 0.92131597 -0.95356876 0.3937325 0.27590796 -0.25070253 0.27438956 0.27116513 -0.392081 -0.094475016 -0.29077876 0.06851712 0.20234218 -0.11360892 0.052029658 0.20319696 -0.0069609815 0.48460144 -0.5656298 -0.39219064 0.6878856 -0.43725356 0.10913516 -0.3318916 0.24391527 0.96550846 0.085958906 -0.04826554 0.2209064 0.7731229 0.12723447 0.10514015 0.24567512 -0.7975157 -0.5044112 0.3348929 -0.49689078 -0.54209256 0.09846366 -0.053283885
楼 0.76894724 -0.7174848 0.5418465 0.5997902 -0.073540896 -0.5458537 0.51827407 -0.26599398 -1.0143197 -0.31931257 0.29044512 -0.5533808 -0.30173114 -0.5933113 0.25192747 0.82707685 -0.75409275 -0.26109096 0.050861795 0.9778953 0.8017659 0.8267485 0.24103822 -1.3048497 -0.3339685 0.88054675 -0.88749325 0.47108716 0.28817818 -0.18654774 0.28568417 0.21886124 -0.39235416 -0.07010957 -0.30550772 0.071129486 0.15111555 -0.1245834 0.115977265 0.22746037 -0.021368833 0.43123397 -0.59707856 -0.34372896 0.6282886 -0.46646947 0.103351526 -0.3323937 0.14330961 0.83468395 0.096003465 -0.06484874 0.21286537 0.7147048 0.071441144 0.0844279 0.20723279 -0.792958 -0.5075948 0.25394332 -0.4764162 -0.4773677 0.11031775 -0.11042361
想 0.817732 -0.8250665 0.6431692 0.78621495 -0.17045158 -0.6299904 0.64994854 -0.30210802 -1.1606348 -0.35223547 0.41829315 -0.5708358 -0.256408 -0.7018295 0.26325202 0.8591539 -0.85120034 -0.2884665 0.054257456 1.112313 0.93140274 0.90914196 0.2358236 -1.4491937 -0.33452114 0.91732514 -1.0849545 0.44799033 0.29233193 -0.22651266 0.30949253 0.37359735 -0.35366017 -0.09156759 -0.27034265 0.056312982 0.25570115 -0.11021533 0.07785202 0.23467298 -0.013372379 0.53095627 -0.54846495 -0.39580733 0.79003155 -0.46393186 0.1769313 -0.3638807 0.2528195 1.009853 0.116540745 -0.02501193 0.23815641 0.77517366 0.19885442 0.13202088 0.2230602 -0.7786623 -0.5068948 0.3046454 -0.5041938 -0.5619578 0.16291529 -0.093297854
人员 0.7855559 -0.69211197 0.5561578 0.59973633 -0.032116804 -0.5418531 0.46165526 -0.3086729 -1.0040807 -0.28844854 0.295557 -0.4896075 -0.33955216 -0.59684086 0.2259856 0.8101188 -0.7090366 -0.3533459 0.070518404 1.0442992 0.7231311 0.82485795 0.2894541 -1.372835 -0.3916319 0.90392023 -0.89641464 0.5550262 0.24154659 -0.15218768 0.26840568 0.23400411 -0.42520615 -0.034516044 -0.282624 -0.0012482805 0.09691177 -0.13271743 0.11326368 0.24738021 -0.061858483 0.41341993 -0.6225212 -0.3273472 0.6530764 -0.50986993 0.09302331 -0.26633334 0.07608283 0.8431437 0.033551827 -0.12958851 0.21922126 0.70138645 0.08335876 0.11200117 0.19458431 -0.91363674 -0.53483653 0.16827007 -0.45961556 -0.4673721 0.06823358 -0.16406547
不要 0.71194446 -0.7958597 0.5703921 0.81920636 -0.2930281 -0.5584263 0.6638689 -0.24151483 -1.1054122 -0.29642233 0.4291134 -0.5070395 -0.19083567 -0.6977164 0.22043975 0.7346374 -0.70766574 -0.20783032 0.008607859 1.0493087 0.8743152 0.849386 0.27398652 -1.2967775 -0.1475646 0.792894 -0.9687628 0.2582786 0.2691452 -0.23557323 0.25695232 0.41620028 -0.2858578 -0.14086552 -0.19927472 0.06757515 0.35668227 -0.09881943 0.03789083 0.18221322 0.014572272 0.5349011 -0.39225024 -0.3803393 0.7301174 -0.36204237 0.14462675 -0.33275187 0.368839 0.93831265 0.13604905 0.06876716 0.21674423 0.72087127 0.18557574 0.14596032 0.2558392 -0.58615 -0.29399008 0.36536074 -0.48252478 -0.553755 0.21659498 -0.096660465
问 0.796996 -0.7733297 0.5935488 0.69338506 -0.06698128 -0.60276973 0.54929394 -0.35340983 -1.032438 -0.36826918 0.25863642 -0.5318482 -0.35225412 -0.69983435 0.2511382 0.84359646 -0.85696375 -0.29282877 0.15897766 1.0354493 0.82679194 0.8926852 0.18741515 -1.4070655 -0.40547955 0.8994426 -1.0362806 0.59383565 0.31085664 -0.16566758 0.33948246 0.27382377 -0.373442 -0.04290187 -0.25104752 0.006710227 0.121539935 -0.15530148 0.1417553 0.2922858 -0.023383873 0.41200474 -0.61562157 -0.37305462 0.72386074 -0.5360528 0.19852814 -0.36163688 0.1694747 0.89782923 0.12852056 -0.11168108 0.24176891 0.744534 0.12215215 0.06836792 0.20682234 -0.9062219 -0.59055763 0.22833174 -0.4723643 -0.53784287 0.17210767 -0.14385019
补充 0.22392319 -1.0056326 1.0232711 1.5339224 -0.87817574 -0.6108169 1.4986932 0.16482204 -1.2896765 -0.29241988 1.2100809 -0.4039951 0.30580673 -1.273495 0.35475063 0.44192252 -0.54074574 0.092699155 -0.0017256442 1.2442645 1.054581 0.9674023 -0.08649233 -1.0849634 0.6202061 0.14700854 -1.5032711 -0.97526604 0.21065125 -0.08623108 -0.032181155 1.3257471 -0.20201534 -0.36546814 0.069605105 0.5318976 1.3724383 0.27048936 -0.07047022 -0.280309 0.41043943 1.0719569 0.7368082 -0.4388238 1.3994489 0.46765065 0.2505942 -0.69420046 1.1786766 1.3846508 0.49161234 0.8838609 0.14629939 0.55890363 0.928664 0.8019328 0.23928954 0.765967 0.57479066 0.7852889 -0.39607504 -0.81208706 0.21902966 0.27839464
大床 0.74195015 -0.643871 0.57562613 0.49362794 -0.025011478 -0.46193108 0.38460958 -0.21027535 -0.74027973 -0.19506297 0.046379432 -0.5757099 -0.20550986 -0.58798355 0.26497397 0.7837565 -0.7371399 -0.21996677 0.14097056 0.86402386 0.7814447 0.6604265 0.3135962 -1.0792761 -0.27248704 0.73466825 -0.63203496 0.3864636 0.23744993 -0.13666588 0.33751613 0.18356758 -0.36450657 0.004817391 -0.33852446 0.06549489 0.15736468 -0.15027764 0.13813503 0.24000858 0.008255067 0.46759623 -0.61432105 -0.31509563 0.41334656 -0.35337058 0.19453533 -0.28821844 0.15610744 0.75889766 0.14889841 -0.096426286 0.177776 0.59700805 -0.05090311 -0.053501587 0.18436795 -0.64338595 -0.43969324 0.21750124 -0.43731666 -0.4481032 0.074433796 0.014566814
总体 0.7391247 -0.67354923 0.51524806 0.5697024 -0.10437737 -0.5209184 0.50421065 -0.26828933 -1.0009332 -0.31276223 0.3860611 -0.4900687 -0.266276 -0.53853285 0.21351072 0.8116251 -0.64998657 -0.2790995 -0.034756124 1.0261489 0.7413076 0.7934985 0.30970535 -1.248088 -0.33536357 0.8855903 -0.87934923 0.3989715 0.28131363 -0.25775927 0.21358006 0.2041503 -0.3664447 -0.10498791 -0.28918317 0.048572354 0.195761 -0.09782759 0.11662739 0.23500437 -0.03959176 0.443629 -0.546625 -0.34489092 0.6182138 -0.41230923 0.044511862 -0.30735397 0.18974005 0.81760585 0.020475065 -0.061226267 0.20563293 0.7186576 0.11076641 0.102630936 0.18580204 -0.78056693 -0.49488136 0.27030006 -0.45734105 -0.46808717 0.06919639 -0.10600874
应该 0.71950644 -0.77154773 0.5931597 0.6942192 -0.20707692 -0.57002145 0.64077044 -0.24878252 -1.0739493 -0.31424576 0.43018878 -0.5200766 -0.22804718 -0.65277857 0.22401553 0.8009594 -0.74232143 -0.25312194 0.0026402124 1.0732801 0.8366857 0.8505865 0.2336532 -1.3197707 -0.24107721 0.8378325 -0.9847832 0.32619327 0.28644776 -0.23448749 0.23677777 0.3481564 -0.35350347 -0.103110194 -0.24961643 0.074924625 0.25466913 -0.12131073 0.054218985 0.19031489 -0.01520676 0.5000434 -0.46745098 -0.3719495 0.7186327 -0.37581623 0.12908702 -0.34176245 0.27565917 0.93141466 0.08242414 0.0046512657 0.21568516 0.72582823 0.19109882 0.17049587 0.23315275 -0.6909061 -0.41171327 0.33096656 -0.46136618 -0.54548246 0.13631035 -0.08067304
希望 0.70480365 -0.85437 0.68306035 0.9092662 -0.32892373 -0.6003278 0.7554409 -0.19270977 -1.1964616 -0.27811038 0.5220301 -0.5639109 -0.1596849 -0.79217625 0.22543097 0.7781358 -0.7910908 -0.25758666 0.026741363 1.1552051 0.9736032 0.92052186 0.21546061 -1.3801372 -0.12629502 0.8212126 -1.0826353 0.19342023 0.29531422 -0.20166707 0.25317043 0.49500266 -0.31502143 -0.1277401 -0.24191023 0.15073916 0.41100213 -0.09196382 0.025536213 0.16110408 0.05490252 0.62497616 -0.3673541 -0.36627525 0.837689 -0.33869675 0.20094827 -0.37971002 0.41016707 1.0506773 0.14388835 0.12548426 0.23936222 0.73738474 0.28174555 0.22295289 0.22810274 -0.5393246 -0.29448974 0.39446595 -0.48241493 -0.60834444 0.20119415 -0.042099662
陈旧 0.8105435 -0.63455385 0.50590754 0.41170937 0.008433375 -0.48598677 0.43406436 -0.22161227 -0.96748674 -0.28272277 0.33212852 -0.51831084 -0.29785582 -0.4254213 0.2614866 0.88527185 -0.601669 -0.31237566 -0.07293681 1.0220392 0.6595999 0.7862558 0.35818923 -1.2738669 -0.44898906 0.9107545 -0.7862957 0.49313274 0.22686921 -0.24403611 0.2197594 0.109016776 -0.46643132 -0.101885036 -0.35865858 0.055777103 0.08860705 -0.15600476 0.11363644 0.2567886 -0.07824078 0.4108025 -0.6651817 -0.3449244 0.5449696 -0.42857736 -0.017301654 -0.25726008 0.04220311 0.77980757 -0.031066427 -0.16734086 0.19897658 0.75474054 0.020735795 0.09581065 0.22279957 -0.8839363 -0.59812737 0.2045893 -0.50052017 -0.44653022 -0.010962494 -0.062123343
分钟 0.9049395 -0.8457829 0.625632 0.7582364 -0.091803886 -0.6398932 0.67030334 -0.34550753 -1.1714908 -0.39366046 0.4327559 -0.61117303 -0.33959505 -0.7049984 0.23259306 0.93313664 -0.9311076 -0.333151 0.06955865 1.1699885 0.9436799 0.98697495 0.21133742 -1.5135872 -0.41891164 1.0127401 -1.1474361 0.55624133 0.308766 -0.21332954 0.31581685 0.34265235 -0.37576386 -0.09983027 -0.27104422 0.035660025 0.21961807 -0.15598354 0.09960966 0.27201217 -0.058477193 0.49041602 -0.6428466 -0.413165 0.7817017 -0.5666892 0.1474545 -0.38546857 0.20766504 1.0117053 0.13379937 -0.09314035 0.29631627 0.8657137 0.16601901 0.1052246 0.2394627 -0.923477 -0.6304058 0.3225913 -0.54308605 -0.54444844 0.16272813 -0.1335505
打电话 0.82052696 -0.78863233 0.5949147 0.6971317 -0.101275824 -0.61042374 0.56412685 -0.34800246 -1.0540631 -0.34997147 0.3020244 -0.54851186 -0.34398633 -0.68984705 0.2608799 0.8547206 -0.8357464 -0.31197765 0.1448575 1.0249048 0.83349895 0.89685845 0.1990651 -1.4285386 -0.3998997 0.9333332 -1.0328246 0.59560126 0.30146098 -0.1529805 0.34051085 0.25984898 -0.3863011 -0.021189021 -0.2599221 0.007919862 0.13929687 -0.15219025 0.13492051 0.27086622 -0.049068477 0.43297586 -0.5975047 -0.3838798 0.75144535 -0.56682044 0.17509069 -0.35756484 0.17481099 0.89193386 0.13898742 -0.13137415 0.25313845 0.75390625 0.13362442 0.08057534 0.22865017 -0.90441185 -0.5579959 0.25222403 -0.48593315 -0.51050836 0.1615108 -0.16165198
~ 0.42991668 -0.9807606 0.2861479 0.77697 0.17220496 -0.97197807 1.1434318 -0.16844288 -1.0176691 -0.31382534 0.7848832 -0.8493262 0.20485267 -0.19097857 -0.141956 0.23500474 -1.5451963 -0.7977646 0.36193144 1.5816365 1.3021809 0.7740368 0.38837254 -1.1785208 -0.85619456 0.1866789 -0.86351854 -0.39436606 0.049719684 -0.5262103 0.80334115 0.34740707 0.466516 -0.04854542 -0.5675019 -0.19654658 0.39355034 -0.28503543 0.5316359 0.7217569 0.19571307 0.21976918 -0.85650295 -0.50571 0.87756985 -0.6593724 0.8179527 0.015320695 0.2219206 1.2739662 0.43364364 0.24481888 0.76554614 0.7204089 -0.20359553 0.3018856 -0.43322238 0.093047746 -0.81944954 0.2231037 -0.6880043 -0.44512177 0.45567557 -0.4380234
星 0.71333545 -0.68811613 0.5507342 0.59287417 -0.15021916 -0.50876456 0.5238176 -0.21951215 -1.0114391 -0.28164822 0.37932748 -0.50752133 -0.19964801 -0.54123676 0.21026173 0.76197684 -0.63557214 -0.2727831 -0.004072701 1.0059706 0.7482919 0.7674902 0.30528897 -1.2497369 -0.24351637 0.81163114 -0.8486417 0.36588082 0.23687157 -0.24552761 0.2077419 0.24048555 -0.37387046 -0.1222318 -0.24646209 0.048993308 0.19405794 -0.12810192 0.039855577 0.18182284 -0.03332198 0.42821217 -0.47692302 -0.3447324 0.62405777 -0.35024387 0.03950782 -0.27320927 0.1882459 0.86731434 0.034670632 -0.013086592 0.16779922 0.7188138 0.10669923 0.1313275 0.20741034 -0.72030216 -0.43080246 0.2807441 -0.4495874 -0.48351684 0.101242736 -0.072246
特别 0.80154103 -0.76010454 0.5705177 0.6581651 -0.104615286 -0.56884956 0.56523883 -0.3005176 -1.0897578 -0.332307 0.37860718 -0.54504246 -0.30917045 -0.61128724 0.2590483 0.85682315 -0.7788966 -0.31315643 0.020333748 1.0836705 0.82237965 0.8663671 0.27816296 -1.3727729 -0.38717955 0.93162495 -0.98155344 0.5046176 0.2840358 -0.24524553 0.28646702 0.2604839 -0.38959426 -0.10189866 -0.30309427 0.044497054 0.15514459 -0.12475934 0.12013564 0.2500161 -0.037920315 0.4542036 -0.6003391 -0.3744484 0.687235 -0.48831102 0.0998719 -0.30933693 0.16368955 0.9010253 0.024601426 -0.08191729 0.24889193 0.7907407 0.110584535 0.09090698 0.23381345 -0.88316905 -0.55939394 0.2852672 -0.5080262 -0.506337 0.08968509 -0.12869884
隔音 0.82315373 -0.7027434 0.5181752 0.5062389 -0.02811276 -0.54026663 0.48411563 -0.24658974 -1.0070021 -0.33558786 0.3352903 -0.5011689 -0.29320437 -0.491769 0.31089917 0.93511987 -0.6865838 -0.3747025 -0.03578957 1.0618374 0.738985 0.8348792 0.28723818 -1.3441348 -0.4311712 0.9707992 -0.9109346 0.54879177 0.2550318 -0.23543577 0.25571793 0.14659919 -0.49060896 -0.10175478 -0.32161063 0.067264445 0.12845303 -0.13086626 0.16943812 0.28172427 -0.079006426 0.45759895 -0.68632007 -0.35317418 0.65016925 -0.445577 0.0414929 -0.28586632 0.08297934 0.8455676 -0.039415028 -0.15166388 0.20105948 0.78663635 0.081760325 0.07364908 0.22303972 -0.9217801 -0.6654334 0.24371058 -0.5288376 -0.48781067 0.026017113 -0.13695005
订 0.62667024 -0.6947191 0.5310364 0.64083797 -0.18492599 -0.47238156 0.5412727 -0.20818774 -0.9015783 -0.24923247 0.30093816 -0.48590788 -0.14852092 -0.61869335 0.23600464 0.7073711 -0.656986 -0.19041423 0.07007069 0.91544884 0.78183025 0.7275499 0.20542815 -1.10636 -0.158935 0.69922715 -0.8038255 0.2509706 0.24925685 -0.18669356 0.235039 0.3344625 -0.29113245 -0.07977965 -0.24586256 0.10633466 0.2788841 -0.09671127 0.066990875 0.17971998 0.036977936 0.46276093 -0.41265312 -0.31105274 0.6061772 -0.33299795 0.1572852 -0.31611603 0.28884012 0.8079186 0.14709783 0.028629586 0.17022802 0.61478806 0.13922743 0.09760053 0.21302775 -0.545681 -0.33333755 0.2910808 -0.40062153 -0.47798318 0.16197178 -0.030108877
高 0.72064114 -0.6545858 0.5180447 0.5969471 -0.09972362 -0.49144474 0.5274882 -0.24973825 -0.9891851 -0.2637848 0.36105213 -0.4997723 -0.24367955 -0.52913785 0.2174123 0.76319313 -0.6501373 -0.23685542 0.008486467 0.9528618 0.73091555 0.74322504 0.27119726 -1.220892 -0.29873395 0.796639 -0.81888485 0.3732779 0.22602387 -0.25191534 0.242051 0.20503291 -0.32564646 -0.082696065 -0.27760103 0.06120546 0.16878016 -0.13928074 0.07684706 0.21103373 -0.050464768 0.39667094 -0.5360116 -0.34577334 0.60393476 -0.44294128 0.06405701 -0.2693519 0.1656044 0.81619436 0.023697846 -0.044070147 0.21940047 0.67851645 0.09664848 0.11942525 0.18942077 -0.7180956 -0.48830727 0.25309312 -0.44937226 -0.4271532 0.08432725 -0.08996763
换 0.7485985 -0.6753436 0.54097897 0.5451579 -0.058233008 -0.49745893 0.44223055 -0.2576547 -0.9229244 -0.2899611 0.23033814 -0.50975305 -0.3023408 -0.5745063 0.23421475 0.78982955 -0.7376657 -0.2623613 0.104573674 0.9316769 0.75820506 0.7561088 0.24663842 -1.2534274 -0.3736554 0.83763623 -0.82912713 0.48296085 0.26212573 -0.15899721 0.281362 0.21280295 -0.36334002 -0.016555775 -0.2810164 0.04274217 0.11832756 -0.15804014 0.11808763 0.23712556 -0.024804162 0.41744494 -0.6044974 -0.33561867 0.5901258 -0.490936 0.15237822 -0.32458594 0.12143125 0.7670039 0.107635126 -0.09790913 0.20855844 0.6595788 0.041560613 0.037677065 0.19538912 -0.7829319 -0.52085614 0.20454966 -0.44152448 -0.42834562 0.12531044 -0.09395027
第二天 0.81871474 -0.8649864 0.66152334 0.77764225 -0.12483561 -0.61544293 0.66152084 -0.28656948 -1.1689926 -0.35980645 0.41748786 -0.57620645 -0.31010547 -0.72202283 0.2734181 0.8672539 -0.8770934 -0.2911598 0.09407878 1.1425856 0.92388445 0.94032466 0.2075593 -1.4771569 -0.3821968 0.9142868 -1.0887582 0.5006404 0.3187432 -0.18445565 0.31153476 0.3731352 -0.38006324 -0.08902678 -0.25512028 0.07013312 0.22681564 -0.13470489 0.12855297 0.2638654 -0.0035712577 0.50371224 -0.5828786 -0.3940852 0.8109265 -0.4915593 0.18287535 -0.37326872 0.22886018 1.0195723 0.14354904 -0.019684942 0.26960275 0.8025091 0.15799326 0.09750564 0.22748491 -0.83000004 -0.51371706 0.30852854 -0.5325203 -0.55822635 0.16668652 -0.14181592
旧 0.70764154 -0.5375054 0.39512524 0.35529828 0.043075904 -0.40657333 0.33422968 -0.21504505 -0.80075896 -0.2734694 0.2672022 -0.448729 -0.292902 -0.31708327 0.20284988 0.77913326 -0.55048966 -0.2514433 -0.05341777 0.8389912 0.59157574 0.6601606 0.283636 -1.0859652 -0.41953057 0.81600887 -0.64439064 0.45468992 0.2166386 -0.20133668 0.17001304 0.053942285 -0.41849276 -0.08976055 -0.28881156 0.0048284545 0.025528252 -0.13957521 0.09412819 0.2217656 -0.0681815 0.3429616 -0.6070556 -0.29641733 0.44358617 -0.40409815 -0.03855594 -0.2345383 0.019334137 0.66579527 -0.051049605 -0.14204592 0.18181387 0.6494481 0.022761486 0.06855831 0.18514107 -0.7849028 -0.5788455 0.17563184 -0.42642418 -0.36931843 -0.028461168 -0.08060744
一下 0.7227731 -0.8429556 0.6642953 0.8401336 -0.23061931 -0.5774308 0.7217814 -0.2373234 -1.1070123 -0.3271558 0.4637355 -0.53004557 -0.2091643 -0.7681478 0.26423603 0.79618925 -0.7749948 -0.2483377 0.078317925 1.1107095 0.914003 0.8901633 0.19601208 -1.3530897 -0.23702784 0.80368996 -1.0772922 0.27999783 0.28190455 -0.18805131 0.25121024 0.4545691 -0.3453616 -0.1254006 -0.22606303 0.12613083 0.3604268 -0.10571223 0.061852697 0.17533104 0.0371534 0.54453284 -0.37875873 -0.3790758 0.81179416 -0.34156182 0.19544223 -0.39026487 0.34960115 0.9878667 0.15844293 0.06477415 0.26381546 0.7428677 0.25529554 0.18421236 0.2285707 -0.589003 -0.37388176 0.3528758 -0.48114735 -0.5957105 0.17511429 -0.040788893
性价比 0.7159906 -0.7107121 0.49938312 0.58756906 -0.15147662 -0.52073324 0.538474 -0.23403396 -1.0441805 -0.29126436 0.40003455 -0.5206829 -0.22987512 -0.5067949 0.22869156 0.8039473 -0.67893106 -0.26145002 -0.03688296 1.027779 0.8000346 0.78575206 0.32123005 -1.2189155 -0.2715413 0.85809773 -0.8940603 0.33862895 0.2651918 -0.23138182 0.23610535 0.24852559 -0.32825938 -0.11590288 -0.2736623 0.08443706 0.22428943 -0.102529764 0.090879686 0.20195737 -0.035840873 0.46814868 -0.524363 -0.33808753 0.63742113 -0.41756496 0.053440183 -0.29604954 0.20292683 0.8430748 0.018304907 -0.030806813 0.22691703 0.7509706 0.10393925 0.121432826 0.21594666 -0.72737634 -0.45457238 0.28585994 -0.4686559 -0.49482605 0.09348225 -0.06872417
时间 0.8644856 -0.8727778 0.6720381 0.82912976 -0.15580617 -0.6523982 0.6994487 -0.30356348 -1.2048929 -0.37433827 0.44657254 -0.59884787 -0.28683776 -0.7725287 0.28629458 0.9002302 -0.9099001 -0.323487 0.06395069 1.1909072 0.97012043 0.9817919 0.23751588 -1.5241596 -0.3500611 0.96165365 -1.1614212 0.4802768 0.32249555 -0.18943782 0.29254806 0.3744007 -0.40274507 -0.0996134 -0.27917096 0.07178989 0.24961972 -0.14914595 0.11866024 0.2513159 -0.021541359 0.5475415 -0.5677074 -0.4254132 0.8420966 -0.49321863 0.19118123 -0.41030115 0.25593254 1.043474 0.14436194 -0.031374972 0.26443318 0.8130826 0.21382219 0.1308835 0.23658668 -0.8352179 -0.525464 0.31227142 -0.52395046 -0.6024621 0.16620211 -0.12804906
客房 0.85755265 -0.81558186 0.64435637 0.72720945 -0.10518256 -0.6395895 0.6228217 -0.3127477 -1.1630722 -0.34413078 0.39254376 -0.600561 -0.30966794 -0.6845752 0.26127422 0.9259998 -0.8540376 -0.31066567 0.0596098 1.1549466 0.9007879 0.91727453 0.28720564 -1.4973885 -0.37167993 0.98990506 -1.0735012 0.5125093 0.31291357 -0.22378969 0.32068673 0.29163927 -0.4366499 -0.07493939 -0.3117667 0.049598474 0.19672479 -0.13597937 0.10160284 0.25639158 -0.03948755 0.51232207 -0.6324289 -0.38894194 0.7531231 -0.5093389 0.12217389 -0.34787202 0.19896467 0.9677098 0.077490665 -0.068004005 0.26314366 0.8246348 0.13216297 0.110312484 0.21877462 -0.89607203 -0.5870093 0.2915649 -0.5319104 -0.5578754 0.107158445 -0.10478101
看到 0.8659846 -0.9018545 0.6821718 0.83446544 -0.1711747 -0.67037386 0.7124263 -0.28158665 -1.235395 -0.37967393 0.45545378 -0.61953723 -0.2842863 -0.7712687 0.30021137 0.93114346 -0.87884563 -0.29378727 0.05705889 1.2207327 0.9637723 0.98354894 0.2257934 -1.5306247 -0.3316922 0.97136027 -1.1662817 0.43059203 0.30897132 -0.21027392 0.29653752 0.40313056 -0.43048358 -0.11533495 -0.29841787 0.102378264 0.2765449 -0.13682485 0.09400052 0.24163917 -0.014374527 0.57772285 -0.545758 -0.42189533 0.839123 -0.46633372 0.1724068 -0.42001095 0.26777774 1.0726016 0.14489013 -0.02206365 0.28056702 0.82835865 0.18858697 0.146752 0.2567751 -0.81662005 -0.51796335 0.35945553 -0.5416643 -0.6051495 0.1397589 -0.101632714
做 0.7904642 -0.8030212 0.6199437 0.7820965 -0.1667242 -0.61793816 0.65736437 -0.27947947 -1.1518803 -0.3495571 0.4476228 -0.5638725 -0.26733533 -0.7082361 0.2508863 0.8234269 -0.8280931 -0.28465772 0.05933172 1.1172353 0.8960804 0.91177106 0.21934773 -1.428738 -0.30393308 0.8760336 -1.0657692 0.38427612 0.2908056 -0.19247456 0.27623153 0.38716626 -0.36220992 -0.10528085 -0.25806016 0.07097682 0.25048918 -0.118733674 0.10358014 0.24294485 -0.013890317 0.51757044 -0.51989406 -0.38010052 0.79413706 -0.45814776 0.15802468 -0.3813036 0.2641313 0.9920977 0.10736991 -0.001128247 0.2440005 0.7573072 0.19523294 0.15815774 0.21259765 -0.75989366 -0.472828 0.3292185 -0.5038251 -0.5383534 0.13789675 -0.08116131
反馈 0.15859857 -1.0633478 0.9203404 1.4865552 -0.94757026 -0.4883421 1.4206973 0.24704768 -1.179214 -0.24363342 1.176352 -0.42230007 0.31547758 -1.2207868 0.3752626 0.41117224 -0.5119511 0.029739534 -0.026738688 1.2529166 1.0820566 0.95607346 -0.117722884 -1.0801378 0.58311546 0.06401629 -1.465122 -0.9942317 0.26785886 -0.08366305 -0.106206976 1.3503711 -0.16046059 -0.3843179 0.1038909 0.5641753 1.2745979 0.22684745 -0.08683157 -0.26132995 0.40190357 1.0947688 0.7846952 -0.3929377 1.3124578 0.5009745 0.26273382 -0.607661 1.1062552 1.323971 0.5469204 0.87028986 0.22072332 0.55570674 0.9396715 0.7330029 0.21862939 0.75420684 0.62687445 0.77259904 -0.36924964 -0.8242813 0.29061463 0.34756696
提供 0.7653719 -0.76149803 0.5899725 0.7426519 -0.16678298 -0.55710065 0.5896219 -0.24155863 -1.0876523 -0.27969772 0.38146183 -0.5333877 -0.24440345 -0.668692 0.21335687 0.7966625 -0.77272207 -0.28779945 0.06273493 1.0526419 0.8611881 0.83304524 0.22417186 -1.3414207 -0.27853513 0.8249829 -0.97400415 0.36740297 0.25947335 -0.19785094 0.27481455 0.3365917 -0.35883325 -0.07192981 -0.27420554 0.08380058 0.24977943 -0.12088696 0.08430442 0.22415242 -0.01976182 0.4832093 -0.48487216 -0.34351367 0.70711654 -0.43307477 0.14353587 -0.35095906 0.23171847 0.93361163 0.09982394 -0.020723537 0.2484644 0.7200073 0.16079095 0.13828859 0.19903633 -0.7216059 -0.44560367 0.29210636 -0.46946463 -0.5016725 0.15079413 -0.07067696
可能 0.7690962 -0.7726221 0.5790515 0.7222847 -0.14222465 -0.5806782 0.62112266 -0.27580085 -1.1034371 -0.32702643 0.42135757 -0.5305094 -0.26027748 -0.63902056 0.24010293 0.85629433 -0.78324616 -0.29247892 0.016000059 1.0997634 0.8444191 0.86748683 0.26686925 -1.3913152 -0.3200064 0.89987457 -1.0108799 0.4319642 0.28622055 -0.22199188 0.2771886 0.32959697 -0.37709567 -0.08591 -0.28092036 0.0586867 0.24305613 -0.11550235 0.091485314 0.22258194 -0.017329708 0.50153995 -0.52052593 -0.3726269 0.7400195 -0.44851208 0.11018901 -0.34324992 0.23365688 0.9310623 0.09108188 -0.047130343 0.22113998 0.7738688 0.16606528 0.121160254 0.2182642 -0.77604085 -0.490716 0.3155381 -0.4910066 -0.53961074 0.12218227 -0.097664535
走 0.81149626 -0.83870524 0.62864745 0.78082865 -0.17206834 -0.6115072 0.69468325 -0.28895718 -1.1550964 -0.36385763 0.46809852 -0.58001596 -0.27416062 -0.7307166 0.2721573 0.89336336 -0.85307306 -0.2920366 0.056236014 1.1297809 0.9456169 0.92540914 0.19620517 -1.4448794 -0.36128885 0.940604 -1.1258441 0.45508566 0.31295398 -0.22638315 0.29508457 0.36959854 -0.35846156 -0.092178725 -0.2813363 0.08690387 0.27521664 -0.09965318 0.0907008 0.22781365 -0.030027455 0.5272331 -0.5509459 -0.39243728 0.8203587 -0.46102893 0.16912779 -0.39078027 0.26059145 1.0127908 0.111168616 -0.038534608 0.26697475 0.8179455 0.18984574 0.12497502 0.23532347 -0.77883124 -0.5084915 0.33152083 -0.52931195 -0.5643327 0.149839 -0.12034897
推荐 0.6199503 -0.74267226 0.5623729 0.74037385 -0.24180247 -0.5040746 0.6308923 -0.18032143 -1.0293593 -0.27264398 0.44264597 -0.49493352 -0.16035174 -0.65108615 0.23215812 0.7162757 -0.6817154 -0.21771437 0.014597291 1.0011605 0.82968545 0.78632987 0.23967625 -1.2101123 -0.17776112 0.7395444 -0.9257547 0.2007229 0.25519565 -0.22386467 0.23777623 0.38657328 -0.29005492 -0.12838322 -0.22447827 0.09031881 0.34160832 -0.082630664 0.032216445 0.16399181 0.004965302 0.49859884 -0.3452819 -0.32805276 0.6901883 -0.31173286 0.1460698 -0.33414865 0.3199516 0.88471925 0.08939494 0.08185098 0.22497956 0.6801118 0.20946859 0.17521437 0.20731382 -0.5360081 -0.3173041 0.3449088 -0.42335886 -0.5279644 0.18361077 -0.043114427
后来 0.77357095 -0.7684043 0.6289841 0.7037238 -0.11423268 -0.60117525 0.6095023 -0.2850108 -1.0745484 -0.35108614 0.33414477 -0.55866086 -0.29247218 -0.6821944 0.25366846 0.81580055 -0.8050167 -0.2655196 0.113849044 1.0719819 0.8509246 0.872369 0.21353093 -1.371464 -0.3325454 0.8672248 -1.0019664 0.47756475 0.2773422 -0.16876104 0.31700096 0.3189423 -0.36698395 -0.08095544 -0.27107027 0.06701316 0.20524043 -0.11831502 0.087598085 0.23245691 0.0002985598 0.49275905 -0.5447029 -0.36570552 0.75211287 -0.48593026 0.19582134 -0.36818454 0.21518159 0.91660684 0.15204002 -0.053269137 0.2500925 0.74175805 0.14628932 0.08770872 0.20885558 -0.7926276 -0.5064809 0.28547144 -0.49551678 -0.52873886 0.15131228 -0.08110467
满意 0.6044855 -0.6903074 0.53219235 0.6766691 -0.19626136 -0.48946923 0.57026446 -0.19030112 -0.94427574 -0.24363476 0.40504962 -0.450596 -0.16656187 -0.5908226 0.20434584 0.68704873 -0.6309802 -0.21299975 -0.002849693 0.95590657 0.7265502 0.73451734 0.20324507 -1.1387892 -0.17480609 0.6892752 -0.861203 0.21631221 0.22244577 -0.18774985 0.21168822 0.36998385 -0.287787 -0.10799488 -0.21170485 0.115551256 0.28216994 -0.056621023 0.053222537 0.14786723 0.032838974 0.4733887 -0.349975 -0.32129562 0.6587245 -0.27003402 0.10389185 -0.294412 0.2683424 0.8139983 0.09180358 0.066498235 0.21270138 0.63991296 0.21175367 0.18924612 0.18715273 -0.5164453 -0.2920839 0.29829824 -0.39353433 -0.4675578 0.12648071 -0.041165903
服务态度 0.69537646 -0.6586018 0.52939594 0.5615984 -0.09422596 -0.50260603 0.5262542 -0.2380598 -0.948142 -0.29510245 0.36072493 -0.46674326 -0.27165678 -0.5417587 0.24800235 0.78371996 -0.6848462 -0.28132054 0.0020912273 0.96850747 0.7308377 0.7550673 0.23536214 -1.2016897 -0.3160428 0.82466567 -0.8789089 0.4357132 0.27035192 -0.1924533 0.22636236 0.2391023 -0.3710123 -0.069082655 -0.26006004 0.07479805 0.14840467 -0.11165322 0.1218062 0.21560025 -0.035213206 0.43014315 -0.49601206 -0.3342028 0.6079643 -0.38383034 0.06423979 -0.28603968 0.17250848 0.7922237 0.032932296 -0.0770811 0.21158469 0.69925326 0.11413146 0.10825257 0.210814 -0.76467276 -0.47039685 0.24352045 -0.44438916 -0.4691999 0.10323429 -0.10278918
真的 0.7387852 -0.74846506 0.5776547 0.69937974 -0.16863357 -0.54069024 0.5956949 -0.22961283 -1.0508983 -0.30940154 0.42148197 -0.4919764 -0.23253755 -0.6280173 0.24456094 0.7850889 -0.7166548 -0.24480532 0.030904202 1.0234715 0.8086285 0.8375492 0.23903477 -1.3025161 -0.26142952 0.81307274 -0.9433388 0.34197402 0.25446492 -0.21629536 0.2577596 0.3379311 -0.345145 -0.108042195 -0.23392844 0.072921455 0.27026662 -0.10497418 0.060032737 0.18484996 -0.011159817 0.49843615 -0.46440583 -0.37163934 0.7045238 -0.3877598 0.10618708 -0.31899473 0.26579276 0.8992034 0.08900487 0.008257274 0.20321576 0.72437996 0.17776093 0.15007809 0.22204995 -0.6831128 -0.42607808 0.29070568 -0.4542539 -0.5096372 0.12840788 -0.07273157
觉得 0.70427865 -0.7605073 0.59935206 0.74810994 -0.20688997 -0.5454596 0.64520633 -0.22369766 -1.0788747 -0.30987686 0.47147557 -0.49334398 -0.1945909 -0.66631985 0.24453935 0.7623627 -0.70842427 -0.21820396 0.02218665 1.0454363 0.8235909 0.830824 0.24490966 -1.2549781 -0.2129835 0.79536414 -0.96353626 0.2531059 0.27819535 -0.20415014 0.21612027 0.39599198 -0.32269856 -0.1409882 -0.21763521 0.08810909 0.30972317 -0.07179783 0.059438538 0.18149741 0.028774185 0.5313947 -0.38929385 -0.37434363 0.7362038 -0.3528669 0.11832858 -0.33136246 0.3015632 0.9309452 0.09165867 0.03758422 0.22955157 0.71948487 0.22069784 0.18619779 0.22207317 -0.591703 -0.386377 0.34172353 -0.46001062 -0.5198895 0.1288042 -0.05732058
根本 0.84565204 -0.78529227 0.5816345 0.6576854 -0.10972009 -0.5813398 0.5710817 -0.312504 -1.1054639 -0.3530153 0.34284875 -0.5564247 -0.296239 -0.6310148 0.26421005 0.87218 -0.79889685 -0.29884946 0.069547564 1.086793 0.83488035 0.8816545 0.25559083 -1.4298106 -0.39644724 0.9285989 -0.9875405 0.5166335 0.28993824 -0.22815348 0.32015395 0.24892163 -0.40316796 -0.05599007 -0.29251105 0.040932354 0.16676907 -0.14000751 0.11870234 0.2767472 -0.0333355 0.44471473 -0.6067758 -0.36399427 0.71224266 -0.5079277 0.12972663 -0.34116402 0.18116753 0.934447 0.08302633 -0.10429469 0.25114447 0.7731819 0.10603633 0.09197322 0.24231721 -0.8897474 -0.57335997 0.27185124 -0.5177294 -0.52326906 0.1047274 -0.105473615
很大 0.8181024 -0.7018279 0.53800374 0.54150283 -0.022947451 -0.55287343 0.4695182 -0.282133 -1.000669 -0.3135087 0.31130007 -0.54161435 -0.28474182 -0.5167762 0.24234219 0.8814799 -0.71043634 -0.31216538 0.005391153 1.0253526 0.76239145 0.81443566 0.29781368 -1.3307594 -0.39857802 0.9320876 -0.857746 0.49955767 0.27750227 -0.2244415 0.27672595 0.15002337 -0.4266886 -0.06399376 -0.3107639 0.03839556 0.096802756 -0.15207179 0.09846601 0.2749917 -0.07560695 0.43103585 -0.6456895 -0.3494817 0.58128434 -0.47902635 0.057311535 -0.30854362 0.1006812 0.8461559 0.0066889683 -0.12322354 0.23333982 0.7718485 0.057238065 0.048019316 0.22305733 -0.86962366 -0.5958916 0.24532828 -0.49876276 -0.46342084 0.07241517 -0.08913701
舒服 0.75724494 -0.7279523 0.55307525 0.59042484 -0.09254091 -0.53917307 0.52318025 -0.26690757 -1.0056539 -0.3246791 0.3624938 -0.5298054 -0.27426612 -0.5537946 0.24341895 0.8345134 -0.7130958 -0.31218144 0.02234226 1.0148919 0.7751881 0.82206976 0.27280086 -1.2910335 -0.34339684 0.8857783 -0.87999433 0.45135263 0.2676251 -0.2292444 0.2582938 0.21863012 -0.36709064 -0.095203735 -0.27309403 0.05983574 0.16564088 -0.116634704 0.08980407 0.25638083 -0.032535855 0.45933285 -0.57699645 -0.36416388 0.6480607 -0.4212191 0.075762995 -0.32457438 0.16327062 0.8554431 0.02605808 -0.06654035 0.22808337 0.7151047 0.10667642 0.09205033 0.20846468 -0.7873337 -0.5338339 0.2568581 -0.48911113 -0.49495295 0.09190263 -0.09658289
地理位置 0.7356147 -0.658993 0.48850456 0.55647975 -0.08922386 -0.5059767 0.53918725 -0.25763682 -1.0040551 -0.29771757 0.37996274 -0.47439945 -0.26630807 -0.49197435 0.20043696 0.81111944 -0.68210953 -0.2578786 -0.04378435 0.9867047 0.7685997 0.7540689 0.25281098 -1.2183989 -0.35197386 0.85351026 -0.8765084 0.3764079 0.25614244 -0.22958615 0.22293784 0.23866212 -0.36415124 -0.11838433 -0.2571459 0.038356815 0.20423904 -0.104940176 0.09767532 0.2177589 -0.034746688 0.40758064 -0.52293885 -0.35203457 0.6217471 -0.4162271 0.03302816 -0.28548053 0.1774622 0.8164853 0.016290309 -0.05115216 0.20316935 0.7210542 0.108653694 0.13128737 0.18534641 -0.7656448 -0.51621515 0.2643911 -0.43922716 -0.44515082 0.09557122 -0.089513145
只能 0.8380762 -0.7643722 0.58255893 0.6674862 -0.090778224 -0.5810153 0.56326866 -0.29852122 -1.0757244 -0.35086203 0.34277984 -0.5470775 -0.30123803 -0.62481034 0.23480849 0.88306254 -0.8073384 -0.3048046 0.052262977 1.082076 0.8606743 0.8631624 0.253327 -1.4111453 -0.38032207 0.94332796 -1.0039003 0.5031044 0.27960908 -0.20230293 0.31189665 0.27101645 -0.37364608 -0.08314811 -0.28503817 0.031865317 0.15648891 -0.14898331 0.11072885 0.25295463 -0.050782334 0.46468583 -0.61456347 -0.39426157 0.72391725 -0.49848017 0.10924681 -0.3392305 0.15903802 0.93608487 0.072968885 -0.07643599 0.25271353 0.77291465 0.0987444 0.08403495 0.23569646 -0.86798584 -0.5725092 0.27369863 -0.5214284 -0.5046591 0.10546672 -0.09627982
豪华 0.6983839 -0.62194705 0.5208304 0.520999 -0.08163511 -0.4537795 0.4459231 -0.21633671 -0.85143614 -0.22160627 0.17698796 -0.5385595 -0.23499109 -0.5263318 0.22328153 0.76291555 -0.66457444 -0.2501798 0.057936966 0.918555 0.77004844 0.69853413 0.297848 -1.1283708 -0.2495031 0.78462434 -0.71215 0.37788624 0.24713893 -0.19608174 0.28388298 0.1856452 -0.33629507 -0.066807695 -0.31182477 0.054413643 0.17954786 -0.12618159 0.092845 0.23898114 -0.010019532 0.4238792 -0.5776047 -0.33470938 0.48367983 -0.37008736 0.13854101 -0.28718466 0.15923783 0.7481299 0.11535099 -0.06356018 0.17636229 0.62575924 0.008249417 0.016816432 0.21398754 -0.69575226 -0.44133076 0.2125343 -0.4428135 -0.45295957 0.09150042 -0.023587553
四星 0.7523158 -0.70585716 0.5565898 0.5942358 -0.109812014 -0.5137506 0.52974576 -0.25438526 -1.0077307 -0.315544 0.35435274 -0.533704 -0.25330362 -0.53213406 0.2199844 0.793652 -0.69019246 -0.26134235 0.021577854 0.9956496 0.7783944 0.81328297 0.27102593 -1.2787604 -0.3172515 0.84611183 -0.87880987 0.44412574 0.24839468 -0.2537378 0.24247864 0.2113692 -0.36919695 -0.07919967 -0.2623476 0.043071285 0.18038887 -0.14782979 0.06471856 0.20327055 -0.020569095 0.42610857 -0.558525 -0.3642586 0.6357191 -0.42767522 0.06477327 -0.27994394 0.15788972 0.87751573 0.04353953 -0.07014459 0.19612756 0.73444813 0.07821636 0.09987615 0.22157066 -0.76692355 -0.51583016 0.26461682 -0.47085738 -0.46590474 0.11789753 -0.08602982
再次 0.6538457 -0.9210039 0.75376856 1.0539366 -0.44486025 -0.634707 0.926711 -0.11161456 -1.2643777 -0.31294972 0.6731986 -0.5642545 -0.08694344 -0.9403977 0.27671626 0.7314825 -0.83700895 -0.21849252 0.01877644 1.1856635 1.0385295 0.98936176 0.17853394 -1.4416176 -0.015458682 0.7531805 -1.2542374 0.00431735 0.2842444 -0.14535572 0.17816171 0.699149 -0.3084869 -0.17152743 -0.21163353 0.24769235 0.5894852 -0.06310755 0.024060333 0.112100124 0.122210726 0.72168875 -0.15993042 -0.4228396 0.95480704 -0.18315545 0.19298843 -0.46613547 0.5340303 1.1223333 0.23797052 0.28329426 0.2510761 0.76626676 0.43074468 0.29160625 0.23578739 -0.3593917 -0.17108661 0.44629896 -0.47696707 -0.66600853 0.19220173 0.024915937
东西 0.72679114 -0.722915 0.52698857 0.6277178 -0.085715026 -0.5434209 0.5273464 -0.2522216 -0.96786267 -0.34239593 0.32322517 -0.49916017 -0.27125752 -0.5552426 0.21358322 0.772852 -0.73284173 -0.26164925 0.055485286 0.9813979 0.7661937 0.81119144 0.19392826 -1.2542428 -0.37369487 0.8134687 -0.9070586 0.45036376 0.2651603 -0.19464959 0.28882247 0.26582405 -0.33634156 -0.061727297 -0.24675983 0.04043101 0.16969341 -0.10285274 0.113188304 0.23149018 -0.062847905 0.39811635 -0.5388336 -0.3332061 0.6621565 -0.44652644 0.11991891 -0.32098484 0.17987868 0.8582686 0.0753961 -0.07691126 0.22476304 0.7089635 0.098939896 0.07705343 0.20090155 -0.76859576 -0.51417595 0.24594721 -0.4310197 -0.4533063 0.11605983 -0.10879161
需要 0.7980317 -0.8124922 0.6150964 0.7464765 -0.1516856 -0.58505744 0.63312167 -0.27717495 -1.1308397 -0.31607032 0.41109487 -0.5550277 -0.28669015 -0.70236766 0.23236644 0.8478285 -0.82466 -0.30629054 0.0648131 1.1155819 0.9132553 0.896949 0.221354 -1.4315377 -0.35118303 0.92351156 -1.0578977 0.4330791 0.29603183 -0.22029273 0.2972009 0.3581933 -0.37779677 -0.074604936 -0.2763005 0.07688758 0.24359481 -0.12543112 0.102185614 0.22588167 -0.02455226 0.50483465 -0.5662095 -0.36997536 0.7714316 -0.4742664 0.17443383 -0.37141752 0.23287581 0.9690877 0.14041907 -0.03214902 0.2561019 0.7722872 0.15715188 0.13863282 0.23461226 -0.7837265 -0.50136936 0.2846386 -0.48889077 -0.5605718 0.14809893 -0.10262456
上网 0.75689214 -0.69035 0.50802743 0.5676387 -0.07464777 -0.47425625 0.45429075 -0.22820751 -0.95855904 -0.25351846 0.24540134 -0.512537 -0.2901949 -0.5313619 0.20234606 0.76946455 -0.7259558 -0.23516805 0.074308366 0.9175005 0.7444987 0.76902145 0.210329 -1.2328814 -0.3455754 0.81040996 -0.836457 0.48757637 0.25499508 -0.20199193 0.29933545 0.18983574 -0.34361863 -0.029629717 -0.29342526 0.050670456 0.15042429 -0.12505843 0.13840958 0.22988914 -0.024131518 0.38624346 -0.55170757 -0.34272006 0.6105015 -0.43264264 0.12113253 -0.27662718 0.09650371 0.7934905 0.09529638 -0.104008526 0.22668916 0.6476727 0.06501336 0.09267976 0.20339108 -0.7580427 -0.48400536 0.20899756 -0.45086125 -0.41679892 0.0956554 -0.058380026
更 0.82929647 -0.8510616 0.6392255 0.80917734 -0.19492254 -0.63806254 0.6852895 -0.28951728 -1.1748496 -0.3306949 0.44147924 -0.5744203 -0.27068064 -0.7280692 0.2677926 0.8782494 -0.8370092 -0.2863358 0.041415043 1.1709466 0.92527294 0.9399644 0.2654319 -1.471097 -0.31220075 0.91277784 -1.0819243 0.39040604 0.29304847 -0.20657173 0.28425547 0.38457155 -0.38216436 -0.100021355 -0.2792759 0.071726106 0.2893743 -0.1166676 0.07646706 0.22616 -0.0055894577 0.5457893 -0.5279489 -0.38208577 0.7845783 -0.4532958 0.1583867 -0.37358877 0.26135063 1.0275855 0.124216504 -0.009528916 0.24899325 0.80157363 0.2050267 0.152254 0.24463058 -0.7774109 -0.4825933 0.32981205 -0.51313424 -0.5589564 0.13892452 -0.07759704
饭店 0.7365706 -0.7878545 0.6005787 0.7207198 -0.1733675 -0.58112764 0.6564882 -0.2628528 -1.1021926 -0.31516367 0.44516915 -0.52142125 -0.24716066 -0.65683925 0.24691229 0.81027746 -0.7304984 -0.2693224 0.0026697388 1.0845969 0.85538757 0.8596342 0.21869396 -1.342073 -0.2745796 0.86467415 -1.0163755 0.35164142 0.29236475 -0.23729521 0.23702796 0.34929368 -0.37210947 -0.1314769 -0.2421989 0.07817328 0.26086777 -0.09775209 0.08846793 0.21514286 -0.02046038 0.49840546 -0.46253747 -0.37032562 0.72403723 -0.40623075 0.096170686 -0.33671877 0.26321125 0.9275819 0.09645739 0.0060048457 0.23167945 0.74719125 0.18839177 0.15894724 0.22795387 -0.71080416 -0.45219776 0.31627387 -0.48625407 -0.52818996 0.13505396 -0.07166782
味道 0.88154435 -0.7653588 0.5832668 0.6289964 -0.038315464 -0.5981661 0.54083437 -0.29696557 -1.1123855 -0.35047135 0.33604097 -0.5916918 -0.32959825 -0.5782288 0.25630262 0.91150904 -0.82876694 -0.3266535 0.04900391 1.1238322 0.84365904 0.8769523 0.2934663 -1.4410379 -0.44824085 0.99236023 -0.96870244 0.542282 0.2864135 -0.24773005 0.31872296 0.21190295 -0.4227989 -0.059837148 -0.32010642 0.019988101 0.14798883 -0.1671575 0.12722865 0.31118703 -0.07149009 0.4668482 -0.69664645 -0.40006673 0.6783267 -0.536057 0.11470443 -0.31511095 0.13633198 0.9355976 0.042420346 -0.13350742 0.27181745 0.8009097 0.09186529 0.08141977 0.21843022 -0.94018334 -0.6275374 0.2531951 -0.5285477 -0.50204664 0.09575157 -0.13609716
里面 0.8107575 -0.74170965 0.542257 0.57995045 -0.061146967 -0.5533596 0.5165925 -0.30037653 -1.0410022 -0.33985314 0.3152036 -0.5430588 -0.31277624 -0.5318747 0.24737935 0.86828965 -0.7517857 -0.32932425 0.013538348 1.0487487 0.7921332 0.8335818 0.27655438 -1.3718852 -0.42936295 0.9429204 -0.9201261 0.51841944 0.27888998 -0.21564108 0.293549 0.19394928 -0.41054142 -0.08793338 -0.3072734 0.0222781 0.10512189 -0.14650238 0.11497778 0.27424666 -0.063646205 0.4251304 -0.63792056 -0.35766432 0.659486 -0.49381307 0.0977554 -0.30835614 0.12801449 0.87078434 0.04753722 -0.13576457 0.23835446 0.7756027 0.08895324 0.06452939 0.22991005 -0.8834574 -0.6170677 0.2590385 -0.5043062 -0.46770275 0.07072902 -0.12541248
最后 0.75018305 -0.76849556 0.57452697 0.7186375 -0.16068925 -0.56321007 0.6326155 -0.26489776 -1.0352387 -0.32926157 0.38951832 -0.5190737 -0.26011693 -0.66632867 0.21835844 0.7861052 -0.8016638 -0.25718004 0.08046809 1.0479302 0.8568816 0.8617387 0.20020927 -1.3199356 -0.30155176 0.819092 -1.0023695 0.39081162 0.2882249 -0.17055754 0.28840044 0.35476822 -0.33034265 -0.07424104 -0.24772827 0.05408261 0.22812355 -0.11060959 0.08001704 0.2347079 -0.0133950645 0.4788042 -0.50187635 -0.35028434 0.7501186 -0.43079603 0.17217426 -0.35306963 0.23164925 0.9327099 0.11840891 0.001240621 0.24827383 0.734401 0.17329644 0.13077499 0.21190253 -0.6937794 -0.47344816 0.28022465 -0.4700974 -0.51643544 0.16209385 -0.09745291
小时 0.80820626 -0.7763157 0.60141635 0.718102 -0.08249946 -0.5831982 0.594934 -0.31403667 -1.0627123 -0.35032955 0.35949022 -0.5482185 -0.2776814 -0.6471685 0.2447407 0.83417106 -0.8411721 -0.30783644 0.06556002 1.0625724 0.87799346 0.8936843 0.20683116 -1.3878347 -0.39855117 0.9207107 -1.006158 0.49179158 0.31155497 -0.20977998 0.2875411 0.31962785 -0.35063198 -0.07913284 -0.25410014 0.038144663 0.18816993 -0.13123378 0.0879713 0.2659608 -0.04603861 0.45429915 -0.56757754 -0.35654405 0.74918026 -0.49048844 0.16663979 -0.35862297 0.1805039 0.924974 0.11719579 -0.055476777 0.26447824 0.75732666 0.12391515 0.10609974 0.23244976 -0.8374577 -0.5362426 0.28339627 -0.4948983 -0.50677997 0.12535933 -0.13288707
早上 0.7158078 -0.7474377 0.5422549 0.6856711 -0.12190852 -0.5277182 0.5853388 -0.2583606 -1.022776 -0.32614124 0.37681326 -0.48248157 -0.26125026 -0.62124795 0.22701052 0.7885237 -0.75696915 -0.28150943 0.06820581 0.98390514 0.80931926 0.8072936 0.17803934 -1.2741143 -0.32846817 0.8064549 -0.9727643 0.40089622 0.27614287 -0.18352006 0.27577454 0.32575977 -0.3257658 -0.061477702 -0.2543621 0.072290674 0.19162591 -0.084074154 0.09521752 0.22169851 -0.018287836 0.44647238 -0.47518867 -0.33742136 0.6873551 -0.41546425 0.14428084 -0.34770104 0.20952636 0.8578202 0.12558413 -0.046192173 0.24386771 0.6967121 0.15369752 0.08886219 0.19705473 -0.7067729 -0.47927213 0.24694884 -0.44439822 -0.4793668 0.10982367 -0.1087036
中 0.8418564 -0.82918704 0.6334791 0.78042763 -0.19482668 -0.632528 0.69138706 -0.29411644 -1.2032807 -0.35072234 0.4689743 -0.57391965 -0.27988625 -0.74427706 0.24819551 0.8890085 -0.8449156 -0.28912118 0.0464568 1.1495066 0.92768574 0.9534031 0.2668607 -1.4668047 -0.30914667 0.9157856 -1.0987482 0.40376356 0.31507292 -0.23264734 0.301076 0.3682103 -0.37595603 -0.10304104 -0.28256622 0.09814033 0.26879776 -0.11884285 0.060181618 0.22920804 -0.011369 0.5558481 -0.5230401 -0.4168268 0.7926291 -0.46142617 0.12646675 -0.37007725 0.29492313 1.0073872 0.12493148 0.008264494 0.24010141 0.80992085 0.199109 0.16697268 0.24820745 -0.7587916 -0.49194992 0.3284275 -0.5355248 -0.56595063 0.1507886 -0.10391463
床 0.8038054 -0.7245323 0.5742102 0.575562 -0.04527223 -0.5529247 0.5316406 -0.27416736 -1.0202674 -0.33720958 0.30322176 -0.5427559 -0.27885836 -0.54205865 0.25865045 0.88429767 -0.7518274 -0.318967 0.035395343 1.0442951 0.8029204 0.81659263 0.265894 -1.3478233 -0.41876903 0.94535357 -0.90579045 0.4697207 0.28081447 -0.21952301 0.295405 0.19283377 -0.39145657 -0.078121394 -0.3178167 0.03666488 0.13318032 -0.16284549 0.12137594 0.28873882 -0.060016353 0.45628604 -0.6284453 -0.3518439 0.6173117 -0.46366856 0.09332886 -0.31135917 0.120938204 0.8505725 0.059804022 -0.12005547 0.24603856 0.7359104 0.058599446 0.086838596 0.20631248 -0.86624396 -0.5947907 0.23346668 -0.48794806 -0.49752954 0.07418113 -0.103482135
送 0.74615586 -0.7117971 0.51999754 0.64129454 -0.088409394 -0.5186288 0.52218604 -0.28157178 -0.9887901 -0.32694513 0.34347612 -0.46795207 -0.27153972 -0.61510307 0.2078845 0.7709229 -0.73421663 -0.24255909 0.09508421 0.9470892 0.7381843 0.8026531 0.18815441 -1.2426562 -0.33638987 0.79641074 -0.92782414 0.45809412 0.25556928 -0.165833 0.30008358 0.25618485 -0.34131223 -0.07580091 -0.23000567 0.03027941 0.18029691 -0.11375086 0.0919729 0.23307106 -0.020974118 0.40642074 -0.5160301 -0.33159557 0.66672915 -0.45150962 0.124124125 -0.3258988 0.16187194 0.8446319 0.09095381 -0.062430687 0.24280253 0.7050151 0.13689895 0.10399284 0.19842479 -0.7683997 -0.49655914 0.25932723 -0.45493895 -0.46147987 0.11032782 -0.08157578
硬件 0.76087147 -0.6935659 0.542727 0.5597717 -0.11705431 -0.51937383 0.52143407 -0.2608863 -1.0091689 -0.29200077 0.3566097 -0.50602245 -0.26967558 -0.52480894 0.25474283 0.8326027 -0.6577599 -0.3053845 -0.01567339 1.0362443 0.75200605 0.81216574 0.29785186 -1.2684393 -0.33689168 0.86633253 -0.8721767 0.4211981 0.26299447 -0.21274965 0.22130387 0.20725992 -0.41124976 -0.11667614 -0.295433 0.063840754 0.17035376 -0.12793528 0.07756542 0.21533196 -0.039996807 0.4449972 -0.5290714 -0.34807742 0.6033883 -0.39456153 0.056198496 -0.29622588 0.16604075 0.85090786 0.007623634 -0.07416128 0.2169098 0.7419279 0.11932941 0.112712 0.21004213 -0.79981226 -0.51285416 0.23811351 -0.46888816 -0.48530132 0.070158616 -0.08195654
很差 0.62260205 -0.6124988 0.48114336 0.55174226 -0.08688554 -0.45687667 0.4743651 -0.17886727 -0.85919386 -0.25169083 0.36498213 -0.433004 -0.19698152 -0.50779283 0.23067646 0.7052363 -0.5948181 -0.23746924 0.01766403 0.879325 0.63913494 0.69162005 0.21595207 -1.0953435 -0.24574563 0.71232367 -0.78433967 0.30636933 0.22553538 -0.18101926 0.20230517 0.24970597 -0.31230786 -0.08245486 -0.22772336 0.05704669 0.21513467 -0.0858627 0.08686499 0.17863631 -0.023788396 0.39736098 -0.40711513 -0.2918659 0.5821164 -0.32159188 0.06184117 -0.27804628 0.16987878 0.75732386 0.021729311 -0.02369753 0.19165911 0.6103844 0.14543644 0.13593398 0.17795728 -0.61334443 -0.39615655 0.22739072 -0.38561276 -0.42476124 0.080276616 -0.08184933
小姐 0.70180446 -0.68013793 0.5252645 0.63423145 -0.06330043 -0.52328134 0.5261945 -0.26579842 -0.9238908 -0.30363554 0.27902362 -0.48638085 -0.28789803 -0.6299928 0.22707023 0.73002964 -0.7138618 -0.27884904 0.09276646 0.9339737 0.7387647 0.7717038 0.19126761 -1.2278354 -0.31420362 0.7878538 -0.8999595 0.47052082 0.2608783 -0.12641756 0.2682525 0.2477925 -0.34150082 -0.023218988 -0.23902364 0.016798297 0.14662135 -0.13893975 0.09854794 0.21531324 -0.028180728 0.41950664 -0.51963675 -0.3132744 0.65902215 -0.46324274 0.16584931 -0.29616347 0.16305032 0.8079902 0.117401205 -0.086789824 0.22745547 0.65572405 0.14313334 0.07860214 0.17625228 -0.77105504 -0.47192332 0.20578146 -0.43175918 -0.46198076 0.12808372 -0.13745461
不到 0.7939826 -0.7269079 0.5484709 0.65281886 -0.09675669 -0.5595641 0.57160264 -0.30385143 -1.0381628 -0.31261247 0.36552724 -0.5259421 -0.25837323 -0.62290543 0.22336215 0.80506957 -0.75043064 -0.2839016 0.047924317 1.0084918 0.8076881 0.8578817 0.24723321 -1.3264352 -0.3743677 0.8884641 -0.9444246 0.4690096 0.25122878 -0.21254613 0.25849608 0.26013058 -0.3715407 -0.07279763 -0.24110243 0.03719194 0.16583763 -0.14450334 0.0963991 0.24538192 -0.023640726 0.42652476 -0.55858797 -0.3591333 0.6890012 -0.45899105 0.09115085 -0.3171136 0.18902725 0.91037005 0.048745293 -0.053298388 0.22044668 0.75695384 0.120326355 0.07291425 0.23374414 -0.8149143 -0.5458484 0.27333564 -0.45680314 -0.48706305 0.10620194 -0.08674932
开 0.71518505 -0.69301116 0.53808963 0.6199222 -0.09026426 -0.5208961 0.50659513 -0.24926272 -0.92294234 -0.31240928 0.31803045 -0.46861625 -0.22315158 -0.5915028 0.230462 0.73907334 -0.7159216 -0.25389382 0.07578555 0.91147536 0.74798334 0.7715082 0.18493724 -1.2254002 -0.3513867 0.77436835 -0.89012766 0.42905447 0.2728882 -0.17646196 0.24572602 0.26747102 -0.32670045 -0.056862142 -0.22473137 0.024196737 0.17084734 -0.11566974 0.08929913 0.23940921 -0.026745453 0.38720575 -0.50948256 -0.3444617 0.6387037 -0.43605533 0.12117382 -0.30616945 0.17411464 0.8000374 0.08702455 -0.07782432 0.22004896 0.6473389 0.11691376 0.06212149 0.18197708 -0.70102215 -0.4705307 0.2295938 -0.42135575 -0.43536013 0.12665243 -0.10068454
门口 0.81454235 -0.7892043 0.58291614 0.71097785 -0.12149066 -0.5839881 0.6026128 -0.2986218 -1.1133536 -0.33508337 0.4253855 -0.54225296 -0.2969169 -0.6241378 0.23278219 0.87318367 -0.82861084 -0.29174036 0.036113538 1.0858711 0.8717608 0.88631636 0.22560954 -1.4032074 -0.39369476 0.91896755 -1.0366875 0.46773002 0.2892638 -0.20907132 0.26670277 0.3032341 -0.37938637 -0.10626227 -0.27386057 0.06306912 0.21245849 -0.10442571 0.11582536 0.2640495 -0.025033796 0.4794884 -0.56371015 -0.38588938 0.7399377 -0.4832976 0.1125102 -0.34320548 0.18600564 0.940729 0.075482816 -0.079250574 0.2773286 0.79256076 0.15043812 0.13923386 0.20373923 -0.8348216 -0.5510446 0.3031867 -0.5007533 -0.50627244 0.12951486 -0.11450946
